<?xml version="1.0"?>
<opencv_storage>
<my_svm type_id="opencv-ml-svm">
  <svm_type>C_SVC</svm_type>
  <kernel><type>LINEAR</type></kernel>
  <C>1.</C>
  <term_criteria><epsilon>2.2204460492503131e-016</epsilon>
    <iterations>10000</iterations></term_criteria>
  <var_all>1764</var_all>
  <var_count>1764</var_count>
  <class_count>5</class_count>
  <class_labels type_id="opencv-matrix">
    <rows>1</rows>
    <cols>5</cols>
    <dt>i</dt>
    <data>
      0 1 2 3 4</data></class_labels>
  <sv_total>10</sv_total>
  <support_vectors>
    <_>
      3.31786723e-004 7.61293015e-003 1.75147299e-002 2.15702411e-002
      1.95510145e-002 -2.34757420e-002 -1.02806855e-002 1.24014150e-002
      1.98474210e-002 5.62188774e-002 1.63430031e-002 1.88647583e-002
      4.56879428e-003 6.48519844e-002 -8.94823484e-003 8.28010589e-003
      1.61952972e-002 5.39884493e-002 4.68241833e-002 -1.23934848e-002
      9.88606177e-003 1.97934136e-002 2.88367085e-002 -1.88246444e-002
      -1.24950055e-002 3.49096730e-002 4.86164838e-002 4.52812947e-002
      1.36141432e-002 4.96472567e-002 2.81081311e-002 1.40427956e-002
      -2.35062819e-002 2.12244242e-002 5.03101572e-002 6.15125895e-002
      3.53455916e-003 -3.14249434e-002 -5.57671674e-002 -2.41521001e-003
      -7.29874289e-003 -3.11950650e-002 2.41523907e-002 9.34054144e-003
      1.19300224e-002 2.20530294e-002 -1.65648367e-002 -2.16483977e-002
      1.52550424e-002 2.25531925e-002 2.23814957e-002 8.83412808e-002
      6.52233884e-002 4.02558148e-002 6.55457005e-003 -2.88463887e-002
      -5.05546480e-003 -6.87070424e-003 -1.31045710e-002
      -4.67742644e-002 2.14886628e-002 3.86880785e-002 2.21477747e-002
      -4.04462740e-002 -5.23011684e-002 -8.71880502e-002
      -8.06624629e-003 -2.64996588e-002 -4.00682651e-002 5.53463064e-002
      5.48724458e-002 -3.75719294e-002 -3.02184261e-002 -1.84528455e-002
      -1.12937344e-002 3.04741925e-003 -2.53109932e-002 8.10736511e-003
      6.56699985e-002 2.80827601e-002 -1.33743910e-002 -2.92836819e-002
      1.38022881e-002 9.52650141e-003 1.52908731e-002 -3.31516713e-002
      6.56974176e-003 3.79894227e-002 -1.25786047e-002 -2.40921881e-002
      -6.85623437e-002 -2.82154959e-002 -5.23828417e-002
      -2.94804629e-002 -4.92497459e-002 -6.33126730e-003 5.32946624e-002
      3.27373520e-002 -4.23090905e-002 -2.63245050e-002 -1.69357862e-002
      -1.24185020e-002 -2.47172639e-002 -4.83659096e-002 8.71842075e-003
      -2.51157791e-004 1.25540858e-002 -2.35516801e-002 -1.10959250e-003
      3.79532166e-002 4.50861864e-002 4.20423746e-002 6.57795928e-003
      9.71996412e-003 -5.88599779e-003 -3.86066549e-002 -3.68306525e-002
      -1.45753529e-002 4.82182726e-002 4.94440496e-002 3.89552563e-002
      1.11290663e-002 7.84836151e-003 -1.53657263e-002 -1.54287936e-002
      -4.77994680e-002 2.77244505e-002 -2.89928145e-003 -7.71047175e-003
      -1.33621776e-002 -5.11123985e-002 3.55403661e-003 -2.16032900e-002
      2.13341359e-002 1.96812879e-002 -2.81705912e-002 -2.59270780e-002
      -1.00671714e-002 -1.14654135e-002 -3.32573093e-002
      -2.61615515e-002 -4.47450019e-002 7.65654072e-003 -1.37990182e-002
      -3.51478346e-002 2.22146511e-002 1.92040894e-002 4.49626371e-002
      5.12498245e-002 3.82674821e-002 -2.59769801e-002 -3.00993212e-003
      -4.31347750e-002 -4.00073528e-002 1.28883990e-002 2.42389981e-002
      4.30087559e-002 9.48117003e-002 6.25177100e-002 2.69035064e-002
      2.77490504e-002 -3.49567719e-002 -5.76472171e-002 -2.32083518e-002
      6.56034378e-003 1.66766290e-002 1.86901782e-002 -3.23405042e-002
      -7.85285756e-002 -7.06960931e-002 -7.39729851e-002 3.81783908e-003
      1.52737610e-002 2.49537937e-002 8.00969973e-002 6.22770563e-002
      1.67365354e-002 4.20750119e-003 5.11336466e-003 -2.71437336e-002
      -3.81142013e-002 8.93937889e-003 3.10920235e-002 4.12795618e-002
      9.12672132e-002 3.54074463e-002 1.70591958e-002 2.04265211e-002
      -5.20319827e-002 -4.01649587e-002 -3.47326313e-005 1.43772988e-002
      1.13924965e-002 2.05309857e-002 -6.53924374e-003 -1.39064193e-002
      -2.65334435e-002 -3.35148759e-002 -1.73992235e-002 1.27382800e-002
      5.63243330e-002 7.65580237e-002 6.16219901e-002 5.76153882e-002
      2.24958025e-002 -1.43074924e-002 -3.10355164e-002 -1.38363577e-002
      2.42300685e-002 2.77613401e-002 2.20673122e-002 2.39311364e-002
      1.83768999e-002 -5.65516204e-002 -6.03597723e-002 -2.43409891e-002
      1.86915882e-002 6.83693066e-002 6.14210702e-002 4.10307385e-002
      2.13753488e-002 -1.01911426e-002 -3.75855342e-002 -1.68751813e-002
      2.30289325e-002 3.91593948e-002 7.01460764e-002 7.43505433e-002
      6.85378388e-002 4.95076776e-002 3.03871427e-002 1.84463877e-002
      2.63545290e-002 4.19247821e-002 1.34217730e-002 6.40766248e-002
      4.18563746e-002 1.01597635e-002 -4.85083647e-002 -2.58299094e-002
      -9.76527780e-002 -8.81930590e-002 -2.91554797e-002 3.61283794e-002
      7.97722861e-002 7.03033432e-002 9.18533653e-002 4.07139063e-002
      1.56436842e-002 -2.77557578e-002 -1.07815694e-002 9.60330945e-003
      3.50530744e-002 -1.88979302e-002 8.60228203e-003 1.30043523e-002
      3.23669426e-002 -3.44335474e-002 -3.37431841e-002 3.12436651e-002
      6.27731010e-002 3.98395509e-002 -1.17661443e-003 5.91417737e-002
      4.14157286e-002 -1.15983137e-004 -4.07325402e-002 -2.87802126e-002
      3.55126075e-002 6.62087053e-002 8.27432703e-003 -3.74327600e-002
      1.12605058e-002 3.02257091e-002 7.69135877e-002 2.59006582e-002
      2.74875090e-002 5.08031063e-002 4.48293388e-002 -4.94186394e-003
      -2.70516220e-002 4.33670683e-003 2.51672994e-002 2.12024897e-002
      1.69238057e-002 -3.31588951e-003 4.73624235e-003 4.19145599e-002
      1.70566421e-002 -4.74591600e-003 -5.90823870e-003 3.47569352e-003
      -1.66683160e-002 -2.90188882e-002 1.81968566e-002 3.87306996e-002
      3.97826955e-002 8.14951770e-003 2.61247682e-004 -6.07249476e-002
      -2.23007351e-002 6.37032418e-003 -2.98795775e-002 2.94552855e-002
      5.60121052e-002 2.57652178e-002 9.14513227e-003 1.68614704e-002
      5.54319657e-003 3.29992129e-003 -1.74455065e-002 -1.78224593e-002
      2.18283851e-003 -1.87655836e-002 1.90480379e-003 -2.07070410e-002
      -9.00079682e-003 -2.65795719e-002 -5.96274324e-002
      -6.10031635e-002 -5.18182628e-002 5.71331708e-003 -4.83061513e-003
      -1.26305176e-002 -6.70851097e-002 -3.44152115e-002
      -4.29842547e-002 -4.48545292e-002 -4.79143858e-002
      -1.64594762e-002 1.90131012e-002 4.06815531e-003 -5.94532862e-002
      -2.93941852e-002 -1.79716814e-002 1.09371744e-004 -2.76264865e-002
      -3.39928716e-002 9.81966406e-003 3.84344868e-002 5.24824075e-002
      -1.74920671e-002 -4.18875292e-002 -3.27284187e-002
      -4.82984222e-002 -7.17510208e-002 -6.11225180e-002
      -4.23368961e-002 2.59386282e-003 -4.86786058e-003 -3.49551067e-002
      -2.74736118e-002 -2.72386260e-002 -1.66822653e-002
      -2.75073536e-002 4.70256386e-003 3.74901551e-003 8.09213892e-003
      6.51369803e-003 -1.27325645e-002 -2.52917763e-002 -2.22513676e-002
      -1.92236900e-002 -4.43968102e-002 -6.51875138e-002 4.32236027e-003
      -8.15381855e-003 2.95928121e-002 4.76835715e-003 -4.32524160e-002
      -5.89870773e-002 -5.44015504e-002 -5.44279441e-002
      -5.59093766e-002 -7.25479471e-003 -2.45862384e-003 2.92624012e-002
      1.78241450e-002 -1.58875808e-002 -1.80019140e-002 -1.17397523e-002
      -2.85353586e-002 -2.32033804e-003 2.18740609e-002 1.57651864e-002
      7.38885440e-003 1.02246134e-002 -2.85105892e-002 -1.71385873e-002
      -2.72427443e-002 -4.38483283e-002 -4.99263406e-003 3.63385975e-002
      6.50477111e-002 4.89792004e-002 -1.24714558e-003 -3.54740955e-002
      -2.74246503e-002 -2.93938518e-002 -1.17659569e-002
      -2.74572168e-002 8.62972869e-004 -8.71819165e-003 -8.52840394e-003
      -2.47629974e-002 1.31004700e-003 -2.57949717e-003 -1.06765358e-002
      5.57699315e-002 3.28473076e-002 1.05753262e-002 -6.06697053e-003
      -3.27089503e-002 -1.24322847e-002 -1.40028363e-002
      -6.53210049e-003 -6.12025382e-003 2.79738829e-002 8.70934781e-003
      3.01266126e-002 4.62870821e-002 3.07188425e-002 -2.40814220e-002
      -2.86621768e-002 -2.89294105e-002 -7.35570258e-003 7.10077584e-002
      3.92884463e-002 3.04706823e-002 1.82399545e-002 -3.21542509e-002
      -5.47590703e-002 1.77126788e-002 -1.52878277e-002 -1.85394089e-003
      5.53637408e-002 6.03373051e-002 4.43362221e-002 -5.36317099e-003
      -3.93526368e-002 -7.93290790e-003 -3.80002963e-003 3.30684497e-003
      -3.33508127e-003 -2.58986023e-003 -1.94378588e-002 7.16206944e-003
      -3.77194211e-002 -3.96915339e-002 -1.87355857e-002
      -2.05725688e-003 -8.43234360e-003 1.02289319e-002 3.92899401e-002
      3.79547663e-002 2.84154695e-002 -1.22578104e-003 -2.13616043e-002
      -1.23491865e-002 9.85965133e-003 5.28229363e-002 5.20932674e-003
      -1.94764081e-002 -2.13208534e-002 -1.28945271e-002
      -3.73722203e-002 -3.37314084e-002 -1.10821901e-002
      -1.39103280e-002 3.79054993e-002 1.03012938e-002 8.22717440e-004
      -1.59102324e-002 2.60290387e-003 -4.46809493e-002 -3.49816047e-002
      -2.80113518e-002 -6.40712213e-003 4.56777886e-002 4.69650924e-002
      6.31437823e-002 1.61667727e-002 -3.14749195e-003 -3.43873538e-002
      -2.96416301e-002 -2.01235656e-002 2.20496394e-002 7.92676136e-002
      4.14537750e-002 -1.18170567e-002 -2.69557890e-002 -2.45281048e-002
      -2.79053580e-002 -2.74625998e-002 9.70530510e-003 4.10817713e-002
      6.91457689e-002 6.70699403e-002 5.52097894e-002 -6.94416231e-003
      -4.39480878e-003 -2.06964929e-002 -4.10896502e-002 2.19450984e-002
      -1.17371706e-002 -1.97087880e-003 6.13279454e-003 2.71428153e-002
      6.18041679e-002 3.84188071e-002 9.17575881e-003 5.12746051e-002
      3.91180068e-003 -1.00774886e-002 2.22675242e-002 4.22799401e-002
      3.67916152e-002 3.97760794e-002 1.21424673e-002 -5.73360026e-002
      -4.21443768e-002 -3.91624048e-002 2.44396739e-002 -1.01027451e-003
      3.32213193e-003 1.56156337e-002 4.83569205e-002 3.25087905e-002
      -3.87345511e-003 1.90260969e-002 7.74971908e-003 2.00555082e-002
      3.82590480e-002 4.13091034e-002 4.26916219e-002 -4.03997488e-003
      4.30816337e-002 -2.21670587e-002 1.84166618e-002 -2.13408247e-002
      5.52619016e-003 2.94085015e-002 5.93277579e-003 1.93266906e-002
      8.73338059e-003 2.02447101e-002 1.88305939e-003 -4.30460759e-002
      -1.86790321e-002 -1.40062906e-002 3.07071842e-002 -1.20817358e-002
      -1.15808910e-002 -4.12037224e-002 -1.68228429e-002
      -2.01534349e-002 -2.45399307e-002 -3.07125356e-002 8.07084329e-003
      1.73595231e-002 1.61718708e-002 2.62229070e-002 -5.11138234e-003
      3.47828008e-002 -1.24645671e-002 -8.89697287e-004 -2.12615542e-002
      1.03440427e-003 -9.95207392e-003 3.41309095e-003 1.08768744e-003
      -1.30299134e-002 1.47952624e-002 1.03713870e-002 -2.20186505e-002
      -1.75512433e-002 -4.04970460e-002 -2.12851800e-002
      -4.48531322e-002 -6.09648637e-002 -3.45048010e-002
      -2.34848484e-002 -4.21198644e-002 -3.69235016e-002
      -1.95402112e-002 -2.45608650e-002 -3.46402302e-002
      -2.54925918e-002 8.58643651e-003 4.52609770e-002 2.23284010e-002
      -1.29685905e-002 -1.29235545e-002 1.99459177e-002 -6.91056438e-003
      -3.67064811e-002 -1.47100361e-002 -2.71493103e-002 1.31592085e-003
      -1.20326420e-002 -4.78736237e-002 -5.29284962e-002
      -9.39655956e-003 8.98331776e-003 -2.74648778e-002 -1.64502934e-002
      2.64033619e-002 5.03060743e-002 2.59775147e-002 5.48783084e-003
      -2.96318997e-002 4.29235632e-003 -6.20479807e-002 -5.78591153e-002
      -5.68792075e-002 -1.09670507e-002 2.72609964e-002 4.25708340e-003
      -2.79096104e-002 1.41557539e-003 -8.22325610e-003 -4.22610827e-002
      -2.32287906e-002 -2.91483738e-002 8.44700541e-003 -1.13339815e-003
      4.73303627e-003 1.18463626e-002 3.19745615e-002 -8.41214973e-003
      -3.74746248e-002 -5.23256809e-002 -4.66773137e-002
      -6.27677701e-003 1.17466794e-002 8.13238695e-003 1.11333327e-002
      6.74597407e-003 -8.55649263e-003 -1.52158486e-002 -2.32260898e-002
      -1.76659096e-002 2.38712132e-002 1.23993168e-002 1.65568013e-002
      6.38058782e-003 3.71677019e-002 9.12294257e-003 -4.97812703e-002
      -3.28696743e-002 -3.53278033e-002 1.02200899e-002 -1.64119508e-002
      -3.86542431e-003 1.51546607e-002 1.03033229e-003 -3.08744516e-002
      -7.15640113e-002 -3.91816199e-002 -1.19560882e-002 2.61394121e-002
      2.35946830e-002 7.46559631e-003 2.13742908e-003 -3.38256247e-002
      -6.19552769e-002 -1.36145102e-002 -1.95932593e-002 1.08735068e-002
      1.37477536e-002 1.29498774e-003 2.02990994e-002 2.85973623e-002
      1.26281492e-002 1.59997819e-003 -2.90816762e-002 -3.60149853e-002
      -3.06718592e-002 -5.44928201e-003 2.93998625e-002 2.47431714e-002
      5.30494489e-002 2.38382202e-002 -7.67731061e-003 -1.98910441e-002
      2.31676269e-003 6.70952583e-003 2.40473282e-002 3.81642841e-002
      3.15664373e-002 -2.76005990e-003 2.96815555e-003 -5.36185643e-003
      -2.38531195e-002 -7.14742532e-003 -4.45041480e-003
      -2.27417611e-002 -1.13154631e-002 -1.41772097e-002
      -2.09899060e-002 -1.20078269e-002 -9.88441706e-003
      -5.01844846e-002 -2.87143607e-002 -1.60818622e-002 5.96905407e-003
      3.58461998e-002 3.87984551e-002 3.33978310e-002 4.47987281e-002
      -4.74350713e-003 -3.82664464e-002 -4.18508500e-002
      -5.86586446e-003 -1.10471083e-005 3.13485898e-002 1.87711734e-002
      1.13070374e-002 1.75577644e-002 -2.48470064e-002 -9.77953430e-003
      -1.18173836e-002 1.94273684e-002 -1.88788902e-002 -1.82738733e-002
      -2.08371952e-002 -2.25946754e-002 -1.95776634e-002
      -1.46572040e-002 3.94510329e-002 1.71351656e-002 3.58608104e-002
      1.24237360e-002 -1.33215897e-002 4.70171636e-003 8.35387874e-003
      -9.20057017e-003 3.83896194e-002 -2.25215293e-002 -3.46134044e-002
      -6.97261700e-003 7.47702690e-003 1.54747553e-002 1.68307275e-002
      4.19865847e-002 2.60972660e-002 -3.71674239e-003 4.44455910e-003
      -2.84221657e-002 -1.15068757e-003 3.73349227e-002 2.05789693e-002
      2.88400929e-002 1.43356789e-002 -1.09559996e-002 1.58115663e-002
      4.32419889e-002 2.75969468e-002 4.36451361e-002 2.97688805e-002
      5.49948141e-002 3.96237560e-002 1.35480622e-002 -8.23414791e-003
      3.01528792e-003 -1.72347501e-002 4.10399288e-002 4.38225754e-002
      3.75037827e-002 -3.12686823e-002 4.71454822e-002 1.68481842e-002
      3.52174193e-002 -1.65593028e-002 -2.06241235e-002 4.02602814e-002
      7.11105466e-002 4.87226285e-002 3.90786678e-002 4.60083671e-002
      1.20149385e-002 -1.09056002e-002 -2.66743265e-002 -2.49144174e-002
      2.09712610e-002 -1.54122757e-002 1.49708614e-002 -5.26736490e-002
      7.45142847e-002 2.90115029e-002 2.24741902e-002 -1.79231241e-002
      -3.98671778e-004 7.87016749e-003 1.57461055e-002 2.49514785e-002
      -1.98733546e-002 2.18770783e-002 1.10288868e-002 5.48665747e-002
      8.97408871e-004 -4.83920388e-002 -2.41593886e-002 2.22523026e-002
      1.53502310e-002 -4.48723175e-002 2.10324638e-002 1.02769928e-002
      2.75523737e-002 -2.57159397e-002 -2.66026333e-002 4.90836194e-003
      3.09794862e-003 1.76115427e-002 -5.63064776e-003 2.29829587e-002
      2.28796527e-002 3.36424559e-002 1.39739374e-002 -7.01826364e-002
      -4.10894938e-002 -1.87068693e-002 -9.49021801e-003
      -3.83955194e-003 4.24491912e-002 3.39574330e-002 4.75843549e-002
      -2.53841989e-002 -2.98150424e-002 -5.54033183e-002
      -3.51089146e-003 1.46251190e-002 -1.88023169e-002 -3.78162065e-003
      -3.35839018e-002 -4.19834591e-002 -2.26343311e-002 4.39336710e-003
      -1.84734538e-002 -7.86139071e-003 4.72653545e-002 2.74570379e-002
      3.94060910e-002 1.65208485e-002 -2.18293467e-003 -5.25743514e-003
      -7.02952892e-002 -6.78400397e-002 -3.81189249e-002 7.43254600e-003
      -5.53591177e-003 9.22830310e-003 -1.32080996e-002 -4.90201823e-002
      -7.40720034e-002 -4.30604853e-002 -2.44926605e-002 4.06425726e-003
      4.10585888e-002 5.20138219e-002 2.42656805e-002 3.39953275e-003
      -2.53901575e-002 -5.59222139e-002 -4.40053493e-002
      -5.20742647e-002 -4.13877852e-002 -2.26673037e-002
      -1.78808309e-002 9.90671199e-003 9.02957749e-003 2.02947017e-003
      -5.71147464e-002 -2.92395838e-002 -7.23719457e-003 1.98896378e-002
      1.15522435e-002 2.29859725e-002 4.33668718e-002 4.87609059e-002
      3.12832296e-002 -1.64776947e-002 -7.16503635e-002 -2.01420039e-002
      6.39134145e-004 -9.21160728e-003 4.47876664e-004 -5.66729112e-004
      -1.53916124e-002 -3.25401053e-002 -8.14240575e-002
      -2.70783175e-002 1.83758661e-002 1.82185769e-002 3.13297547e-002
      4.50740159e-002 5.36048189e-002 3.15886997e-002 7.90445134e-003
      -5.85091561e-002 -2.96198223e-002 4.75174747e-003 4.15832996e-002
      1.64324455e-002 3.55460271e-002 2.74091456e-002 3.64292599e-002
      1.08753638e-002 -1.89264081e-002 -6.79811314e-002 -3.44848484e-002
      -1.03177680e-002 -7.59349111e-003 1.02023240e-002 2.65734456e-003
      2.76991762e-002 -1.62477442e-003 -3.87422144e-002 -2.77887359e-002
      -3.92433861e-003 1.03639103e-002 4.33360459e-003 5.38266301e-002
      2.92732026e-002 2.61430349e-002 -7.46884290e-003 -4.40238565e-002
      -6.04663379e-002 -3.44225466e-002 2.59471009e-003 7.41678989e-003
      2.45059980e-003 -3.80608044e-003 4.35102091e-004 -3.13832462e-002
      -5.15291132e-002 -3.78126688e-002 -4.34916392e-002
      -1.77626759e-002 1.72524266e-002 2.83021163e-002 2.70535462e-002
      2.55897697e-002 3.24001051e-002 -2.27894448e-002 -5.84270395e-002
      -5.36029711e-002 -1.58840641e-002 7.64262583e-003 3.62387002e-002
      3.64632607e-002 1.32436575e-002 3.73563124e-003 -4.50790189e-002
      -3.56951319e-002 1.46404345e-004 2.67104674e-002 5.53334691e-002
      5.61302677e-002 2.85689421e-002 1.43433539e-002 -1.51868099e-002
      -3.31324451e-002 -2.76615322e-002 6.02804683e-003 1.35083236e-002
      5.43797314e-002 6.48735091e-002 4.96920757e-002 -2.50695436e-003
      -2.55360696e-002 -1.34437298e-002 -3.70675996e-002
      -4.12824675e-002 -6.47005904e-003 3.40538025e-002 6.29492328e-002
      7.09717348e-002 4.64510061e-002 3.37380879e-002 -2.50833631e-002
      -2.12243721e-002 -1.55545240e-002 1.90950967e-002 3.40992324e-002
      3.04966867e-002 4.70641740e-002 2.81727184e-002 4.75347508e-003
      -2.80237757e-003 -5.05608208e-002 1.36938402e-002 8.11149087e-003
      7.50518590e-002 5.79042658e-002 6.94528520e-002 1.27774421e-002
      -3.73369940e-002 -4.42895815e-002 -5.86570464e-002 8.87888763e-003
      4.22141254e-002 5.17526940e-002 3.78869958e-002 4.84952107e-002
      2.64571030e-002 -1.50562935e-002 -4.52423319e-002 8.63968767e-003
      6.10593110e-002 8.08169097e-002 5.81047647e-002 5.63272201e-002
      5.96185625e-002 -1.26397726e-003 -1.51067935e-002 -2.72392221e-002
      -1.40287038e-002 1.86942704e-002 5.25109097e-003 2.64566429e-002
      6.69048131e-002 8.23001638e-002 1.28412070e-002 4.61814413e-003
      -6.47747423e-004 5.91936931e-002 4.96667176e-002 -1.78619083e-002
      3.70816588e-002 3.67288962e-002 2.86062118e-002 2.44502444e-002
      4.02806606e-003 4.53381836e-002 1.10715348e-002 -3.03700026e-002
      -4.95167412e-002 -2.65496243e-002 7.39064366e-002 6.23601638e-002
      7.35162050e-002 3.43292318e-002 4.68530282e-002 -1.63261481e-002
      -1.31920530e-002 -1.55771179e-002 1.90040115e-002 1.59989726e-002
      1.66699644e-002 4.21268633e-005 -1.44938604e-004 2.10820772e-002
      -4.23764065e-002 -1.64140798e-002 3.49564303e-004 1.04409037e-002
      1.65839568e-002 5.33396518e-003 8.58437642e-003 -2.25970754e-003
      -5.69010247e-003 2.40465570e-002 -1.64776575e-002 1.55636752e-002
      2.88823731e-002 4.63539660e-002 1.88857410e-002 3.56084146e-002
      1.75483394e-002 2.75405291e-002 -5.83429215e-003 2.28965678e-003
      2.44504139e-002 3.32059748e-002 1.35521814e-002 -2.09826995e-002
      -1.56771000e-002 -3.84265631e-002 -1.69004202e-002
      -6.67285696e-002 -3.95117253e-002 -2.21197046e-002 2.49445122e-002
      1.89251769e-002 -2.31288951e-002 -1.28076235e-002 -6.03024475e-002
      -6.69834390e-002 -8.30723718e-003 -1.96774094e-003 8.61287396e-003
      4.41032462e-002 1.20146781e-001 2.91451681e-002 1.51450532e-002
      5.47483657e-003 -3.94890644e-002 -3.21798623e-002 -2.33004298e-002
      -1.41883614e-002 1.42029254e-002 -1.47444969e-002 -4.70544286e-002
      -5.04346639e-002 -6.19044900e-002 -5.12321033e-002 2.44739652e-002
      2.28831042e-002 2.33734455e-002 2.51810160e-002 2.88732629e-002
      6.67358749e-003 1.65306330e-002 2.25678179e-002 -2.20067985e-002
      -4.62091193e-002 -1.47357453e-002 1.91462319e-002 -1.15437517e-002
      6.73362566e-003 5.33682667e-003 -5.12034399e-003 -3.22845988e-002
      -6.27203360e-002 -6.36421843e-003 1.51463859e-002 3.39041315e-002
      3.46713178e-002 6.29624873e-002 4.78914194e-002 -1.82109270e-002
      -2.41606105e-002 -4.17029932e-002 -1.47554278e-002
      -1.23130493e-002 -1.69024449e-002 -1.96587648e-002
      -1.20624090e-002 -1.51164019e-002 -2.63747405e-002
      -2.91132480e-002 -8.01143423e-002 -1.03697553e-002 1.10295312e-002
      3.48032489e-002 1.37134874e-002 3.01541835e-002 1.47564448e-002
      -1.55702280e-002 -1.95374414e-002 -4.70948666e-002 5.87064959e-003
      -7.81905465e-003 2.63452735e-002 8.68842658e-003 4.95697297e-002
      1.55462204e-002 2.03971192e-003 -4.54289429e-002 -2.69139130e-002
      -6.80664368e-003 -2.20363569e-002 1.67788491e-002 2.54802294e-002
      4.23128083e-002 5.78828389e-003 -1.77439931e-003 -1.88974198e-002
      -2.25566570e-002 -3.20879072e-002 -4.44296002e-003 1.58008635e-002
      4.26524831e-003 8.47446825e-003 -3.36718298e-002 -4.28040922e-002
      -5.44612072e-002 -4.86021563e-002 -4.06269431e-002
      -1.94141138e-002 1.41767063e-003 1.93135515e-002 2.80422978e-002
      5.04410593e-004 -1.16052954e-002 -3.31082232e-002 -4.30782475e-002
      1.78710520e-002 2.52287574e-002 3.21672186e-002 2.89739687e-002
      6.99738786e-002 3.31451111e-002 1.25637548e-002 -1.73960943e-002
      9.13715514e-004 -4.82212426e-003 5.61385415e-003 -6.13147346e-003
      -4.75218706e-003 -1.52393139e-003 6.22724183e-003 -3.10273115e-002
      -4.14425693e-002 -2.08177045e-002 1.24348886e-002 -2.28814743e-002
      -2.26227753e-002 1.94772221e-002 4.34722863e-002 5.26938140e-002
      4.77931835e-002 -1.45317577e-002 1.78311672e-003 6.86845800e-004
      -7.66808586e-003 -7.19697252e-002 -7.08041415e-002
      -4.51337881e-002 -8.11803038e-004 -3.48566398e-002
      -4.93493006e-002 -1.68220289e-002 6.85141538e-004 4.51211184e-002
      3.27874869e-002 4.75474782e-002 3.42586339e-002 5.37043028e-002
      -1.17199048e-002 -2.93666683e-002 -1.90154221e-002
      -2.64821891e-002 1.72377024e-002 2.96854675e-002 4.19461913e-002
      3.05520184e-002 2.39454955e-002 -1.48918163e-002 -1.68336392e-003
      -1.83278061e-002 6.98583899e-003 4.69947979e-003 -4.47640643e-002
      -2.82712858e-002 -2.97514144e-002 -1.51334414e-002
      -3.23339142e-002 -1.99430399e-002 -1.15148509e-002
      -3.73327173e-003 1.58947259e-002 -3.19574550e-002 1.63580738e-002
      -4.74963374e-002 -1.44418878e-002 -2.57824212e-002
      -1.76311340e-002 -1.91060752e-002 9.25904661e-002 2.07265858e-002
      -4.94921096e-002 5.66909509e-003 5.15414067e-002 -1.96646014e-003
      -8.93963967e-003 -6.70726364e-003 8.62521902e-002 -1.65999529e-003
      8.14162567e-003 -1.27504356e-002 -1.62455179e-002 7.16231391e-002
      1.20809255e-002 7.86678307e-003 -4.78770817e-003 3.26459482e-003
      5.33520393e-002 5.92967216e-003 -3.69346589e-002 -4.39097174e-002
      -3.55300307e-003 -3.74020170e-003 -7.86508154e-003 2.00238638e-002
      7.64440745e-002 5.54184476e-003 2.64898818e-002 1.34663489e-002
      -2.82884315e-002 1.56193413e-002 2.74607766e-004 -1.98736023e-002
      1.78329181e-004 3.28369029e-002 4.44537103e-002 -5.08860499e-003
      3.72847752e-003 7.53495842e-003 4.69382294e-002 3.29705328e-003
      3.93954897e-003 -9.16701462e-003 4.16001193e-002 -2.18380298e-002
      2.29022875e-002 2.14737300e-002 1.27832703e-002 -3.24681401e-002
      -5.02163172e-002 -4.55413088e-002 -5.60336299e-002
      -3.64385471e-002 -2.87485821e-003 1.74822100e-002 2.98944712e-002
      -9.01477039e-003 3.46285515e-002 4.34886198e-003 -3.55729498e-002
      -2.45708805e-002 9.36302450e-003 -1.42765092e-002 2.07021516e-002
      4.58317399e-002 1.30119128e-002 4.71864175e-003 -2.32798886e-002
      -5.32262288e-002 -5.03099933e-002 -3.08532752e-002
      -6.66027248e-004 9.43121780e-003 1.58507731e-002 1.40360212e-002
      -1.32375835e-002 -6.05050288e-002 -5.30779548e-002
      -3.95495556e-002 -2.38892455e-002 2.81689689e-002 3.93171236e-003
      2.92325504e-002 3.33414823e-002 -9.20558441e-003 -2.96525117e-002
      -1.46167809e-002 1.27233760e-002 -5.22953225e-003 -2.95264218e-002
      1.77255198e-002 2.92067733e-002 -7.67505844e-004 -3.22231911e-002
      -4.36977930e-002 -6.61719963e-002 -2.37476733e-002
      -5.63372262e-002 -2.75136698e-002 3.50188799e-002 3.16510797e-002
      5.04805334e-003 9.98920016e-003 4.26995754e-003 -3.77075709e-002
      -2.12971978e-002 -2.22407393e-002 1.79060027e-002 9.09167621e-003
      -2.62161111e-003 1.76870786e-002 -2.69900225e-002 -2.36433540e-002
      -4.45176922e-002 -4.10746261e-002 -2.59391908e-002 2.48327060e-003
      4.21146676e-002 4.60840650e-002 3.05260085e-002 1.04208132e-002
      5.26678376e-003 -3.48948799e-002 -2.03137416e-002 -3.39891762e-002
      -4.09745090e-002 1.53492801e-002 9.48640518e-003 -1.37634585e-002
      -3.25404815e-002 -1.42288096e-002 -7.33924434e-002
      -6.71888590e-002 -4.97021638e-002 -2.94065047e-002 4.40243855e-002
      2.79722828e-002 4.43900377e-002 6.90597948e-003 8.54986627e-003
      -3.66224200e-002 -3.65368240e-002 -3.76911722e-002
      -2.49746349e-002 2.44109593e-002 1.80144031e-002 4.46613543e-002
      2.53266487e-002 -4.27360088e-003 -6.32482767e-002 -5.25064841e-002
      -4.25249562e-002 -2.18108017e-002 -1.40556190e-002 1.70921776e-002
      6.09072745e-002 4.09582295e-002 1.12582985e-002 -3.12158931e-002
      -3.58314477e-002 -3.32265981e-002 -3.94287333e-002 1.19327893e-002
      2.65456680e-002 5.23264967e-002 2.41238642e-002 -5.56559302e-003
      -5.34790233e-002 -3.59857157e-002 -4.06371132e-002
      -2.05677841e-002 -2.56489683e-002 -3.13729141e-003 6.30583018e-002
      3.60103697e-002 -4.69587336e-004 -5.32334596e-002 -4.43277173e-002
      -3.38539183e-002 4.45433483e-002 -5.48083615e-003 -1.99322645e-002
      2.57738400e-002 4.69940715e-002 7.40724355e-002 1.59795173e-002
      -9.56416037e-003 3.97300050e-002 4.32548188e-002 -3.05260299e-003
      -8.62428322e-002 -3.49572748e-002 -3.43306102e-002 3.10149174e-002
      -4.29234877e-002 -1.54941604e-002 3.48360315e-002 -1.62266828e-002
      -3.13416347e-002 -4.96160276e-002 4.06892411e-002 6.07734211e-002
      3.46240029e-002 -1.54761970e-002 -2.68790927e-002 -7.15479348e-003
      -1.89545378e-002 -4.69925888e-002 -6.13264367e-002
      -2.42826343e-002 -1.13534797e-002 1.09128198e-002 -4.40560505e-002
      -4.19996157e-002 -1.95407290e-002 8.47486779e-003 1.19276505e-004
      -3.75229903e-002 -3.13520879e-002 -4.69632819e-002 2.36624330e-002
      -4.87551577e-002 4.01548622e-003 6.32048445e-003 9.64784995e-003
      2.29166839e-002 -3.62822898e-002 1.75774451e-002 -1.73688456e-002
      6.61453698e-003 -1.44047784e-002 -4.74858424e-003 -5.43456757e-004
      1.13006867e-002 -1.95914675e-002 2.75068381e-003 7.22736074e-003
      -1.57152284e-002 1.40506877e-002 -5.40287420e-002 -5.99614345e-003
      6.27324311e-003 3.33657637e-002 1.03320973e-002 1.04363570e-002
      2.26420723e-003 -1.74151883e-002 2.04407107e-002 -2.41529085e-002
      8.78587831e-003 2.24734936e-002 1.25098471e-002 1.97406467e-002
      -1.23225981e-002 -3.11766732e-002 -4.55841161e-002
      -1.98996924e-002 -1.72172785e-002 8.53184843e-004 2.17908267e-002
      -9.97950905e-004 3.13607231e-002 2.22518574e-002 -1.93832703e-002
      -1.01146698e-002 -3.25804763e-003 2.83615809e-004 4.51603299e-003
      -1.62580069e-002 2.86567770e-002 2.29951292e-002 4.13639508e-002
      1.86312303e-003 -2.98926216e-002 -3.32152061e-002 -1.54657930e-003
      -4.36188094e-003 2.63644550e-002 3.10690422e-002 3.46165597e-002
      3.79674584e-002 2.93303980e-003 1.26928426e-002 8.00555293e-003
      3.14136222e-002 3.89757045e-002 2.52950005e-002 -1.36555536e-002
      2.13533714e-002 1.79653838e-002 -1.33422008e-002 1.93348397e-002
      5.20944316e-003 -2.95614433e-002 -2.04699170e-002 -1.04685528e-002
      -2.42344234e-002 -8.35509691e-003 3.73334670e-003 1.48741389e-002
      7.07067177e-002 -7.76580861e-003 -4.05948050e-002 -3.09610832e-002
      -1.20349536e-002 1.39227333e-002 1.86543204e-002 2.03221310e-002
      1.94367126e-003 -5.31704223e-004 1.26175871e-002 1.04988310e-002
      1.78433117e-002 2.11576521e-002 2.88596135e-002 2.29706001e-002
      3.14083509e-002 3.19079086e-002 1.69803910e-002 -1.13686398e-002
      -1.28690619e-002 3.47982533e-002 2.48891711e-002 -3.87220606e-002
      -1.21144047e-002 -5.44969691e-003 3.59745580e-003 -3.16099375e-002
      -2.27911975e-002 -5.05485609e-002 -1.48735652e-002
      -3.00195180e-002 7.66633358e-003 3.44313309e-002 6.09863037e-003
      -3.60039100e-002 -4.61084060e-002 1.29213324e-002 -1.87158156e-002
      -1.47101339e-002 1.90352295e-002 -9.33989417e-003 6.59152027e-003
      2.75810510e-002 2.32999567e-002 -2.34311563e-003 -1.04731205e-003
      -9.90717858e-003 -1.54874974e-003 5.32400154e-004 -3.60435843e-002
      5.85154332e-002 5.20914197e-002 1.65143833e-002 -2.81552877e-002
      3.50328651e-003 4.18352196e-003 -7.25949183e-003 -1.54972887e-002
      -5.85635751e-002 3.16983536e-002 1.48367248e-002 -2.85447538e-002
      -5.19153550e-002 3.28185074e-002 -4.86443341e-002 -3.71499732e-002
      -4.53093611e-002 -4.53542955e-002 4.70293872e-002 2.44152490e-002
      4.16011363e-002 2.16092933e-002 2.57093273e-002 -1.12594459e-002
      -1.35052120e-002 -3.93578410e-002 -8.65130872e-002 8.50921869e-003
      1.23959798e-002 1.25328312e-003 -3.46829593e-002 1.83972586e-002
      -9.79350880e-003 9.89339314e-004 -5.68301938e-002 -2.59072781e-002
      1.76749472e-002 2.19494496e-002 2.32315063e-002 3.84956188e-002
      2.58296393e-002 -7.77561264e-003 2.21134411e-004 -3.53032164e-003
      -3.57000344e-002 -3.68777127e-003 1.42335342e-002 4.53464501e-002
      3.33478674e-002 -1.23594478e-002 -5.53447939e-002 -2.76122522e-002
      -3.20259668e-002 1.00043006e-002 -2.16242038e-002 1.35343883e-003
      7.02912435e-002 5.16491197e-002 1.12782633e-002 -4.41524126e-002
      -2.18322296e-002 -2.77523231e-003 7.87898898e-003 -1.36950416e-002
      2.41355505e-002 1.15189115e-002 2.35788785e-002 2.09045410e-002
      -2.22450420e-002 -1.91760659e-002 -5.31434035e-003 2.74292137e-002
      2.38056425e-002 3.83004770e-002 5.47029302e-002 7.50558153e-002
      2.26283167e-002 -2.02876572e-002 3.56038567e-004 3.06607835e-004
      -1.17555009e-002 -6.11590818e-002 -2.15087850e-002 6.29524812e-002
      6.64940476e-002 3.30464430e-002 -6.71006739e-003 -2.09008977e-002
      -1.97653994e-002 -7.67102558e-003 -2.86807902e-002
      -5.95863983e-002 -1.31317722e-002 1.56375542e-002 3.49668004e-002
      -2.22421456e-002 -4.19253707e-002 -4.63213623e-002 1.30546018e-002
      2.83424892e-002 3.15456875e-002 7.87399337e-002 1.17916547e-001
      2.08384171e-002 4.64373548e-003 -1.14606516e-002 3.86892655e-003
      -1.37564354e-002 5.69869624e-003 -1.82920936e-002 2.70316377e-002
      8.35967138e-002 5.44135943e-002 2.69384570e-002 -3.47578563e-002
      -1.48457298e-002 -5.73150106e-002 -1.03016878e-002
      -3.14555578e-002 -6.67317808e-002 -3.04503515e-002 1.22858081e-002
      -4.21248376e-002 -3.21721435e-002 -4.08046506e-002
      -1.78710669e-002 1.09156920e-002 2.38672807e-003 -2.59968941e-003
      -2.78434195e-002 7.72542693e-003 -9.24195815e-003 1.08444784e-002
      -2.82433927e-002 8.09625199e-004 1.92124806e-002 -1.04894359e-002
      3.58047374e-002 8.63650590e-002 7.70745650e-002 3.36338058e-002
      -9.42620076e-003 -6.32061018e-003 3.83778661e-002 5.41010760e-002
      2.68806536e-002 5.76405041e-002 5.84953912e-002 4.76663001e-002
      2.39753406e-002 3.57754081e-002 3.28489169e-002</_>
    <_>
      7.11247623e-002 3.59473899e-002 3.26874815e-002 3.22449617e-002
      5.34844510e-002 3.71660292e-002 3.83426398e-002 2.93185636e-002
      7.59473518e-002 4.95098904e-002 -4.72523039e-003 -1.35940611e-002
      1.19701419e-002 2.93906182e-002 2.05911808e-002 3.36978175e-002
      2.88959835e-002 6.66614249e-002 1.53396996e-002 -2.11917143e-002
      -3.92241292e-002 6.46037096e-003 9.16193519e-003 4.19048294e-002
      4.47579585e-002 3.68587114e-002 3.11415326e-002 -4.18842249e-002
      -9.17511061e-002 -8.34065974e-002 -3.30951326e-002
      -2.91294437e-002 -7.08511751e-003 2.87960451e-002 1.75177753e-002
      -1.20175583e-003 2.44039223e-002 -2.81367879e-002 -3.04788779e-002
      -1.27100234e-003 1.08118914e-002 2.84224545e-004 1.43446857e-002
      1.49136679e-002 3.72062773e-002 -3.65525903e-003 -2.50653122e-002
      -2.29593571e-002 -5.35384243e-005 2.05913745e-002 1.33464327e-002
      1.67187694e-002 1.06028700e-002 1.15060769e-002 -7.50029180e-003
      -4.21755575e-002 -3.93892489e-002 4.42564860e-003 -6.06625993e-003
      -2.03399453e-002 7.40980264e-003 2.22041607e-002 8.44803732e-003
      -6.14001788e-003 -2.93086357e-002 -3.06062307e-002
      -3.37557448e-003 1.75612117e-003 -1.30600277e-002 1.88266058e-002
      1.98730361e-002 -7.03752367e-003 -4.60906625e-002 -1.54068898e-002
      -1.77887809e-002 6.89826207e-003 6.56492822e-003 1.58619380e-003
      1.76802799e-002 -7.01419916e-003 -3.31136398e-002 -5.26830219e-002
      -1.40819298e-002 -6.56966865e-003 1.90236457e-002 1.90949999e-002
      5.43800415e-003 2.42182575e-002 -2.32109800e-003 -3.98788974e-002
      -7.82494526e-003 -1.16612548e-002 -1.22451149e-002
      -5.43493452e-003 -5.13386866e-003 -3.50153749e-003 2.88774297e-002
      1.45315798e-002 -8.60962726e-004 -1.49077335e-002 1.80670875e-003
      -7.76140543e-004 -1.39078125e-002 -1.50063187e-002 1.47558963e-002
      4.01707180e-002 3.61528248e-002 1.45400409e-003 -6.10380359e-002
      -1.62767973e-002 8.76755454e-003 1.80733316e-002 2.92899702e-002
      4.45598998e-004 1.34042185e-003 -1.00562666e-002 -5.30643687e-002
      -5.14513813e-002 -2.24127676e-002 3.00162286e-003 5.49272727e-003
      2.30657179e-002 9.84465610e-003 1.55281660e-003 -5.47259297e-005
      -5.54049797e-002 -1.21747088e-002 -1.30132465e-002 1.46856727e-002
      -1.60923321e-003 1.23041747e-002 1.85471047e-002 4.16983180e-002
      3.84854004e-002 2.85211462e-003 -1.78231131e-002 -1.97678357e-002
      -1.94901862e-004 7.50284037e-003 2.53678560e-002 2.98310146e-002
      4.39613424e-002 4.11865227e-002 -5.18741226e-003 -6.88477308e-002
      -1.70641504e-002 -5.46135381e-003 8.01686756e-003 2.08309814e-002
      2.55845785e-002 -7.15912413e-003 -4.01749602e-003 -5.62488884e-002
      -5.89069240e-002 -1.14841596e-003 2.05890946e-002 2.77174879e-002
      2.37321518e-002 -3.51802399e-003 -2.49357522e-002 -1.83266886e-002
      -5.81855588e-002 -2.07856912e-002 1.21794187e-003 4.60811798e-003
      1.62523352e-002 2.88114436e-002 3.20468657e-002 2.99528185e-002
      1.84359569e-002 -1.42263649e-002 -6.89242315e-003 3.55924778e-002
      3.33034471e-002 5.38764559e-002 1.49034718e-002 4.32877289e-003
      2.16116179e-002 2.12231800e-002 6.60571503e-003 -2.82198563e-002
      2.39052763e-003 1.74067561e-002 1.67748984e-002 2.32653343e-003
      -2.55396757e-002 -3.22805531e-002 -1.56290848e-002
      -3.31322588e-002 -2.33666822e-002 9.97386780e-003 9.99015570e-003
      -2.29959469e-003 -1.26062399e-002 -1.80922858e-002
      -4.36657071e-002 -3.65520045e-002 -2.66935658e-002 1.71394758e-002
      3.59565951e-002 4.76077534e-002 4.07663323e-002 3.89984809e-003
      1.69716112e-003 9.61676054e-003 1.06898397e-002 1.97577495e-002
      7.73465587e-003 4.25343439e-002 4.15041819e-002 5.45881595e-003
      8.33519548e-003 -2.08104742e-004 -2.26265527e-002 -2.72236168e-002
      3.67289805e-003 6.77371351e-003 2.98227556e-002 2.89764274e-002
      8.42949562e-003 -2.37306543e-002 -3.32868956e-002 -5.72597124e-002
      -2.66535245e-002 2.03025783e-003 3.80727239e-002 3.21935825e-002
      3.99797447e-002 3.65212224e-002 8.61997064e-003 1.85262784e-002
      -1.72589589e-002 1.16545865e-002 3.95867154e-002 7.14551238e-003
      4.77374382e-002 5.16267456e-002 -1.69381965e-002 -3.57752852e-003
      -1.12438118e-002 -5.69363609e-002 -3.94099467e-002
      -1.44842556e-002 1.93629917e-002 4.24250253e-002 4.56621610e-002
      2.37756446e-002 -7.58769969e-003 -3.96949193e-003 -5.14388494e-002
      -1.75400618e-002 1.24914171e-002 1.68640334e-002 -8.03495385e-003
      -2.10616775e-002 -1.08085084e-003 -3.92961875e-003 2.56941617e-002
      3.43352817e-002 3.33675183e-002 3.22658829e-002 2.51581036e-002
      -3.66473943e-002 -3.47163342e-002 -1.07400818e-002
      -2.64053922e-002 4.47161542e-003 2.72267591e-002 3.92169915e-002
      3.83576900e-002 1.22721996e-002 9.50169563e-003 -5.25001809e-003
      -6.16460433e-003 -4.82920557e-002 2.08744183e-002 4.62612063e-002
      5.02397902e-002 2.92109828e-002 -1.50279729e-002 -1.65829062e-002
      -3.47141512e-002 -4.74455208e-002 -4.78285886e-002
      -1.65505111e-002 1.03657702e-002 3.72486897e-002 3.83577333e-003
      -9.95596033e-003 -3.25586237e-002 -2.88544446e-002
      -1.63356066e-002 -1.30961835e-002 -2.15476751e-002 3.43175884e-003
      1.69715751e-002 5.58456592e-003 1.47848036e-002 -3.20903468e-003
      -1.21473521e-002 -5.65780466e-003 3.83385643e-002 8.39458313e-003
      3.44699696e-002 3.98215875e-002 1.97843835e-002 -2.14689020e-002
      -2.08653379e-002 -3.98822166e-002 -5.36494888e-002
      -5.14504388e-002 -2.74276137e-002 -1.70467906e-002
      -7.17627862e-003 -3.29662599e-002 -2.86867544e-002
      -1.75844487e-002 -3.32447365e-002 -3.89832929e-002
      -5.83188515e-003 -8.53562742e-005 8.28507636e-003 -2.27879718e-004
      -2.59204172e-002 -3.03453077e-002 -2.17479710e-002
      -2.86273658e-002 -3.63893248e-002 -1.57397725e-002
      -1.12372814e-002 1.44056743e-002 -1.66433572e-003 -2.18054093e-002
      -1.43487155e-002 4.23839921e-003 9.54508409e-003 -1.02339648e-002
      -1.24684796e-002 1.27107901e-002 4.19157781e-002 2.92200688e-002
      -7.01811723e-003 -5.17822430e-002 -2.30260603e-002
      -4.58662212e-002 -3.82449403e-002 -2.00455636e-002
      -2.33562551e-002 4.20411024e-003 -2.96540651e-003 -3.22353430e-002
      -2.56374907e-002 -3.82020371e-003 7.12185958e-003 -7.03185564e-003
      1.64899118e-002 1.86505001e-002 4.85106856e-002 4.36790437e-002
      -6.84450939e-003 -3.33704092e-002 -2.52350513e-002
      -5.25258994e-003 -3.34503241e-002 -1.56202279e-002 1.08138667e-002
      3.68116349e-002 2.92946976e-002 -1.28828632e-002 -4.30463664e-002
      -3.18110548e-002 -2.29013544e-002 -1.76654290e-002 9.17098578e-003
      2.20208969e-002 3.62032540e-002 2.41869930e-002 -1.66634880e-002
      -5.23514487e-002 -2.85507757e-002 1.12433517e-002 -2.47559752e-002
      1.03797577e-002 2.76981592e-002 4.84444685e-002 4.45357747e-002
      -2.31728014e-002 -4.91748564e-002 -2.89253816e-002
      -5.48093580e-003 -1.91282202e-002 3.50493751e-002 3.46321166e-002
      5.46074659e-002 3.40813398e-002 -3.43355723e-002 -3.87967601e-002
      -1.30218593e-002 -1.32252527e-002 -1.24143092e-002 2.45404840e-002
      2.99907718e-002 2.02956703e-002 8.84092506e-003 -1.70866493e-002
      -2.74046306e-002 1.41314906e-003 -8.65021255e-003 4.94848937e-003
      4.62986017e-003 1.28472839e-002 1.91609450e-002 2.89739529e-003
      -8.09996389e-003 -3.14137340e-002 -8.15588050e-003 9.30643815e-004
      -4.11968678e-003 3.02421134e-002 3.22545208e-002 3.94055247e-002
      2.10858211e-002 -2.58981213e-002 -2.51147058e-002 3.13531840e-003
      -1.19642057e-002 5.53423446e-003 1.85611900e-002 1.86146852e-002
      3.70615423e-002 4.89829108e-004 -2.61841957e-002 6.98498823e-003
      5.38631342e-003 9.35934577e-003 2.34290529e-002 5.45809232e-003
      6.48920564e-003 4.28379839e-003 -1.24155115e-002 4.52368800e-003
      -1.45610450e-002 1.30745964e-002 1.86310094e-002 -9.46790632e-003
      -1.53042125e-002 -1.51445204e-002 -2.78610662e-002
      -3.91242690e-002 -2.75024269e-002 1.28568579e-002 1.71050616e-002
      8.98080878e-003 2.03992575e-002 1.66041981e-002 1.81721952e-002
      2.06650160e-002 1.13981264e-003 -4.73883608e-003 8.70528817e-003
      1.55810332e-002 8.93629063e-003 -8.21963977e-003 -3.47071141e-003
      -5.08202659e-003 -1.25828264e-002 -2.07484290e-002
      -2.18144357e-002 -3.02122510e-003 3.95092666e-002 5.42759821e-002
      3.06358095e-003 7.33818219e-004 2.78474274e-003 -3.40090804e-002
      -1.86114926e-002 -7.75930425e-003 -4.82635014e-003 3.06754000e-002
      3.30764204e-002 8.92100204e-003 -3.41123715e-002 -1.83925498e-002
      -4.16940041e-002 -1.30419666e-002 -9.76422627e-004 2.47066114e-002
      4.64469902e-002 5.06944731e-002 6.02748897e-003 -4.21277480e-003
      -1.55679730e-003 -3.57732899e-003 1.50984313e-004 1.94523185e-002
      3.63864191e-002 4.38564606e-002 3.23663279e-002 2.10561859e-003
      -3.68128866e-002 -1.65313594e-002 -3.61144566e-003
      -4.18239878e-003 4.27473858e-002 2.24929117e-003 -6.99676480e-003
      -5.48003800e-003 -7.05398107e-003 -3.58157717e-002 1.70563255e-002
      3.36553231e-002 4.11492996e-002 1.55309746e-002 -1.72259379e-002
      -1.66199151e-002 -1.08906431e-002 -4.01381403e-002
      -1.27011715e-002 8.14572151e-004 9.40062292e-003 1.27114495e-002
      -1.33876316e-002 -1.27734551e-002 -3.99020799e-002
      -3.17258127e-002 -2.80168839e-002 -9.37393773e-003
      -9.88101866e-003 7.82963261e-003 1.40154837e-002 7.69218663e-003
      -4.56694834e-004 -2.53553465e-002 -8.93107150e-004
      -3.54851782e-002 5.36920037e-004 -1.27327861e-003 -1.10698156e-002
      4.81634706e-005 3.21242725e-003 -2.31898576e-002 -1.53904660e-002
      -2.77570840e-002 -3.15056071e-002 -3.08016874e-002
      -9.23424307e-003 1.02406433e-002 -9.25003923e-003 -2.96758227e-002
      -1.46869346e-002 -1.00109410e-002 -2.73826998e-002
      -1.08939335e-002 -1.11692073e-002 1.83681794e-003 9.01951641e-003
      -3.45288380e-003 -1.90019496e-002 -1.20612814e-004
      -1.71309114e-002 -1.43268164e-002 -2.16848049e-002
      -7.64048984e-003 -7.49951554e-003 1.99117837e-003 -8.22654343e-004
      -3.68670933e-003 3.70696187e-003 -2.71030329e-002 -2.96719503e-002
      -2.21480150e-002 -2.51717190e-003 -7.66223716e-003 2.29062140e-002
      6.54812250e-003 -9.86004807e-003 -4.93602939e-002 -2.39271615e-002
      -4.40066978e-002 -4.34578694e-002 -3.32553610e-002
      -2.10727062e-002 -7.17157964e-003 -1.45105468e-002
      -3.13437693e-002 -3.47148106e-002 3.35172890e-003 1.28104519e-002
      7.62497773e-003 3.12273689e-002 3.38127054e-002 3.00590973e-002
      3.57757919e-002 -1.13848019e-002 -2.75447275e-002 -4.36313525e-002
      -5.08339666e-002 -5.61019555e-002 -2.83052344e-002
      -2.40586791e-002 -1.10552208e-002 -1.04527837e-002
      -1.94736496e-002 -1.07781840e-002 -1.73067395e-002
      -3.37664932e-002 -4.73565451e-004 3.33186910e-002 3.31237055e-002
      4.12190184e-002 3.54598723e-002 1.72187912e-003 -7.89948106e-002
      -2.89652999e-002 -3.38040409e-003 -1.51382191e-002 4.01152894e-002
      2.72597689e-002 2.40620133e-002 2.46662088e-002 -4.61351536e-002
      -6.74793124e-002 -3.20186689e-002 7.31919252e-004 8.83630384e-003
      5.13587408e-002 2.62793154e-002 1.60662085e-002 1.11093568e-002
      -4.68742847e-002 -4.84930240e-002 -3.63150425e-002
      -5.35282716e-002 -2.01787930e-002 2.49319375e-002 3.02590784e-002
      2.72286423e-002 1.90594755e-002 -3.27158011e-002 -5.33747375e-002
      -2.25510895e-002 -1.21528525e-002 1.77048463e-002 4.33013253e-002
      2.58281790e-002 2.13679392e-002 5.63460961e-003 -2.76853126e-002
      -5.41705489e-002 -1.92242246e-002 -5.24217146e-004
      -5.08536724e-003 2.23157443e-002 1.07990569e-002 3.56388907e-003
      -1.20679243e-002 -4.48015183e-002 -3.85529101e-002
      -2.82337097e-003 -5.51582687e-003 8.52483511e-003 3.65219302e-002
      2.90165804e-002 1.91942025e-002 -1.51707279e-002 -3.64003591e-002
      -3.81536037e-002 -6.21136976e-003 6.05320092e-003 1.59957595e-002
      1.13717839e-002 9.90286935e-003 8.71347263e-003 -4.35311487e-003
      -3.52129564e-002 -2.83042114e-004 3.67500633e-003 6.56904373e-003
      1.24863945e-002 3.64773162e-002 2.35624015e-002 3.26386504e-002
      1.10853771e-002 -1.03217522e-002 -8.74070171e-003 1.07699689e-002
      2.12313887e-003 5.02220681e-003 1.72664877e-002 2.44636927e-002
      7.04251369e-003 -1.08730216e-002 -2.60864366e-002 -6.21830253e-003
      6.19358569e-003 3.01246042e-003 -1.11475522e-002 -9.68273357e-003
      -1.28058614e-002 -1.64846294e-002 -2.16523204e-002
      -2.55523659e-002 -6.69015339e-003 2.59483084e-002 2.77718473e-002
      1.24083096e-002 3.70670818e-002 2.95882132e-002 2.09012721e-002
      7.44500570e-003 -1.02864942e-002 -1.15028792e-003 2.31538862e-002
      3.13221700e-002 1.79411620e-002 3.13945748e-002 1.92481524e-003
      9.97496583e-003 8.50806292e-003 -3.12480633e-003 3.38005759e-002
      2.44055875e-002 1.70915406e-002 -5.75268921e-003 -3.32637168e-002
      -1.30752623e-002 -5.24123712e-003 -1.01227658e-002 3.20403315e-002
      4.78669070e-002 2.54851133e-002 2.06394959e-002 -2.20760945e-002
      -5.44156805e-002 -1.28816841e-002 1.16396751e-002 1.93832908e-003
      4.21222821e-002 3.42954509e-002 4.40347381e-002 3.58947702e-002
      2.95316596e-002 7.86539540e-003 1.76079925e-002 3.12222354e-003
      7.88729265e-003 3.79881300e-002 3.54305170e-002 2.15642434e-002
      1.52611928e-002 4.68656002e-003 -2.09630914e-002 -4.83398093e-003
      -7.26983976e-003 -3.99916666e-003 3.93176489e-002 7.91444723e-003
      -1.98485628e-002 -2.69216672e-002 -2.03561373e-002
      -1.91729944e-002 -1.62964463e-002 -1.38952129e-003 3.75263998e-003
      2.23412570e-002 1.28950914e-002 -1.32794306e-002 3.78288241e-004
      -1.41869094e-002 -1.37935719e-003 -2.12705880e-003
      -6.65306440e-003 7.41428579e-004 2.66269539e-002 -1.17005249e-002
      -1.03493482e-002 -1.91803649e-002 -1.58146415e-002
      -2.35343147e-002 -2.50677466e-002 -1.77949406e-002
      -2.36091707e-002 1.55898777e-003 7.93446228e-003 4.55176644e-003
      -4.77041816e-004 -2.01447755e-002 -1.78999305e-002 3.61481076e-003
      -2.55149528e-002 -2.22892705e-002 1.50632653e-002 2.63918773e-004
      -1.41560426e-002 -1.02008414e-002 -1.41113652e-002
      -1.86819527e-002 -1.15270903e-002 8.19356530e-004 1.98977403e-002
      5.72944945e-003 -7.85348192e-003 -2.52004564e-002 -1.59744676e-002
      -2.45170798e-002 -1.50936553e-002 -5.23327012e-003 1.11827273e-002
      2.25944817e-002 3.17211472e-003 -1.29762059e-002 -3.00961197e-003
      -8.16880492e-004 -3.06517594e-002 -3.86639163e-002
      -1.11748008e-002 -1.54805444e-002 1.20895286e-003 -1.14480592e-002
      -1.83448084e-002 -3.93286580e-003 -8.61626398e-003
      -1.90383662e-002 -1.32808490e-002 -7.59644108e-003
      -8.19172594e-004 1.90427583e-002 -3.98161635e-003 -1.67935640e-002
      -4.04314026e-002 -3.91145200e-002 -4.63300161e-002
      -1.93963125e-002 -1.38175562e-002 -4.82838927e-003
      -4.35294351e-003 -5.93512319e-003 3.05334077e-004 -2.55539138e-002
      -3.73292379e-002 2.53083277e-003 5.04593477e-002 4.36568148e-002
      4.27458100e-002 4.67168838e-002 1.90148298e-002 -4.49082814e-002
      -4.56870422e-002 -4.06366773e-002 -2.88929809e-002
      -2.04097591e-002 -2.70582698e-002 -2.79306639e-002
      -2.34325323e-002 -2.95908265e-002 -1.93160884e-002
      -2.61985790e-002 -1.35971094e-002 2.19895151e-002 2.69810520e-002
      7.25707086e-003 3.40050459e-003 -8.10201373e-003 -2.40170080e-002
      -2.78434865e-002 -4.96735685e-002 -6.25214428e-002
      -2.47771572e-002 3.54632847e-002 3.20425816e-002 2.17191912e-002
      1.26631605e-002 -1.86241921e-002 -3.89855318e-002 -2.88288351e-002
      -2.23259497e-002 3.04323924e-003 4.77632657e-002 3.85694131e-002
      2.34331544e-002 1.25713861e-002 -2.37666406e-002 -3.93616259e-002
      -3.85092646e-002 -3.17412131e-002 -1.44311395e-002 1.09580318e-002
      6.30044146e-003 -1.07217738e-002 -2.50920001e-002 -5.04064523e-002
      -2.75090225e-002 -1.99146513e-002 -1.96913239e-002 7.01439008e-003
      4.26067039e-002 3.86065580e-002 1.15630087e-002 7.23384693e-003
      -4.10352275e-002 -3.14001255e-002 -1.61711872e-002
      -8.09002295e-003 3.27604869e-003 3.04135121e-002 1.45235686e-002
      2.24359985e-002 1.15286112e-002 -2.28159521e-002 1.23864925e-003
      -5.90799516e-003 -8.00675713e-003 5.56303514e-003 2.91386880e-002
      1.97431222e-002 2.52016112e-002 1.78169832e-002 -6.56978181e-003
      -2.24012192e-002 -1.05020143e-002 -1.87753383e-002
      -8.53981730e-003 3.71813960e-002 1.67187117e-002 1.08141843e-002
      7.04927742e-003 -2.10156813e-002 -1.83090977e-002 -1.83170792e-002
      -9.03475191e-003 1.18923571e-003 3.79553400e-002 2.00186186e-002
      1.72717739e-002 6.07225718e-003 -1.12732388e-002 6.75281975e-003
      1.17897047e-002 1.32602314e-002 2.18255557e-002 4.44729179e-002
      3.08769494e-002 1.18850525e-002 1.94960088e-002 -8.39501154e-003
      -1.08634401e-002 5.70023339e-003 1.51681015e-002 2.55146995e-002
      3.41687836e-002 1.37434425e-002 5.77194756e-003 7.83769879e-003
      -1.81710385e-002 -2.22814754e-002 3.17550194e-003 -4.26221872e-003
      1.34568987e-002 4.89477813e-002 1.94911435e-002 1.11069800e-002
      1.14339199e-002 -1.99434720e-002 -1.50104025e-002 1.03973392e-002
      -2.54591741e-003 1.53338993e-002 1.98537391e-002 -4.42884350e-003
      -2.09395215e-002 -1.02953380e-002 -1.10545158e-002 1.96927041e-002
      2.28904523e-002 1.01628462e-002 4.03814018e-002 4.97916564e-002
      4.42868657e-002 6.64832676e-003 2.51272786e-002 2.47226618e-002
      2.80243233e-002 1.18444022e-002 1.61628344e-003 1.19610699e-002
      -2.41191145e-002 3.32795107e-003 -1.54166780e-002 -1.42543542e-003
      2.72283386e-002 3.80883068e-002 3.29904146e-002 1.96110550e-002
      4.81055863e-002 2.80766040e-002 2.12551877e-002 -2.46356037e-002
      -1.06903650e-002 3.13824676e-002 1.67521071e-002 2.59259064e-002
      1.68579780e-002 1.24935377e-002 -3.82783525e-002 -2.32596789e-003
      -3.02001312e-002 -7.90591631e-003 2.28100773e-002 8.49990267e-003
      5.92177454e-003 4.32888698e-003 1.15974573e-002 -1.55955646e-002
      -1.34885013e-002 -1.86968241e-002 -3.07448395e-002
      -5.89426234e-003 2.89499061e-003 1.39116691e-002 -1.12839257e-002
      -2.34896764e-002 -2.17757281e-002 -2.49401387e-003
      -1.66265760e-002 -3.08600813e-002 -1.01551861e-002 3.29548828e-002
      1.83457006e-002 1.14843817e-002 3.14027183e-002 4.46931133e-003
      2.11263150e-002 -1.01796137e-002 -2.31321957e-002 1.27540268e-002
      1.35197435e-002 5.04670339e-003 -3.52096045e-004 -1.26066785e-002
      -4.47458075e-003 5.52332355e-003 -1.67802908e-003 -1.62931066e-002
      -1.43700354e-002 -1.01618869e-002 3.68124852e-003 -4.35051136e-003
      -3.06973793e-002 -3.27569172e-002 -2.95367371e-003
      -1.44273993e-002 -6.91852160e-003 -1.15758209e-002
      -9.47963912e-003 8.28804076e-003 1.28733297e-003 -1.69383045e-002
      -1.70773193e-002 -7.27900211e-003 -1.95758068e-003 1.28899263e-002
      -2.77955178e-003 -5.39846485e-003 -6.14555739e-003 7.56566925e-003
      -7.89720938e-003 -1.70774888e-002 -8.82900506e-003
      -1.27870040e-002 -4.60659573e-003 -1.84460282e-002
      -1.87157432e-003 2.11653579e-002 3.83317024e-002 2.55121272e-002
      -1.09889521e-003 -1.63312778e-002 -1.62141696e-002
      -9.43810493e-003 -8.90738890e-003 -3.51289250e-002
      -1.62215084e-002 -1.59904901e-002 -1.24030244e-002
      -2.30537280e-002 -3.09462342e-002 -3.17298546e-002
      -1.47063825e-002 -2.86127217e-002 2.19636341e-003 -1.85292086e-003
      1.39649333e-002 2.98487544e-002 3.69731300e-002 -8.46467167e-003
      -7.88316689e-003 7.38517521e-003 -1.78613216e-002 -2.73026284e-002
      4.42260550e-003 1.61776282e-002 -3.05672991e-003 -2.71079447e-002
      -3.57841589e-002 -4.08691354e-002 -3.10739558e-002
      -2.95902472e-002 -6.97637722e-003 2.95407772e-002 4.04694006e-002
      2.17410177e-002 1.78282708e-002 -5.04693063e-003 -1.82252172e-002
      2.76536011e-004 -1.15920557e-002 -3.01972926e-002 -2.27329843e-002
      -9.32723377e-003 -1.63058881e-002 1.21255368e-002 -2.95749195e-002
      -1.29527627e-002 -2.43045874e-002 -3.88078354e-002
      -1.78947877e-002 -9.63032618e-003 -9.26137622e-003 7.88062252e-003
      4.50815521e-002 2.48665102e-002 2.06228648e-003 7.15651875e-003
      -2.84047499e-002 -4.30737175e-002 -1.73499212e-002 8.79132189e-003
      -4.06071683e-003 1.94742847e-002 -3.52584235e-002 -2.95529850e-002
      -3.19105871e-002 -4.06241938e-002 -3.54375280e-002
      -1.35377301e-002 1.29697807e-002 1.49052478e-002 4.10159901e-002
      1.62914898e-002 -7.03082234e-003 4.28336067e-003 -2.01598052e-002
      -1.26953488e-002 -1.66077558e-002 -1.80803426e-002
      -3.81327514e-003 1.47307087e-002 1.23515446e-002 6.39953697e-003
      -3.75340460e-003 -1.81537811e-002 -1.73228197e-002
      -3.08776889e-002 -2.16684844e-002 8.88055097e-003 3.60867716e-002
      2.86905095e-002 2.17045173e-002 7.65930861e-003 -8.03970639e-003
      -2.21211910e-002 -1.13457907e-002 -4.52142535e-003 1.30940434e-002
      2.23189909e-002 3.48551292e-003 -1.69714689e-002 -6.84806844e-003
      -1.48313707e-002 -2.60635968e-002 -1.08985072e-002
      -7.33577367e-003 3.16341594e-002 3.77856046e-002 2.64898054e-002
      -2.47339765e-003 -7.10385619e-003 -2.35199705e-002 6.36072317e-003
      -1.86532643e-002 -2.01937258e-002 -7.54206348e-003 4.13437076e-002
      3.28376554e-002 3.80746238e-002 1.50856199e-002 1.34366993e-002
      9.87966452e-003 1.18304640e-002 -4.20918502e-003 -2.40848502e-004
      2.97974842e-003 -1.35577321e-002 -1.83958784e-002 -2.20162645e-002
      4.70505562e-003 -2.43309210e-003 -7.85970222e-003 -2.43204413e-003
      3.43476348e-002 7.02389479e-002 4.52651642e-002 1.76257864e-002
      -9.65816807e-003 -6.09275652e-003 -3.44125368e-003
      -4.79308859e-004 -1.16082225e-002 -4.48274799e-003 1.23327458e-002
      -9.94415395e-003 -2.05566660e-002 -2.72033885e-002
      -1.26774479e-002 3.73460911e-002 3.10395285e-002 2.37146411e-002
      3.04611791e-002 1.10313212e-002 5.49664954e-003 -1.63932834e-002
      5.07613178e-003 4.00104783e-002 2.84443945e-002 1.89611558e-002
      2.15404220e-002 9.74195063e-005 -2.34993529e-002 -3.94033920e-003
      -1.69482529e-002 2.25371290e-002 3.82592380e-002 2.46122573e-002
      1.72000751e-002 3.23039964e-002 1.05937133e-002 9.99439321e-003
      -9.26249195e-003 -8.13007820e-004 1.95230963e-003 2.48417351e-002
      1.87779218e-002 3.11924191e-003 -6.93727168e-004 -2.17528772e-002
      -3.10346577e-002 -2.15471955e-003 5.19960187e-003 1.51269017e-002
      2.78162751e-002 1.54459588e-002 9.35217272e-003 -6.37591956e-003
      2.32787672e-002 4.10483032e-003 2.11088024e-002 -2.04975680e-002
      -2.69651543e-002 8.38782452e-003 1.84496155e-003 9.67911910e-003
      4.11778688e-003 -1.23847947e-002 -1.43729430e-002 -1.03110196e-002
      -3.17829028e-002 -3.58689092e-002 -9.85517818e-003 1.48572391e-002
      1.61668397e-002 2.13428326e-002 1.91358831e-002 -7.69798551e-003
      7.07965065e-003 -7.39638880e-003 6.08648965e-003 7.56234443e-003
      4.93244035e-004 2.87892520e-002 4.87037115e-002 1.80169549e-002
      5.23050642e-003 -1.11137452e-002 -3.55534181e-002 -2.72237547e-002
      -1.30893439e-002 6.15238561e-004 2.60699168e-003 1.23011367e-002
      -4.27788543e-003 -2.32394561e-002 -1.65003799e-002
      -3.98390517e-002 -3.16383913e-002 -2.52057668e-002 4.32080450e-003
      2.43982449e-002 4.22030576e-002 1.50332740e-002 -1.05751567e-002
      -2.83753965e-002 -2.69977469e-002 -3.63289900e-002
      -2.04337556e-002 -5.65557834e-003 -2.00761613e-004 2.90744137e-002
      -1.93782477e-003 -6.23757718e-003 -1.45618403e-002
      -4.04922180e-002 -4.44154888e-002 -1.93273593e-002
      -6.83382479e-003 1.49513567e-002 4.72141504e-002 2.14047879e-002
      -1.55032170e-003 -8.54128879e-003 -6.15321612e-003
      -2.54047271e-002 -2.35765260e-002 -2.80451830e-002 1.77121181e-002
      2.29282193e-002 -1.15085049e-002 -3.49531882e-002 -4.24820483e-002
      -4.49303500e-002 -4.07015160e-002 -4.11002971e-002
      -1.88876819e-002 2.70690490e-002 4.51249294e-002 3.45522463e-002
      8.58885981e-003 -8.36594775e-003 -3.13098393e-002 -1.09887216e-002
      -2.03029905e-002 -2.77769510e-002 2.87531093e-002 2.47575808e-002
      -6.50112983e-003 -1.85140911e-002 -2.72751320e-002
      -2.21635196e-002 -2.45966669e-002 -3.82530428e-002
      -1.05273630e-002 4.87690419e-002 6.50390461e-002 3.30586508e-002
      2.90972702e-002 1.59238670e-002 -1.17162634e-002 -2.10660342e-002
      -1.76037084e-002 -4.47480753e-002 -1.04386611e-002 1.78384967e-002
      1.86992176e-002 2.22235881e-002 -1.88817270e-002 -4.32712138e-002
      -3.71054672e-002 -3.98303159e-002 -3.87658514e-002
      -5.39278239e-003 3.79568748e-002 1.85358394e-002 3.09386924e-002
      1.98907126e-002 -8.21845606e-003 -3.28696868e-003 -3.05810049e-002
      -5.92828393e-002 9.52116307e-003 4.09216322e-002 1.66060589e-002
      1.38512300e-002 -9.43294074e-003 -3.65425423e-002 -3.98252085e-002
      -5.44982180e-002 -3.64822671e-002 1.29020903e-002 3.91756333e-002
      2.16122121e-002 2.44616661e-002 2.24165171e-002 1.66607853e-002
      -1.01465974e-002 -3.07220314e-002 -8.34011473e-003 5.65037038e-003
      2.87172403e-002 1.71766039e-002 3.27984653e-002 2.95664510e-003
      -2.21319217e-002 -2.01631803e-002 -8.67972802e-003
      -5.44375367e-003 4.50164312e-003 1.92422885e-002 4.02986594e-002
      3.62665355e-002 8.57289322e-003 -1.43966880e-002 -1.93418190e-002
      -2.28968356e-002 -1.32935895e-002 1.18935015e-002 1.52630126e-002
      -2.59945099e-003 2.25542672e-002 6.11754134e-003 3.17853340e-003
      -1.64114516e-002 -1.84558760e-002 -1.33883134e-002
      -5.64636569e-003 1.30967051e-002 1.39266038e-002 1.89912505e-002
      1.22974264e-002 -1.31828813e-002 -2.04007067e-002 -1.18064685e-002
      2.46008281e-002 2.83947177e-002 2.11835299e-002 5.39807267e-002
      8.71835053e-002 5.68280257e-002 5.46755269e-003 -1.81572424e-004
      8.71002395e-003 5.61635476e-003 7.29093375e-003 -9.67979524e-003
      2.36973725e-003 1.43833803e-002 1.29516125e-002 -1.00887623e-002
      -1.21301422e-002 3.59428953e-003 -1.18554123e-002 -7.06885383e-003
      9.40405764e-003 3.34409662e-002 6.06482998e-002 3.73043604e-002
      1.32718598e-002 1.01336604e-003 -2.64579197e-003 -4.42112610e-002
      -2.94862911e-002 -1.83812119e-002 -1.94113534e-002
      -7.92748481e-003 9.85834934e-003 3.78593244e-003 -2.95077160e-004
      -3.84803340e-002 2.51703262e-002 2.14076769e-002 1.90644283e-002
      1.75346097e-003 4.90187807e-003 1.29147563e-002 -2.17372947e-003
      2.41735764e-002 3.35437171e-002 2.40133852e-002 9.81598441e-003
      5.93126565e-003 -3.01661119e-002 -1.34088462e-002 1.09826261e-002
      1.64741669e-002 2.50719991e-002 2.86281295e-002 -2.45174742e-003
      6.32554758e-003 -4.40339354e-004 -2.33631954e-002 -3.02199647e-003
      3.18566673e-002 1.82637777e-002 4.04000953e-002 3.89075046e-003
      1.99417435e-002 7.50119914e-004 -1.46759385e-002 -1.11933798e-002
      -2.45640543e-003 2.55321804e-002 2.09040008e-002 3.36755216e-002
      3.20371576e-002 1.09541370e-002 2.01750696e-002 2.22183168e-002
      1.69060957e-002 -7.28632277e-003 -4.57696943e-003 -1.74085200e-002
      -1.01709627e-002 -2.29861848e-002 -2.83741634e-002 5.73684881e-003
      2.13807728e-002 1.22674424e-002 -2.53005512e-002 -5.59226424e-002
      -6.17489703e-002 -6.60950318e-002 -5.24409860e-002 5.58915623e-002
      2.97877733e-002 4.64977473e-002 4.50856462e-002 5.37144020e-002
      2.47938875e-002 2.19604969e-002 1.84173584e-002 4.54799123e-002
      3.86566110e-002 3.46821733e-002 3.73910889e-002 3.84054072e-002
      3.98868322e-002 1.57460105e-002 4.66357451e-003 -2.15385878e-003
      2.09858920e-002 -2.57465448e-002 1.50529039e-003 7.25782104e-003
      2.82229716e-003 8.38335510e-003 -1.05575109e-002 -4.89962958e-002
      -4.82849404e-002 -3.98180857e-002 -3.09513155e-002 1.58315478e-003
      1.66686308e-002 1.32046994e-002 1.62139367e-002 -5.97503968e-003
      -1.70591809e-002 -3.83562930e-002 -3.16301212e-002 2.06814557e-002
      1.75274946e-002 2.47581284e-002 2.16879286e-002 3.77060175e-002
      1.35697145e-002 7.73568114e-004 -1.18144508e-002 1.13639636e-002
      7.18826381e-003 2.55678222e-002 2.85406429e-002 2.63131615e-002
      2.50860620e-002 5.50117483e-003 -1.41684441e-002 -2.57249568e-002
      -1.05554480e-002 -3.89639512e-002 2.01411787e-002 1.81342717e-002
      7.67633179e-003 -1.55033646e-002 -1.91055033e-002 -9.87303816e-003
      -2.30208188e-002 -3.72732133e-002 -9.87726264e-003 4.38385680e-002
      6.11607172e-002 3.94850112e-002 2.08971854e-002 9.53342859e-003
      -4.26838407e-003 -3.32386941e-002 -8.69269855e-003
      -1.75767820e-002 1.99615974e-002 3.76290753e-002 1.99584682e-002
      -1.31521898e-003 1.58716459e-003 -1.00595914e-002 -4.33544815e-002
      -3.29051428e-002 -2.63093244e-002 4.07099649e-002 6.12092987e-002
      6.03082515e-002 5.09298407e-002 2.45258082e-002 -1.10569512e-002
      -2.77992897e-002 -3.20118330e-002 -2.92031355e-002 2.93152556e-002
      4.84987795e-002 2.94189434e-002 2.45675761e-002 4.57023364e-003
      -1.22690313e-002 -2.50516701e-002 -2.57153530e-002
      -2.05298048e-002 2.77048219e-002 2.86398865e-002 4.03203741e-002
      2.60402150e-002 8.07266962e-003 1.07799303e-002 6.39531901e-003
      -7.57987099e-003 -6.82799369e-002 8.32135484e-005 3.19639668e-002
      3.09253763e-002 3.31050716e-002 9.07680113e-003 -3.36601287e-002
      -3.07364631e-002 -6.53874651e-002 -5.94448820e-002 6.65762136e-003
      2.81359944e-002 3.83997634e-002 2.71089543e-002 1.34597812e-002
      -6.35731546e-003 -1.11105684e-002 -4.67051081e-002
      -6.60002092e-003 1.05010923e-002 1.90157071e-002 3.16433944e-002
      2.97467001e-002 1.07905306e-002 1.97531767e-002 1.29212877e-002
      -8.24195333e-004 -8.89157038e-003 -3.74891516e-003 2.19727028e-002
      2.07060352e-002 4.56583202e-002 2.87469029e-002 1.16548603e-002
      1.58727984e-003 1.17601794e-005 -5.89347370e-002 -9.46385879e-003
      2.33158171e-002 3.96228023e-002 3.72008383e-002 1.82449892e-002
      1.56728516e-003 -3.35851079e-003 -4.47844937e-002 -3.34574245e-002
      -1.52983498e-002 1.20050283e-002 2.17566285e-002 4.75010425e-002
      2.30964832e-002 7.32155517e-003 1.14480350e-002 -2.31000502e-002
      -1.01182275e-002 -3.21590081e-002 7.20176008e-003 2.71875914e-002
      6.30993992e-002 4.73113209e-002 2.38657594e-002 1.09710544e-002
      -4.38313698e-003 -2.19417065e-002 -3.82406302e-002
      -2.88997777e-002 -3.08909477e-003 2.33627055e-002 3.72357629e-002
      2.47735456e-002 1.44386617e-002 -3.05177495e-002 -7.86507968e-003
      -2.01980285e-002 1.03256153e-003 3.47063988e-002 9.28640366e-002
      4.43035625e-002 3.98273468e-002 3.54545638e-002 9.82176699e-003
      2.82560592e-004 -2.88790464e-002 -3.27840671e-002 2.66080331e-002
      7.07879737e-002 4.60291281e-002 3.76602821e-002 2.41044573e-002
      4.62861219e-003 -2.71678139e-002 -2.19805092e-002 -3.99736054e-002
      -3.29515412e-002 -1.38115929e-002 3.81840356e-002 2.23902855e-002
      2.84806136e-002 -2.42601018e-002 -5.87609876e-003 5.84619632e-003
      -2.81688031e-002 -1.04319640e-002 5.86050143e-003 2.74986643e-002
      1.61638875e-002 2.57284492e-002 2.59432811e-002 2.46152468e-002
      -2.18175780e-002 -3.41560468e-002 3.21627893e-002 6.23973235e-002
      6.02631569e-002 4.52307723e-002 2.64908075e-002 1.35436188e-002
      1.71940699e-002 2.31070165e-002 5.33204526e-004 2.84813922e-002
      2.44396608e-002 5.13676219e-002 4.06386666e-002 2.98215933e-002
      1.99366752e-002</_>
    <_>
      2.00328808e-002 3.40589881e-002 2.91405078e-002 4.62005809e-002
      1.22847874e-002 3.54338214e-002 -1.30042275e-002 3.54584679e-003
      1.98875926e-002 -5.84565895e-003 4.37866971e-002 7.44709596e-002
      8.29914957e-002 4.11752164e-002 2.54784506e-002 -3.99843380e-002
      -2.83345655e-002 -9.73116327e-003 -8.15195777e-003 1.20504936e-002
      1.01453718e-002 3.43606696e-002 2.17179991e-002 4.86039333e-002
      -2.23725140e-002 1.02273254e-002 -2.63469643e-003 -4.19955812e-002
      3.17495465e-002 5.34299612e-002 3.78530398e-002 5.02655394e-002
      9.12948232e-003 -6.11598156e-002 -5.13388496e-003 -4.20126207e-002
      2.00343295e-003 5.20533475e-004 1.12550799e-002 4.65028211e-002
      5.53526282e-002 2.35229712e-002 -4.12064120e-002 -2.94259153e-002
      5.39456902e-004 2.59300694e-002 1.27862943e-002 5.22302603e-003
      6.17970675e-002 5.78508265e-002 8.57613608e-002 -1.44783584e-002
      -1.14020822e-003 7.12514436e-003 -1.01341205e-002 2.08042916e-002
      3.50272693e-002 3.48985717e-002 5.25960214e-002 4.83081589e-004
      -4.46844921e-002 -2.45575532e-002 -3.02456524e-002 1.79263987e-002
      1.66951362e-002 5.17017627e-003 4.55308855e-002 4.12936807e-002
      5.64772859e-002 3.17104068e-003 3.27878818e-002 -2.91233584e-002
      2.07289625e-002 9.23846569e-003 -3.90419620e-003 4.24939618e-002
      2.54791267e-002 5.03691435e-002 9.88960080e-003 -1.33161247e-002
      -6.51081512e-003 3.73346470e-002 -5.30010602e-003 -2.56713526e-003
      1.65382177e-002 9.64282826e-003 2.52500977e-002 5.71640953e-002
      2.02062968e-002 1.91752594e-002 2.99923904e-002 1.48852915e-002
      2.94936169e-002 3.07380501e-002 -2.72518257e-004 5.68033122e-002
      -1.51352864e-002 5.46734175e-003 2.47082033e-004 4.46074456e-002
      1.63128190e-002 1.84738822e-002 8.95477831e-003 1.12982588e-002
      4.29501832e-002 1.59778614e-002 8.71448517e-002 1.47616938e-002
      3.06244995e-002 1.50606753e-002 1.53427683e-002 1.50827821e-002
      1.90465469e-002 1.58372521e-002 6.70922473e-002 -4.06447938e-003
      -3.48758209e-003 3.98888439e-002 6.30782321e-002 3.05377115e-002
      1.45749794e-002 -2.20964313e-003 1.37115680e-002 3.56521942e-002
      3.20650302e-002 3.08401454e-002 2.40112413e-002 1.76020621e-004
      7.18661258e-003 5.26048057e-003 5.79591142e-003 5.86240028e-004
      -1.29816011e-002 4.69072945e-002 3.16563644e-003 3.33998166e-002
      3.86541779e-003 5.09771928e-002 2.36169808e-002 -3.52364480e-002
      3.60372514e-002 -8.15327559e-003 2.91936658e-002 5.86904585e-003
      5.32383397e-002 6.61461577e-002 3.39025408e-002 6.38270983e-004
      5.95889334e-003 -3.00454325e-003 4.55613667e-003 2.68602259e-002
      4.54257429e-002 1.31825563e-002 3.50571983e-002 -2.42535472e-002
      -4.34921086e-002 -3.17645445e-002 2.10519116e-002 4.73780222e-002
      3.64601724e-002 1.47068053e-002 1.50999492e-002 1.55700929e-002
      7.22301602e-002 1.25483572e-002 1.78266838e-002 8.64649564e-003
      9.23399534e-003 1.25335306e-002 1.10558036e-003 -2.50892267e-002
      -1.66847985e-002 -2.65465993e-002 -2.64037587e-002
      -3.74740660e-002 -1.05039133e-002 6.65529966e-002 6.76336931e-003
      1.98458694e-002 -5.20513719e-003 2.13893000e-002 8.97072256e-003
      1.01048909e-002 -5.07293409e-003 1.64555095e-003 2.12390888e-002
      3.29681076e-002 -1.23887798e-002 -5.48515245e-002 -1.07604498e-002
      -3.67457084e-002 -9.08243377e-003 -4.66951057e-002
      -3.34339589e-002 -2.46349815e-002 -8.10668990e-003
      -5.20555340e-002 3.77994333e-003 -2.24398039e-002 1.56169699e-003
      4.94803786e-002 3.51252966e-002 4.78467718e-002 6.87160343e-002
      5.07222600e-002 5.56623265e-002 -5.67959212e-002 -4.52994928e-002
      -7.25255394e-003 2.01496575e-002 2.69113164e-002 8.23318865e-003
      -1.60046183e-002 9.16753488e-004 2.04493795e-002 -3.06403264e-002
      5.13748676e-002 3.69011797e-002 5.54413050e-002 2.87199618e-005
      1.55706620e-002 -2.09686570e-002 9.13543068e-003 -2.68599764e-002
      -2.01815553e-003 6.63780719e-002 7.86323324e-002 9.23545957e-002
      2.06541605e-002 1.35342842e-002 -4.93335426e-002 -1.29074473e-002
      -4.23668930e-003 -4.12701331e-002 2.88781822e-002 2.07047667e-002
      6.30292445e-002 1.83207951e-002 2.01944169e-002 -4.58129607e-002
      -3.40489224e-002 -6.23427704e-002 -1.99275911e-002 8.86403471e-002
      9.01299268e-002 9.68733504e-002 8.49063322e-003 -5.43503053e-002
      -1.19270094e-001 -7.74580613e-002 -4.04683203e-002
      -8.49935785e-003 -3.49172093e-002 -2.90512256e-002 8.70136451e-003
      -6.03156257e-003 -1.44734466e-002 -5.75873852e-002 1.43755898e-002
      9.34893172e-003 1.60334390e-002 1.06046638e-002 3.82685363e-002
      2.25358568e-002 3.27677764e-002 -4.20340430e-003 -4.78108553e-003
      4.44590375e-002 1.06241852e-002 -5.88905551e-002 -2.50340234e-002
      -3.10408454e-002 1.21843359e-002 -1.42154898e-002 -1.94186941e-002
      -1.60519350e-002 1.16920359e-002 -4.83261086e-002 -3.71860303e-002
      -8.71070568e-003 -1.00434907e-002 1.83321943e-003 -2.01813616e-002
      -3.88472639e-002 -1.96664464e-002 3.19751799e-002 -4.30394989e-003
      -8.09889659e-003 1.00151934e-002 2.11117491e-002 -6.84645725e-003
      1.09357685e-002 -2.93452945e-002 -6.13275245e-002 -2.36177407e-002
      -5.51463012e-003 4.37258668e-002 3.07029467e-002 3.53883840e-002
      2.93213055e-002 3.56948338e-002 -1.20618066e-003 -2.25272514e-002
      2.77623180e-002 3.15382075e-003 -2.29805838e-002 4.85908100e-003
      2.06354866e-003 -1.00454502e-002 -4.58987840e-002 -3.57826613e-002
      8.77882913e-003 8.83219019e-003 -2.01535262e-002 2.38455702e-002
      4.88101542e-002 2.78222319e-002 1.46078654e-002 -2.50944644e-002
      -4.29787822e-002 9.98805743e-003 1.77767277e-002 -1.55660557e-003
      1.45791993e-002 6.68384554e-003 2.32500453e-002 3.89425526e-003
      -2.57020202e-002 1.72749814e-002 -3.09565328e-002 -1.17324351e-003
      -2.39595547e-002 2.21351087e-002 5.48956310e-003 1.93317104e-002
      -3.68639303e-004 -9.62814223e-003 1.77102666e-002 1.56614110e-002
      7.20607042e-002 -3.50659969e-003 2.67151762e-002 2.76214592e-002
      1.47912074e-002 8.45657568e-003 -3.16151232e-002 -1.99368112e-002
      1.87532157e-002 1.06957769e-002 3.07644494e-002 3.83166410e-002
      5.77095291e-003 -8.64511728e-003 -7.19994958e-003 -1.12647871e-002
      1.97932520e-003 2.10555401e-002 2.19044276e-002 2.22908277e-002
      2.90534273e-002 -3.82480735e-004 -1.78072602e-002 -1.65172275e-002
      -1.32510792e-002 9.56557598e-003 -6.90530229e-004 4.32187393e-002
      1.51216984e-002 2.90171672e-002 -9.95239825e-004 1.55649912e-002
      2.44126990e-002 -4.46461402e-002 3.07993032e-002 5.11616468e-002
      5.04542626e-002 3.66984159e-002 4.47301492e-002 1.34933898e-002
      -1.33036664e-002 -5.17415488e-003 7.51052191e-003 -3.27500654e-003
      1.65627245e-002 2.92729679e-002 7.24884681e-003 4.65820394e-002
      2.91722696e-002 -5.84896596e-004 1.42414989e-002 -5.57353757e-002
      4.56073917e-002 7.38763958e-002 8.15781951e-002 2.90698912e-002
      1.06122475e-002 1.48629528e-002 2.06917450e-002 2.78573986e-002
      -2.28012241e-002 4.02405299e-002 7.25673735e-002 2.95128822e-002
      3.95879559e-002 1.57630481e-002 4.69375681e-003 2.70613600e-002
      1.83389746e-002 -1.89387463e-002 8.70876014e-003 3.84288356e-002
      1.81761794e-002 2.73111146e-002 5.53646982e-002 4.41969708e-002
      4.02759574e-003 3.15960608e-002 -2.71111056e-002 7.39212930e-002
      8.34567398e-002 7.59673342e-002 4.36422005e-002 -1.57517530e-002
      -2.94051785e-002 -5.04639968e-002 -9.52401664e-003
      -1.67669393e-002 1.57642066e-002 3.69922817e-002 -7.26606976e-003
      -9.06572305e-003 4.23818380e-002 -3.87810054e-003 1.99608337e-002
      4.53562066e-002 5.76534048e-002 2.91913040e-002 3.24709602e-002
      2.32539810e-002 3.59009355e-002 -9.64382198e-003 -2.34789569e-002
      -2.22676359e-002 6.44331973e-004 5.12844995e-002 2.60202605e-002
      1.69126559e-002 2.18008757e-002 1.96606480e-002 1.03999376e-002
      -5.01731932e-002 -4.03224351e-003 -4.59294097e-004 7.08121946e-003
      2.67129205e-002 3.34009039e-003 3.35550793e-002 1.52145298e-002
      -2.16576713e-003 5.83745260e-003 -1.52698411e-002 -2.49208156e-002
      4.24655760e-003 3.03935744e-002 -1.98934134e-002 3.91640002e-003
      -1.08659612e-002 -3.45861539e-002 -4.91418736e-003
      -1.02275889e-002 1.33849485e-002 5.46780974e-002 1.52456509e-002
      -1.00825261e-002 1.77555773e-002 -4.24681325e-003 -2.77656317e-002
      3.23884413e-002 6.19919859e-002 5.32508008e-002 -4.99519403e-004
      -6.52192384e-002 -6.65611178e-002 -3.94381508e-002
      -1.66827552e-002 2.17603650e-002 4.59486097e-002 5.09599075e-002
      8.84085987e-003 4.57733944e-002 3.51333544e-002 5.04877593e-004
      3.20804096e-003 1.36657087e-002 4.34234403e-002 5.15875034e-002
      3.20418961e-002 6.61389995e-003 -1.86813287e-002 -5.39666675e-002
      -2.64544114e-002 -3.55370599e-003 3.84155922e-002 -4.86773476e-002
      -1.54159972e-002 -7.50683306e-004 3.67007665e-002 1.94794014e-002
      -1.57348569e-002 -3.46830883e-003 -1.34901125e-002
      -7.18016550e-002 -2.15474684e-002 2.73430310e-002 1.66630521e-002
      4.20682952e-002 7.91050717e-002 -1.23592559e-002 -3.09538059e-002
      -2.64575495e-003 -4.57240380e-002 -1.73172019e-002
      -6.65329099e-002 -5.44419605e-003 1.69431884e-002 1.05439452e-002
      -1.41067412e-002 -2.00185627e-002 -2.92294379e-002
      -2.65722573e-002 1.44488057e-002 5.85920527e-004 6.26619160e-003
      3.86481695e-002 9.18280929e-002 1.32535258e-002 1.72663312e-002
      -3.44655477e-003 -2.67738942e-002 -2.19920278e-002 4.05383483e-002
      2.31916700e-002 2.36070994e-002 -4.73936275e-002 -1.69544350e-002
      2.44096164e-002 -7.01930653e-003 -4.08834107e-002 2.21166317e-003
      3.91932316e-002 2.30074190e-002 4.07071710e-002 -1.02992391e-003
      4.76370053e-003 1.08922776e-002 2.07978003e-002 -1.27340574e-002
      3.06063006e-003 1.78208537e-002 2.97192521e-002 3.18051204e-002
      -7.29333144e-003 1.85796805e-002 2.61949133e-002 -9.37053002e-003
      -1.06063858e-002 -5.43671008e-003 -1.47769377e-002 2.97406665e-003
      6.77392399e-003 2.01750975e-002 2.02826932e-002 3.58027741e-002
      -1.46693233e-002 -1.67797692e-002 3.78258293e-003 1.20351454e-002
      8.33857339e-003 -1.38017582e-002 -2.95101088e-002 -2.98124552e-002
      1.91811938e-002 1.48912705e-002 1.27534624e-002 6.81434385e-003
      -1.35459919e-002 1.94725487e-002 -7.82401860e-003 2.59105004e-002
      6.56521460e-003 9.01918299e-003 1.97286271e-002 2.50600930e-002
      2.69688317e-003 -1.08655831e-002 -2.30478891e-003 -2.40731593e-002
      -7.37474905e-003 -1.94317866e-002 1.06408102e-002 -1.76540986e-002
      1.37980245e-002 -6.62250153e-004 -1.20182894e-002 2.24809982e-002
      3.13877538e-002 2.64675524e-002 -2.67137797e-003 2.38151886e-002
      1.91651657e-002 -6.21531904e-003 -2.56357267e-002 -3.57670709e-003
      1.08484579e-002 3.80139303e-004 4.98221181e-002 1.58602521e-002
      2.05484685e-002 1.99524555e-002 -1.55423172e-002 -1.48260361e-002
      2.86741313e-002 -2.56168772e-003 2.71359980e-002 1.44877983e-002
      -1.05584091e-004 2.33663246e-002 4.27183211e-002 1.53594627e-003
      -2.91827787e-002 -2.07340848e-002 -1.34105131e-003 1.09966090e-002
      3.85732157e-003 7.22647179e-003 4.02249321e-002 3.24155949e-002
      -1.18145440e-002 -3.81307602e-002 -2.22828519e-003
      -6.37592888e-003 5.56619130e-002 3.35534997e-002 5.36500737e-002
      2.48035174e-002 3.61004993e-002 2.71836529e-003 2.42261849e-002
      2.92387381e-002 1.43268313e-002 4.40402962e-002 -1.01151923e-002
      3.55068222e-002 2.69579440e-002 1.17491363e-002 3.51158865e-002
      -2.47572195e-002 -1.61212664e-002 -4.12316322e-002
      -2.27009077e-002 -6.37299661e-003 1.88770816e-002 1.31924404e-002
      -1.88647006e-002 -3.20576038e-003 1.68121327e-002 4.82457690e-002
      6.21136427e-002 8.62583593e-002 3.15342993e-002 7.74179325e-002
      2.06945203e-002 6.26758486e-002 3.63283865e-002 -3.92400427e-003
      3.74307148e-002 1.09203032e-003 6.00978779e-003 4.50767623e-003
      1.67564005e-002 3.44162099e-002 3.34361345e-002 1.63150188e-002
      -3.55565711e-003 -1.15184989e-002 -2.82727964e-002
      -2.46406570e-002 2.94365045e-002 1.21941036e-002 1.11207729e-002
      2.85795573e-002 2.40422841e-002 7.76547706e-003 2.32150480e-002
      3.88605408e-002 2.63974890e-002 4.78567444e-002 5.29559096e-003
      -1.59148332e-002 -3.05489656e-002 3.36185144e-003 3.11169471e-003
      2.55279671e-002 1.36276279e-002 4.53686574e-003 6.07063472e-002
      2.75397208e-002 5.44150732e-003 3.35229635e-002 7.34845921e-003
      -2.99991053e-002 4.26940285e-002 3.57580408e-002 3.94520685e-002
      7.99089447e-002 1.95025913e-002 2.24972237e-002 -8.38594791e-003
      -2.91325804e-002 2.02961434e-002 -4.06040950e-003 9.62362625e-003
      1.19679943e-002 1.95647087e-002 2.05535516e-002 4.10972862e-003
      -1.95174813e-002 -8.48728511e-003 6.86499178e-002 -9.68456734e-003
      -4.55181077e-002 -4.32518609e-002 -3.52008268e-002
      -5.33435913e-003 3.81312184e-002 7.94331077e-003 5.74337654e-002
      -5.45604294e-003 5.17549999e-002 5.64857945e-002 3.61865945e-002
      6.69628680e-002 4.14680243e-002 6.23194724e-002 1.59429964e-002
      2.20108093e-004 4.22140658e-002 -2.49369033e-002 -2.82802526e-002
      -3.11542135e-002 2.01222729e-002 9.96693689e-003 2.53966525e-002
      9.41765588e-003 3.71782146e-002 7.53725693e-003 2.82295421e-003
      2.18534339e-002 2.46204529e-002 1.79903600e-002 -8.72988813e-003
      -3.54969092e-002 -4.46017869e-002 -2.68390775e-002 8.94196332e-003
      1.75200813e-002 3.19103859e-002 3.29131037e-002 6.34427592e-002
      3.38935368e-002 8.59848410e-003 -3.35883275e-002 -3.23154405e-002
      3.06450413e-003 1.95311625e-002 1.47544341e-002 1.14508700e-002
      7.42685236e-003 2.60094268e-004 -2.33295877e-002 -5.32899760e-002
      -2.08868217e-002 2.66394913e-002 4.98342365e-002 3.57122906e-002
      5.84801957e-002 2.01924983e-002 4.96395081e-002 1.48057034e-002
      2.53535784e-003 1.63130648e-002 2.95891222e-002 1.26635162e-002
      3.10921296e-002 2.20087804e-002 1.30082071e-002 2.26295982e-002
      3.04249208e-002 3.59898843e-002 1.96663998e-002 -2.23709233e-002
      1.13701038e-002 2.82343142e-002 -4.66238300e-004 -1.04850149e-002
      1.22344065e-002 -2.41874550e-002 -2.69064233e-002 -1.16302595e-002
      4.33859751e-002 2.75567453e-002 1.94301363e-002 3.01620569e-002
      8.93439446e-003 4.07501906e-002 3.18651050e-002 4.25337441e-002
      5.99697269e-002 -4.56386507e-002 1.18043262e-003 -5.84654044e-004
      2.47012787e-002 3.37784290e-002 4.34980169e-002 1.89664643e-002
      5.91089278e-002 1.67341456e-002 9.56601463e-003 2.70427926e-003
      1.39762713e-002 -1.97358951e-002 -5.07481862e-003 -1.19403284e-002
      -4.02071606e-003 1.16007682e-002 3.18701826e-002 9.80478805e-003
      9.25855804e-003 1.86921079e-002 3.86920348e-002 3.72724198e-002
      6.61926949e-003 1.25562334e-002 3.04006021e-002 7.34469807e-003
      -6.51083961e-002 -2.28470881e-002 -8.78215767e-003
      -2.56485622e-002 4.63148952e-003 -1.12716323e-002 -1.50726484e-002
      -3.48381558e-003 -2.71681715e-002 -4.02416065e-002 4.67337377e-004
      1.34206247e-002 5.42427115e-002 4.81742620e-002 -1.07454900e-002
      -3.75368148e-002 -2.36308873e-002 -4.13900390e-002
      -2.87359785e-002 -4.10752818e-002 -3.19403894e-002 4.77106962e-003
      5.45458728e-003 -1.14577133e-002 -2.20214389e-002 -1.49562331e-002
      -2.19992213e-002 -1.42247584e-002 -1.77994929e-003 1.26691619e-002
      3.00243646e-002 3.48730162e-002 5.06777577e-002 5.07231615e-002
      2.14746948e-002 1.13421520e-002 -3.96533422e-002 -1.47559857e-002
      -4.68798308e-003 2.75546946e-002 7.52612250e-003 -1.63506698e-002
      -5.72581664e-002 -5.78464605e-002 -4.26085591e-002 8.16807617e-003
      2.69238912e-002 2.32229643e-002 3.78366448e-002 4.73902561e-002
      6.08173572e-002 7.63469003e-003 -9.94715281e-003 7.38252699e-003
      -1.30299190e-002 1.86501108e-002 4.78934795e-002 4.96097989e-002
      4.87135015e-002 5.12878932e-002 2.31785234e-002 4.14717682e-002
      8.28474108e-003 -1.45815755e-003 3.71722803e-002 1.75300669e-002
      2.49088444e-002 6.99227303e-003 -5.96094355e-002 -5.21860830e-002
      -2.01943647e-002 2.01185290e-002 2.29123849e-002 3.65214162e-002
      5.30678034e-002 4.92434502e-002 7.47909769e-002 5.63732833e-002
      1.75002106e-002 1.37868319e-002 1.47627229e-002 4.58688289e-002
      5.74674048e-002 8.19299221e-002 6.90393895e-002 5.93657792e-002
      1.01389047e-002 -3.91562022e-002 3.80240865e-002 2.76579484e-002
      3.56730297e-002 2.97121201e-002 -6.11673435e-003 -9.02545347e-004
      4.24170345e-002 -8.56032781e-003 5.19941153e-004 3.12786661e-002
      1.84207549e-003 -3.62257622e-002 2.67298818e-002 9.82140005e-003
      8.34281265e-004 2.05471255e-002 -4.84363968e-003 -1.35538420e-002
      -1.17108719e-002 -6.02726415e-002 5.37894927e-002 9.56173018e-002
      8.70537981e-002 3.51804681e-002 6.47461861e-002 7.84458891e-002
      6.23728558e-002 4.53749709e-002 9.20222513e-003 3.71310525e-002
      5.50589152e-002 2.52552442e-002 4.15659091e-003 2.73288582e-002
      1.73934195e-002 2.21032510e-003 -3.06048580e-002 -9.73296724e-003
      -4.15171012e-002 5.18344305e-002 6.86345324e-002 7.51965940e-002
      6.28646165e-002 6.84128702e-002 4.70983982e-002 2.65214946e-002
      -5.26351146e-002 -1.22028205e-003 -6.74310466e-003
      -9.80152003e-003 2.87356116e-002 -2.78948899e-002 1.48766981e-002
      -1.46946153e-002 -1.32531365e-002 4.42975317e-004 4.23409604e-002
      7.46335238e-002 7.13269487e-002 6.87676296e-002 6.48184046e-002
      7.57034197e-002 1.15629239e-002 -1.93805229e-002 5.64928213e-003
      3.01344227e-002 2.78979614e-002 4.95480113e-002 1.13198990e-002
      1.25036221e-002 1.52571276e-002 -3.79981734e-002 -2.54733339e-002
      4.47714776e-002 2.47947164e-002 2.65324283e-002 7.85196107e-003
      1.58754848e-002 3.67299244e-002 4.79235016e-002 7.26388814e-003
      -7.48934783e-003 -1.57672837e-002 2.20346153e-002 4.69137914e-002
      1.90509483e-002 3.70713696e-002 1.71608590e-002 6.46455511e-002
      4.16817181e-002 2.65965946e-002 6.93166722e-003 2.44008545e-002
      -3.02872900e-002 -6.81179762e-002 1.36391092e-002 4.07270715e-002
      6.31509051e-002 1.60009786e-002 1.04938513e-002 4.13320288e-002
      -2.79708626e-003 -9.87445656e-003 -3.35648619e-002 4.10870127e-002
      7.36782104e-002 6.71899617e-002 5.76521903e-002 8.23792517e-002
      3.92193533e-003 -7.11655430e-003 2.36161686e-002 -5.54209342e-003
      8.01902637e-003 -2.74061318e-003 1.78477764e-002 7.75476731e-003
      1.85436141e-002 4.62597143e-003 -4.60171625e-002 3.07364687e-002
      1.41968206e-002 3.41588221e-002 3.77300531e-002 2.49420591e-002
      4.26704325e-002 2.89898925e-002 -1.41958669e-002 -1.77380498e-002
      -5.52100176e-003 1.15703547e-003 2.97472384e-002 4.98029888e-002
      -3.59270978e-003 2.13349331e-002 4.02264558e-002 -4.37699305e-003
      2.84484513e-002 4.76226434e-002 4.27312478e-002 3.72007452e-002
      6.00305274e-002 1.76984053e-002 2.77353544e-002 1.78086367e-002
      3.43744978e-002 -5.31503782e-002 2.37256126e-003 -5.90848271e-003
      -3.96937074e-004 3.71373706e-002 -1.12076672e-002 -1.34027898e-002
      -2.24909894e-002 -3.29153091e-002 -1.12829451e-002 2.54779272e-002
      3.36899608e-002 5.49395457e-002 7.71813989e-002 -4.05649878e-002
      -3.07718366e-002 -1.33518968e-002 -2.33214330e-002 1.71475336e-002
      3.92435305e-002 2.71050278e-002 1.84054871e-003 5.03640212e-002
      -1.44020841e-002 -4.12297100e-002 -3.46294306e-002
      -4.62980382e-003 3.83734331e-002 7.09120482e-002 3.22500318e-002
      8.52146186e-003 2.87963208e-002 -2.45814212e-003 4.03901283e-003
      1.83826108e-002 7.44334795e-003 -2.38104314e-002 2.87828036e-003
      2.02262402e-002 1.16173774e-002 -9.06034373e-003 -3.47812735e-002
      -1.17597645e-002 -1.52907725e-002 -3.69661786e-002
      -1.29534537e-002 2.03910135e-002 8.48625135e-003 3.15525010e-002
      4.58777584e-002 3.60046141e-002 -2.28426140e-002 -7.18602166e-003
      5.61942230e-004 2.40183305e-002 2.69996319e-002 3.26805189e-002
      -3.93932266e-003 7.98683241e-003 -2.54811104e-002 -7.39721302e-003
      2.12124493e-002 -1.35217942e-002 8.92133079e-003 5.61290942e-002
      3.28105688e-002 5.96121028e-002 5.64942658e-002 3.18878070e-002
      1.03208451e-002 3.20514888e-002 -3.25863552e-003 -3.25975530e-002
      -1.53165655e-002 -1.63278375e-002 1.21994279e-002 5.61397225e-002
      3.61982919e-002 -1.71771497e-002 -2.23124288e-002 -4.28060405e-002
      -8.80484749e-003 -1.23502612e-002 3.57462317e-002 6.31861985e-002
      7.50853121e-002 6.59978390e-002 3.53647657e-002 1.67577825e-002
      -6.80941530e-003 -5.01306541e-002 2.42679124e-003 1.20126717e-002
      4.06605154e-002 5.89158460e-002 -1.27802901e-002 -1.67622846e-002
      -2.32843403e-002 -5.03283925e-002 -4.63858508e-002 3.63005442e-003
      4.20012958e-002 7.86453784e-002 9.49433148e-002 3.83478031e-002
      1.92871150e-002 -3.61672742e-003 -2.92280447e-002 2.80675571e-002
      5.55782989e-002 6.58631846e-002 4.04924527e-002 7.37116560e-002
      9.81654748e-002 4.21403125e-002 2.74183527e-002 9.94263869e-003
      2.00081524e-002 3.03438623e-002 3.46617252e-002 2.09724922e-002
      -3.30766104e-002 -8.73675477e-003 -3.99693102e-002
      -4.90804054e-002 -2.05091834e-002 2.08657868e-002 6.07527979e-002
      6.35803714e-002 9.15042162e-002 1.12022482e-001 7.58943111e-002
      3.20978723e-002 1.67663246e-002 3.04646734e-002 1.16477245e-002
      5.17454594e-002 3.78795266e-002 3.63173671e-002 4.06526811e-002
      -3.83506976e-002 -9.79712307e-002 -8.07610005e-002 9.98204388e-003
      1.96183585e-002 4.94023822e-002 5.25281802e-002 4.10415120e-002
      5.06527200e-002 4.78321016e-002 8.99718376e-004 -1.52790244e-003
      3.06716524e-002 2.88589559e-002 1.02019887e-002 -1.64676085e-003
      -1.92211252e-002 1.35759013e-002 1.94535535e-002 -9.19160061e-003
      4.72007133e-002 6.46196157e-002 2.33164560e-002 4.93454747e-002
      4.78530265e-002 4.73342203e-002 6.24094717e-002 -1.99366082e-003
      -4.51126955e-002 -2.26037484e-002 4.39583100e-002 2.50958814e-003
      -1.63931828e-002 -2.38913614e-002 -3.24509479e-002
      -5.80637902e-003 8.49132612e-003 -4.24415292e-003 9.48983803e-003
      1.62719246e-002 3.19447815e-002 -2.81609073e-002 -8.75886977e-002
      -7.15982169e-003 4.75083813e-002 1.67351607e-002 1.68994740e-002
      1.77168529e-002 6.17770292e-002 9.00121219e-003 7.09205121e-003
      2.24563619e-003 3.38629223e-002 6.38072491e-002 1.03883427e-002
      4.87222411e-002 6.88855499e-002 5.57725728e-002 -1.17366510e-002
      -4.09607440e-002 -6.95400983e-002 -1.44915162e-002 1.54390354e-002
      -2.51173470e-002 -1.06805889e-002 3.91740678e-003 2.71983594e-002
      -1.55556845e-002 -1.25321792e-002 6.95771398e-003 4.08118106e-002
      5.65581843e-002 8.63198191e-003 2.36876402e-002 2.12601498e-002
      1.14079714e-002 6.78311847e-003 -7.97001366e-003 -3.22496425e-003
      3.83697115e-002 3.81030962e-002 1.62432883e-002 1.62557717e-002
      3.18956338e-002 1.97750926e-002 4.56072390e-002 6.49564117e-002
      4.47614565e-002 3.61167379e-002 2.77968887e-002 7.90114515e-003
      -7.64773984e-004 -6.64607296e-003 5.05203754e-002 -5.79874367e-002
      -3.92470732e-002 -1.53490426e-002 -6.76355208e-004 4.76770150e-003
      3.06234192e-002 4.51306487e-003 -2.35492419e-002 -3.55855860e-002
      -1.42034981e-002 5.94446110e-003 2.37061363e-002 -1.36290854e-002
      -4.12893742e-002 3.96671705e-002 1.86528675e-002 -1.63551588e-002
      -1.53812710e-002 2.15796456e-002 5.35959452e-002 2.25943979e-002
      -4.82812105e-003 4.24190238e-003 -3.86457630e-002 -5.47719486e-002
      -1.87129751e-002 1.74108520e-002 4.04530279e-002 7.13721439e-002
      1.96513589e-002 -2.18579359e-003 -1.85365379e-002 -6.64595794e-003
      -1.40250809e-002 1.01880850e-002 2.90809423e-002 5.58188464e-003
      5.08085340e-002 1.38675785e-002 -3.48442458e-002 -5.71604818e-002
      -1.32247312e-002 1.03814090e-002 2.49857008e-002 -9.87806637e-003
      4.00238372e-002 7.99866840e-002 1.95899680e-002 -2.34465557e-003
      3.92536493e-003 1.71892941e-002 -4.34134575e-003 -8.39272141e-003
      8.01595580e-003 3.63967102e-003 3.27816047e-002 -2.63020629e-003
      -3.03306989e-002 -3.47702131e-002 -1.71633977e-002
      -5.31300828e-002 -2.55888272e-002 -1.62193421e-002 1.83264688e-002
      5.65358289e-002 2.67107394e-002 6.73293769e-002 2.00636275e-002
      1.94048584e-002 -2.47766916e-002 1.20587060e-002 -7.11182039e-003
      -2.00130492e-002 3.49612683e-002 -3.71274655e-004 -1.58391390e-002
      -4.56995592e-002 -4.13438380e-002 -5.03627062e-002
      -4.61423174e-002 -3.32682580e-002 2.93161795e-002 6.93930015e-002
      6.14476502e-002 6.66099340e-002 7.87456241e-003 2.39628367e-002
      -1.71117783e-002 1.50382170e-003 3.16226296e-002 -1.12929102e-002
      1.56268608e-002 1.28988614e-002 6.89664707e-002 4.16569859e-002
      -1.86416171e-002 -2.10969336e-002 -7.21772714e-003
      -4.07597236e-002 -5.47286160e-002 1.62327383e-002 4.40146849e-002
      9.22062770e-002 8.48112926e-002 -9.50695761e-003 -2.47154385e-002
      -1.86503697e-002 -7.80102164e-002 2.31661927e-002 4.84858118e-002
      4.57205810e-002 6.31408319e-002 2.66858302e-002 -1.23632932e-002
      -4.12154160e-002 1.75630525e-002 2.75568385e-002 4.07537213e-003
      1.59644755e-003 1.76768173e-002 7.73374215e-002 -5.74330566e-004
      -3.40200700e-002 -4.23088335e-002 -2.67122611e-002
      -2.17834022e-002 3.77901681e-002 7.81633630e-002 6.97364211e-002
      1.23642623e-001 1.24324225e-001 5.84656410e-002 -9.85488109e-003
      -8.08218960e-003 2.07736101e-002 -4.95742029e-003 4.96406890e-002
      3.98349576e-002 5.03541604e-002 3.59120890e-002 -3.95276118e-003
      -9.75780711e-002 -5.59910201e-002 -8.08887463e-003
      -5.19256527e-003 2.19369470e-003 1.67855453e-002 9.96240824e-002
      5.22321872e-002 -1.21979800e-003 -6.50615171e-002 -4.92409542e-002
      -2.69048940e-002 -3.14607769e-002 -1.46944169e-002 5.04501164e-003
      1.18570076e-002 7.52701703e-003 -2.86950124e-003 -1.01001948e-001
      -6.94685057e-002 -4.27325554e-002 2.52654729e-003 4.79988270e-002
      3.91266793e-002 6.47988245e-002 7.25637525e-002 2.52972147e-003
      -6.10108525e-002 -3.28383548e-003 -8.44557025e-003
      -1.48705980e-002 -5.53784717e-004 -1.08613288e-002 2.51207198e-003
      3.12077068e-003 -1.33026810e-003 -2.25460418e-002 -1.25375192e-003
      -4.95360382e-002 5.75226322e-002 4.67302874e-002 5.41453771e-002
      4.40848097e-002 7.43177384e-002 2.42078360e-002 7.93123059e-003
      8.38025287e-003 1.05029605e-002 6.09940737e-002 3.57882977e-002
      3.12380362e-002 2.83271279e-002 -3.82040478e-002 -6.77890144e-003
      -1.45238480e-002 1.20878257e-002 1.87932421e-002 -1.47973076e-002
      -2.25990582e-002 -5.46271168e-002 -1.36311539e-002 3.05397604e-002
      2.67879143e-002 -1.07340915e-002 -1.91672426e-002 1.89558102e-003
      1.78508293e-002 4.22630645e-003 9.95558128e-003 5.13051078e-002
      7.50017092e-002 5.78899346e-002 2.11177375e-002 -7.66919274e-003
      -4.07005241e-003 1.00023253e-003 1.30918983e-003 8.56099743e-003
      3.52287688e-003 2.50710379e-002 2.61995252e-002 -8.52994807e-003
      -1.79995354e-002 -6.05288520e-003 1.35436086e-002 7.01739546e-003
      -4.06812094e-002 -1.39043331e-002 5.15086912e-002 4.82156947e-002
      4.01398093e-002 3.98194464e-003 -1.64828431e-002 -1.14463912e-002
      -2.43295114e-002 -1.68003794e-002 6.84743049e-003 4.16740067e-002
      2.34022345e-002 8.65347870e-003 -2.03038082e-002 -3.33168916e-002
      2.62126476e-002 -6.21179258e-003 2.70492975e-002 3.37228961e-002
      2.80547570e-002 6.05026260e-002 3.94188091e-002 3.43428813e-002
      2.19632853e-002 -1.04043474e-002 8.64098035e-003 -5.16734384e-002
      -2.48389877e-002 3.24995071e-002 1.07996240e-002 -3.24485567e-003
      -4.88465931e-003 -5.60653098e-002 5.14613017e-002 4.32923660e-002
      -7.71390134e-003 3.86145301e-002 -1.28958025e-004 4.31197323e-002
      3.63297090e-002 3.67308296e-002 -1.00042764e-002 1.70114636e-002
      -6.77921763e-003 -1.86884068e-002 -2.61722356e-002
      -9.17465463e-002 9.46519896e-003 8.07096809e-003 1.27459364e-003
      6.08150940e-003 5.15545122e-002 6.37614951e-002 3.42963962e-003
      1.09364707e-002 -2.14754175e-002 8.22931528e-003 -3.25842411e-003
      -8.56474601e-003 2.79077943e-002 2.02201288e-002 3.24416496e-002
      -8.12082924e-003 2.06491761e-002 -4.78034429e-002 -7.82643037e-004
      -2.08050124e-002 -2.92570908e-002 2.10726028e-003 3.39882821e-002
      9.77310091e-002 7.15583637e-002 7.49061480e-002 -4.19011619e-003
      1.62931755e-002 -1.69212669e-002 -2.05126200e-002 2.56132218e-003
      -3.24155428e-002 4.77193017e-003 -1.82049591e-002 1.12481825e-002
      -4.28017713e-002 -3.73098068e-002 -2.66751032e-002
      -3.78276035e-002 -1.57139879e-002 2.84628104e-002 7.20614791e-002
      4.70384546e-002 5.81416488e-002 4.71449597e-003 2.53197234e-002
      5.09220129e-003 2.14654095e-002 4.14833426e-002 -2.19221488e-002
      1.67332776e-002 8.52574222e-003 1.41274342e-002 -4.09631617e-002
      -1.87271833e-002 -6.46616966e-002 -4.88179773e-002
      -2.50374079e-002 3.78880426e-002 4.64433730e-002 2.60294788e-002
      2.95996964e-002 4.97727189e-003 2.96751838e-002 -1.43737271e-002
      -9.62929148e-003 4.29464951e-002 5.80205508e-002 8.69394094e-002
      8.79185423e-002 8.25286582e-002 1.67691354e-002 4.05710526e-002
      5.37705095e-003 4.93061915e-002 4.10395935e-002 2.10709907e-002
      1.80223156e-002 3.48027833e-002 4.05956097e-002 -4.82854769e-002
      -1.12115210e-002 -1.48131568e-002 2.45168456e-003 4.07580024e-004
      5.68006411e-002 5.05964868e-002 7.35198483e-002 4.78413999e-002
      -1.36616845e-002 2.56518330e-002 -3.11521590e-002 -4.23171092e-003
      1.38906306e-002 1.57482568e-002 2.74713859e-002 1.87457968e-002
      -8.77193175e-003 -1.26758553e-002 -5.28432727e-002
      -7.96196163e-002 -3.43225040e-002 -3.33904400e-002 2.89493781e-002
      2.77945865e-002 7.37243816e-002 1.22885756e-001 6.15984760e-002
      1.46664977e-002 -2.58185230e-002 2.84151174e-004 9.38783959e-003
      2.00169086e-002 -2.02381779e-002 -4.11112458e-002 1.84039548e-002
      2.48073880e-002 1.91441691e-003 -5.80288768e-002 -4.06634994e-002
      -3.30180787e-002 5.29746003e-002 3.17557268e-002 5.89799695e-002
      7.13845268e-002 7.64939189e-002 -3.77971455e-002 -3.02212369e-002
      -2.65430100e-003 1.63566004e-002 1.43896146e-002 -4.22780626e-002
      -5.26236445e-002 3.29403915e-002 3.28009836e-002 -5.25595481e-003
      -4.77572195e-002 -3.12934183e-002 -1.62365511e-002 1.29809324e-002
      1.40180327e-002 -1.58913136e-002 3.74636315e-002 3.41000482e-002
      1.54426806e-002 -1.63402930e-002 -3.51511650e-002 -3.99295153e-004
      5.24093360e-002 2.76165083e-002 5.01281628e-003 3.84144634e-002
      -5.17548434e-002 -3.63410637e-002 -1.79429818e-002 4.01419541e-003
      3.85199450e-002 3.13349590e-002 -1.07631907e-002 -3.89238596e-002
      4.06743474e-002 1.55258076e-002 3.19507625e-003 -1.45629738e-002
      -4.03369591e-002 -1.85680725e-002 5.40443361e-002 6.57963939e-003
      -1.16224941e-002 2.16894094e-002 1.96367260e-002 -2.99943122e-003
      2.42478624e-002 4.40455042e-002 6.41877726e-002</_>
    <_>
      1.57022029e-002 4.68378700e-002 5.04217297e-002 6.20438308e-002
      4.52145152e-002 1.83685571e-002 -4.12791781e-002 -1.41667789e-002
      7.54599366e-003 4.95031141e-002 3.05322297e-002 3.48097682e-002
      3.76700982e-002 8.48103017e-002 3.15307118e-002 1.08798770e-002
      2.75732446e-002 3.50010358e-002 -2.70841196e-002 1.83315706e-002
      1.51186362e-002 2.05282755e-002 -1.42516168e-002 3.59720588e-002
      -4.31256406e-002 -2.48570275e-002 -4.85360660e-002
      -4.69937399e-002 -1.47295995e-002 1.64633021e-002 7.49605242e-003
      3.41763981e-002 -3.84103656e-002 -3.95262428e-002 -5.45281470e-002
      -5.12746722e-002 6.24850877e-002 -7.55247939e-003 -2.99861673e-002
      2.31128302e-003 3.99561524e-002 -1.46104516e-002 3.33106443e-002
      5.02292179e-002 6.51045442e-002 2.15255860e-002 3.25693563e-002
      5.00695826e-003 1.38320401e-002 2.20523681e-003 -3.26450239e-003
      2.34689005e-002 2.11011581e-002 3.84490676e-002 -3.06268558e-002
      -2.71027572e-002 -3.51067223e-002 -3.53193469e-002
      -6.86579850e-003 -7.06260651e-002 -2.35598926e-002 4.74121794e-003
      -3.86887789e-003 -5.87836765e-002 -4.44522873e-003
      -2.90665105e-002 -5.31949736e-002 -3.86116542e-002
      -3.26004177e-002 4.06481512e-002 1.36108333e-002 -2.94797495e-002
      1.28652593e-002 1.51265580e-002 -3.57407122e-003 4.59291786e-003
      -3.66046019e-002 -8.87227152e-003 7.34764908e-004 -1.37654189e-002
      2.21164450e-002 3.12456228e-002 -1.21223284e-002 -4.90721501e-002
      -4.87970561e-002 -4.29165177e-002 -5.20191416e-002
      -1.11789275e-002 -3.29758562e-002 2.58545354e-002 1.85870863e-002
      -5.25026117e-003 -3.13095353e-003 -3.67567986e-002
      -1.43237123e-002 1.88751216e-003 3.07539236e-002 -1.29460320e-002
      3.92384455e-002 4.31381688e-002 -2.42528748e-002 -6.14879467e-002
      -1.01348653e-001 -4.59076501e-002 -2.85956860e-002
      -2.39939312e-003 1.85380820e-002 5.44595234e-002 5.09582199e-002
      -1.73166431e-002 -3.61114927e-002 -4.01460379e-002 1.20442442e-003
      3.68195446e-003 2.70142350e-002 -3.91658628e-003 2.47644484e-002
      6.40105316e-003 -3.02878697e-003 -2.65849158e-002 -4.53922711e-002
      -4.99004014e-002 -1.78510137e-002 -1.48907425e-002
      -1.28220869e-002 -4.50156443e-003 9.76695642e-002 -3.49039584e-002
      -6.38309419e-002 -5.90425208e-002 -6.50548004e-003 1.93516724e-002
      3.11633833e-002 6.35614470e-002 9.28803533e-002 2.35893782e-002
      -9.57152992e-002 -8.60601142e-002 -4.48916517e-002
      -5.91902286e-002 -1.17444806e-002 2.48098262e-002 3.86127457e-002
      5.19753136e-002 1.99824497e-002 2.25366242e-002 8.32389051e-004
