<?xml version="1.0"?>
<opencv_storage>
<my_svm type_id="opencv-ml-svm">
  <svm_type>C_SVC</svm_type>
  <kernel><type>LINEAR</type></kernel>
  <C>1.</C>
  <term_criteria><epsilon>2.2204460492503131e-016</epsilon>
    <iterations>10000</iterations></term_criteria>
  <var_all>3780</var_all>
  <var_count>3780</var_count>
  <class_count>6</class_count>
  <class_labels type_id="opencv-matrix">
    <rows>1</rows>
    <cols>6</cols>
    <dt>i</dt>
    <data>
      0 1 2 3 4 5</data></class_labels>
  <sv_total>15</sv_total>
  <support_vectors>
    <_>
      4.03448101e-003 -1.75773239e-004 -5.52591449e-003 1.42309144e-002
      4.44604419e-002 -1.02422747e-003 -4.11846535e-003 2.55438755e-003
      2.98159989e-003 5.49032399e-003 7.71835214e-003 8.17232486e-003
      3.02248937e-003 8.06224532e-003 -7.47440942e-003 -7.11605093e-003
      4.56189126e-004 1.43738242e-003 -1.58896819e-002 9.33524047e-004
      -3.10331187e-003 -4.41628369e-003 2.69481726e-002 -1.17358603e-002
      -9.12635401e-003 -8.46093521e-003 -1.71339810e-002
      -2.46977191e-002 1.61700454e-002 1.29986219e-002 -3.63287306e-003
      -1.84806958e-002 -2.33269930e-002 -2.30857022e-002
      -1.94940120e-002 -4.23930809e-002 -1.61927138e-002
      -6.68428512e-003 -2.47399352e-004 3.66275548e-003 -1.51932286e-003
      -1.74760912e-003 2.30641314e-003 6.44124905e-003 -1.91111267e-002
      -1.58303995e-002 -2.97583267e-003 -3.61490669e-003 1.36329718e-002
      1.38689009e-002 9.46806651e-003 1.41699547e-002 6.36331178e-003
      -1.85045600e-002 -6.38224278e-003 -4.97611566e-003
      -5.32538397e-003 -6.68592658e-003 -3.11449412e-002
      -2.36090575e-003 7.25477049e-003 3.76500888e-003 -9.93535016e-003
      1.09902415e-002 -3.69716389e-003 -1.32134790e-002 1.11056352e-003
      2.00946480e-002 2.89614033e-002 3.67627740e-002 3.34726647e-002
      2.84207370e-002 -2.07271595e-002 1.63021516e-002 1.25782276e-002
      1.84360445e-002 2.22634170e-002 1.30802849e-002 6.53337222e-003
      -1.61615741e-002 -2.39133518e-002 -1.79328509e-002 1.47147607e-002
      1.72919556e-002 2.05732957e-002 1.63641982e-002 1.70801475e-003
      -1.60801858e-002 -2.08634287e-002 -1.97760817e-002 5.47669688e-003
      7.77485268e-003 -1.39681331e-003 2.91245114e-002 5.06317765e-002
      3.45925093e-002 4.92129615e-003 2.80409120e-003 -7.23904348e-004
      1.29521145e-002 2.54855491e-002 2.94531528e-002 3.97704542e-002
      2.81662643e-002 1.28777395e-003 -2.88162511e-002 -1.37196593e-002
      1.77429884e-003 1.13956081e-002 6.24526711e-003 8.55973270e-003
      4.90475446e-003 6.67395629e-003 -9.15649720e-003 -2.22806744e-002
      -2.56013442e-002 8.16358440e-003 1.12569435e-002 3.20374570e-003
      1.36026670e-003 3.05404933e-003 4.96060494e-003 -6.41171355e-003
      -2.68015508e-002 -2.01036558e-002 2.60122673e-004 -7.39932340e-003
      1.41816540e-002 2.24383865e-002 2.59568226e-002 -8.15048069e-003
      -2.26045959e-002 -3.07473708e-002 -8.48362409e-003
      -1.51796760e-002 -1.45120639e-002 1.56581088e-003 6.65813312e-003
      3.13263834e-002 -9.02429782e-003 -5.43189701e-004 -9.23233945e-003
      9.21768777e-004 -2.76981480e-002 2.34906636e-002 6.43134408e-004
      -5.83666656e-003 1.89079292e-004 -7.56327179e-004 -5.87045355e-003
      -1.71799082e-002 -6.44226326e-003 2.21148282e-002 1.88290160e-002
      -5.69433905e-003 1.29418925e-003 -2.27074284e-004 -1.56060485e-002
      -2.93573947e-004 -5.76987397e-003 8.16782471e-003 1.94449034e-002
      -1.45429615e-002 -1.14834439e-002 -2.33819522e-002
      -3.26740206e-003 -2.31079087e-002 1.24878739e-003 -2.39137001e-003
      1.67403426e-002 -1.53042804e-002 -7.89917633e-003 1.12155324e-003
      -6.41166139e-003 -1.13886669e-002 -4.64493707e-002 5.22078364e-004
      1.24939093e-002 3.14696506e-002 -1.51591254e-002 3.62581573e-003
      -2.79746763e-002 -8.62479326e-004 2.73320521e-003 -3.81658692e-003
      3.89782269e-003 -5.41050103e-004 -6.32381008e-004 9.71119478e-003
      3.32591170e-003 -2.09066570e-002 4.14157147e-003 1.17399804e-002
      1.07167372e-002 1.63592212e-002 1.16003025e-002 -7.65443838e-004
      3.62581573e-003 -2.46085469e-002 -7.02348864e-003 3.72018246e-003
      -5.81662823e-003 -2.19958238e-002 4.69041895e-003 1.66323390e-002
      2.60334890e-002 -2.50958744e-002 -2.19275337e-002 -1.80459931e-003
      1.01057775e-002 6.16661087e-003 7.75302900e-003 2.52003837e-002
      3.21112946e-002 3.38566676e-002 -1.37429442e-002 -2.41451222e-003
      -9.47817415e-003 4.09909850e-003 6.67237351e-003 9.80919413e-003
      1.14598079e-002 7.48573756e-003 -4.88872686e-003 3.48826405e-004
      -9.42151062e-004 -7.71914283e-003 1.18196094e-002 9.14251711e-003
      1.20644812e-002 6.14982098e-003 7.24752713e-003 5.62600279e-003
      3.48826405e-004 -3.30212899e-002 8.98196246e-004 5.67862438e-003
      7.48450449e-003 6.83880737e-003 1.45299779e-002 2.44810265e-002
      2.29030792e-002 -2.77277194e-002 -2.07246058e-002 8.58390238e-003
      1.29403612e-002 6.81067817e-003 1.02550210e-002 4.36461670e-003
      3.38636413e-002 2.14249007e-002 -2.13999767e-002 1.96762905e-002
      -8.99892393e-003 9.74864978e-003 4.54780739e-003 7.28587247e-003
      5.30243712e-003 -2.95828958e-003 2.98006739e-003 1.97642669e-002
      2.10211538e-002 -2.32695229e-002 -9.75990016e-003 -1.03088580e-002
      -3.27622332e-003 -5.40544465e-003 -1.36192963e-002
      -1.05494270e-002 1.97642669e-002 -2.45127194e-002 8.97633657e-003
      5.63358143e-003 5.99993533e-003 -5.14469226e-004 -8.54146492e-004
      1.69365145e-002 1.52472546e-002 -2.65768431e-002 -4.81368648e-003
      -4.68289154e-003 -1.63337216e-002 -4.31235461e-003
      -1.40349204e-002 -1.46374162e-002 -4.19812975e-003 6.73110178e-003
      5.04753320e-003 1.18855610e-002 -1.89734846e-002 -1.31460652e-002
      -7.03265518e-003 -5.49876690e-003 -6.83330186e-003
      -2.49914499e-003 6.40384015e-003 1.62845980e-002 2.21206043e-002
      -1.63844805e-002 -2.14124657e-002 -2.86053829e-002
      -3.75738814e-002 -9.01791081e-003 1.31503204e-002 1.53451040e-002
      1.47634270e-002 -2.22654338e-003 -1.24596963e-002 -1.25102829e-002
      -1.57495146e-003 -1.27195306e-002 -1.04818763e-002
      -1.66346750e-003 1.80726293e-002 8.69894400e-003 1.46596488e-002
      -2.83708191e-003 -3.47881601e-003 -1.44116320e-002
      -2.85155009e-002 -6.80004898e-003 5.18711284e-003 2.84062941e-002
      1.16026020e-002 2.55572442e-002 1.42559106e-003 2.29369150e-003
      -3.47413346e-002 -5.63386306e-002 -1.68468095e-002 2.59837843e-002
      1.64218582e-002 2.86118705e-002 8.93641915e-003 9.07168537e-003
      7.49265077e-003 -1.41081763e-002 -4.08899188e-002 -8.48255027e-003
      2.85742655e-002 2.88442634e-002 1.49150612e-002 1.69142596e-002
      1.72679685e-002 1.08974362e-002 -3.02980132e-002 -3.79998162e-002
      -1.38306674e-002 8.33791215e-003 1.97448321e-002 2.18369924e-002
      7.49620562e-003 1.01374881e-002 1.65098403e-002 -1.59155130e-002
      -4.25353609e-002 -1.16340248e-002 8.22936418e-004 1.82166696e-002
      6.46405900e-003 5.09348651e-003 5.08303638e-004 3.49978567e-003
      3.78439529e-003 -1.38759734e-002 2.32704310e-003 1.32187586e-002
      1.61370821e-002 1.12132439e-002 5.89340366e-003 4.61995183e-003
      7.11961824e-004 2.32973509e-003 -5.15344320e-003 4.06804821e-003
      4.23171138e-003 1.35914568e-004 1.02998037e-002 -1.27658211e-002
      -3.54434480e-003 1.54533787e-002 2.51459214e-003 -2.69705821e-002
      -8.93173646e-003 -2.47218995e-003 -8.27405509e-003
      -1.79839805e-002 -2.94974493e-003 -8.18927120e-003 1.18230144e-002
      1.02943415e-002 -8.11626203e-003 -1.29885236e-002 -9.09411814e-003
      -1.83363520e-002 -4.78356890e-003 9.54069477e-003 1.72240324e-002
      -7.98176974e-003 -1.08198291e-002 -4.51881206e-003 2.71567493e-003
      -3.07360385e-003 -1.04520759e-002 1.38706900e-002 9.36525408e-003
      2.55600607e-005 -1.30433664e-002 -2.89579388e-002 -2.60436982e-002
      -1.90802049e-002 -7.47212442e-003 -9.83469374e-003 1.42043335e-002
      -9.95671842e-003 -7.22110597e-003 5.88434935e-003 -8.65378417e-003
      2.51591182e-003 6.04994013e-004 -1.81734506e-002 -1.82747841e-002
      -3.80242639e-003 8.10481142e-004 -1.93794747e-003 -6.77897409e-003
      -2.60543507e-002 -1.11906091e-002 -2.94787949e-003
      -7.88106956e-003 -1.44942524e-002 9.19065904e-003 7.88753014e-003
      -2.35530883e-002 -1.15470495e-002 -9.99102741e-003
      -1.75816342e-002 -1.09041026e-002 -5.13899839e-003
      -1.07032526e-002 1.10164387e-002 1.08907176e-002 -3.98309864e-002
      -1.34519879e-002 -8.82236753e-003 -2.26634461e-002
      -6.96931453e-003 -2.31511984e-003 1.00500081e-002 1.07025877e-002
      5.71765378e-003 -1.16797108e-002 -7.72057241e-003 -1.87401380e-002
      -1.66980438e-002 -2.85626552e-003 -8.48707627e-004
      -1.70445312e-002 1.64122917e-002 3.79110780e-003 -2.30467115e-002
      -1.47248032e-002 -2.00294778e-002 -1.33663546e-002
      -5.14589250e-003 -3.41822230e-003 1.92508160e-003 1.84957944e-002
      -2.62561138e-003 -1.27462735e-002 -4.01852420e-003
      -8.81632324e-003 -2.07556263e-002 -2.51571229e-003 4.27055266e-003
      1.32333916e-002 -7.62193371e-003 -9.41140577e-003 1.05764316e-002
      3.76537163e-003 5.50294202e-003 5.63180586e-003 1.75023042e-002
      1.34418514e-002 5.78018278e-003 -7.49793835e-003 1.17546832e-002
      -1.04235820e-002 -4.88302996e-003 -1.23968711e-002
      -2.45248061e-003 -4.76151891e-003 6.54802611e-003 7.75892474e-003
      2.63405014e-002 -9.03179962e-003 -1.32873207e-002 -1.28448224e-002
      -2.11973507e-002 -2.03027800e-002 4.41332394e-003 8.36779922e-003
      2.97628040e-003 8.89660977e-003 -7.24141160e-003 9.70718917e-003
      7.41384597e-003 1.30414115e-002 1.91591159e-002 2.69687530e-002
      2.54212897e-002 2.15940233e-002 -5.20910183e-003 -8.07158183e-003
      -1.87185816e-002 -5.56844799e-003 1.52398227e-002 2.69988943e-002
      3.10726706e-002 1.65606737e-002 -2.36514513e-003 -4.13425919e-003
      -7.96347950e-003 -6.24261238e-003 1.48017344e-003 -1.64443851e-002
      -2.05053017e-002 1.30932238e-002 1.88689341e-003 4.88028908e-003
      4.46588779e-003 -2.68384889e-002 -2.04991437e-002 -2.49994569e-003
      -2.10066941e-002 -1.83711108e-003 5.70967980e-003 -1.20997364e-002
      -7.54816830e-003 -1.33857867e-002 8.59298836e-003 8.21589679e-003
      4.32415819e-003 -8.55842419e-003 -4.93289717e-003 -2.66708229e-002
      -1.19169261e-002 -1.32977869e-002 -5.85129950e-003 1.36059830e-002
      1.78046916e-002 1.01200463e-002 -1.43335229e-002 -2.26726942e-002
      -3.22187841e-002 -2.40341220e-002 -2.20440961e-002
      -5.97991562e-003 2.51034275e-002 1.80055480e-002 2.22181026e-002
      9.62184183e-003 -3.35964398e-003 1.44129887e-003 1.38726691e-002
      1.14673525e-002 1.71626061e-002 3.65837151e-003 3.80416736e-002
      2.30481066e-002 1.00660883e-002 -8.98430217e-003 -8.22554342e-003
      8.77479732e-004 -6.00921176e-003 -1.37029439e-002 -2.74996227e-003
      -4.39402694e-003 5.72738517e-003 -7.13995053e-003 -1.75566021e-002
      -5.02420496e-003 2.98826210e-003 -4.05017380e-003 -6.97070686e-003
      4.78871819e-003 -1.26502290e-002 -2.42965901e-003 3.02403956e-003
      1.97631586e-002 1.56538691e-002 1.16301514e-003 5.50222117e-004
      1.31963436e-002 -1.03547154e-002 1.76728591e-002 1.60750616e-002
      1.39726652e-002 9.07054637e-005 -2.53146049e-003 -1.89477224e-002
      -9.41992644e-003 -1.49899982e-002 -2.55404059e-002
      -1.14217978e-002 1.37923434e-002 2.94835381e-002 2.38027889e-002
      1.27981994e-002 -2.95522697e-002 -3.30398455e-002 -2.40310542e-002
      1.12989722e-002 -1.12418868e-002 -8.41759145e-003 3.71893425e-003
      4.12323289e-002 1.93306580e-002 2.13997351e-004 8.41687620e-003
      1.71979554e-002 3.09832264e-002 8.43116082e-003 -2.17297417e-003
      -3.49468109e-003 1.04425494e-002 -4.17120149e-003 -2.35653426e-002
      6.60812017e-003 1.91430934e-002 -3.36514302e-002 -3.58703025e-002
      -2.12653931e-002 9.37375333e-003 3.72585207e-002 1.84396524e-002
      -1.42302057e-002 -3.93489562e-002 -1.97887383e-002
      -2.35903412e-002 -2.11553555e-002 -1.25350999e-002
      -1.10726934e-002 2.26739477e-002 3.07292491e-002 2.91129351e-002
      2.63316813e-003 -6.76105265e-003 1.50184035e-002 1.36011988e-002
      -1.92262942e-003 -1.48446800e-003 -1.56088714e-002
      -2.10435651e-002 -2.53607072e-002 1.67841080e-003 -6.42206799e-003
      -2.46065296e-003 1.32007152e-002 1.90332979e-002 2.87970658e-002
      4.35649510e-003 1.60777364e-002 1.63648259e-002 7.49980274e-004
      -2.34954171e-002 -5.02774632e-003 -1.41288573e-002
      -1.70459170e-002 -9.51181911e-003 8.62552971e-003 1.98567249e-002
      9.36725084e-003 -1.10172639e-002 -1.88819822e-002 2.92745023e-003
      1.28419129e-002 1.63936745e-002 -4.04011953e-004 1.94560015e-003
      9.87086724e-003 7.36144558e-003 -1.30881993e-002 -6.01474894e-003
      -1.88113600e-002 -1.29559459e-002 -9.24060680e-003
      -5.51984273e-003 -2.80367490e-002 1.15281595e-002 1.95570029e-002
      1.26404874e-002 -1.90524869e-002 -1.09456507e-002 -1.88622565e-003
      -7.07248319e-003 -2.29729023e-002 -4.72925827e-002 1.65555312e-003
      1.80326756e-002 3.03784460e-002 -1.73318796e-002 2.17503607e-002
      2.19044853e-002 1.64494552e-002 -1.93017870e-002 -2.88304314e-002
      -6.49658404e-003 1.25940340e-002 -2.25942605e-003 -3.01834266e-003
      2.26062499e-002 1.89239271e-002 5.36972564e-003 -8.09839088e-003
      -2.23382153e-002 5.43541042e-003 1.50215207e-002 2.71583721e-002
      3.57097499e-002 2.62189424e-004 6.54949713e-003 -3.94027308e-003
      -9.46990307e-003 -3.05971093e-002 -4.26902343e-003 1.10746799e-002
      2.93728244e-002 1.35116873e-003 -2.91372975e-003 5.14533930e-003
      -1.37211420e-002 -5.78474021e-004 -8.78285442e-004 1.11359470e-002
      1.22013520e-002 3.04665826e-002 1.72958546e-003 1.35499518e-003
      -5.62770816e-004 -8.45151115e-003 -1.18058864e-002
      -2.48751957e-002 -8.43604375e-003 1.51313154e-003 1.43523011e-002
      1.98805816e-002 -8.76360200e-003 -1.21751623e-002 -1.16447331e-002
      -1.19835662e-004 -7.95869716e-003 -2.19208058e-002
      -7.02390773e-003 7.38696009e-003 7.06783263e-003 -4.80344798e-003
      1.99596956e-002 4.11277451e-003 1.50781274e-002 8.30331817e-003
      1.36268372e-002 7.31938612e-003 2.62301136e-002 4.78045642e-003
      -4.45148582e-003 1.57777667e-002 8.27688258e-003 6.09396072e-003
      -8.89246259e-003 7.12212734e-003 1.95471831e-002 3.01251970e-002
      -9.01379995e-003 -1.54840136e-002 -4.87383595e-003
      -3.85021442e-003 1.49631109e-002 -6.94302202e-004 -1.45073682e-002
      -7.09246425e-003 2.07304466e-003 -9.82110668e-003 -1.24346120e-002
      -1.72567796e-002 -2.27682199e-002 -2.02591671e-003
      -1.50007373e-002 2.00994103e-003 4.29635029e-003 1.84545422e-003
      -1.23161217e-002 1.60503499e-002 1.46502620e-002 5.43229375e-003
      5.14541380e-003 -4.71705850e-003 -2.67346553e-003 1.78616848e-002
      3.82588133e-002 9.40306857e-003 -2.51723872e-003 -9.74357594e-004
      -7.43975118e-003 -5.66335104e-004 -1.02919443e-002
      -9.66665987e-003 1.01105301e-002 2.82979421e-002 3.11188097e-003
      -1.85220465e-002 -2.60645319e-002 -2.97471024e-002
      -7.63490936e-003 4.71710041e-003 1.08393366e-002 1.44488001e-002
      2.55690347e-002 6.19034516e-003 2.39404174e-003 -8.97347834e-003
      -1.91774294e-002 -1.43522872e-002 4.48476663e-003 1.29049495e-002
      1.19378008e-002 2.41677947e-002 1.58815610e-003 -6.86921272e-003
      -1.44197727e-002 -2.02523405e-003 3.45186214e-003 -3.82912951e-003
      2.34833919e-003 8.31746124e-003 2.86530238e-002 1.24764377e-002
      -8.00404418e-003 -1.81040484e-002 -4.07284079e-003 2.69016926e-003
      -5.82016818e-003 8.15345347e-003 1.39191188e-002 2.48766672e-002
      -3.49975331e-003 -4.81226161e-004 -1.98494736e-002
      -3.43693444e-003 5.62785612e-003 5.17864246e-003 2.21563857e-002
      2.01030374e-002 1.73289180e-002 -3.71077913e-003 -6.90840837e-003
      -1.21656097e-002 -2.03083875e-003 1.34507474e-002 9.77415871e-003
      1.92680955e-002 3.58912013e-002 1.44662904e-002 -9.70850047e-003
      1.21506238e-002 1.33494027e-002 1.48207201e-002 -6.49506925e-003
      -3.22967730e-002 -6.11704262e-003 4.56397794e-003 1.65623799e-002
      8.65958817e-003 1.63710546e-002 1.98062956e-002 3.09566893e-002
      1.17675606e-002 -2.48533431e-002 2.09308229e-003 -9.26800445e-003
      5.85129065e-003 1.38846608e-002 6.75266283e-003 1.89954694e-003
      1.15467692e-002 4.10874886e-003 -2.14563552e-002 5.21155482e-004
      1.34697640e-002 3.43123777e-003 1.04919262e-003 9.52346995e-003
      9.21668205e-003 3.13296951e-002 5.76278940e-003 -1.72844976e-002
      2.21862458e-003 -7.67813297e-003 -9.92855802e-003 4.30295430e-003
      -4.75988537e-003 -5.86467097e-003 1.61316469e-002 1.38406120e-002
      -1.01062125e-002 2.29257927e-003 -5.98937925e-003 -1.35672232e-002
      -2.24640220e-003 -3.69541626e-003 -7.93730095e-003 3.41019622e-004
      1.16446530e-002 9.55787895e-004 -7.87266996e-003 -1.05999326e-002
      -1.55737875e-002 2.93781096e-003 -6.93923747e-003 -4.82299458e-003
      9.37755778e-003 5.56202466e-003 -8.79922125e-004 3.45082022e-003
      -1.15832547e-002 -9.32113081e-003 5.39920386e-003 1.38540575e-002
      1.74596746e-004 -2.42645363e-003 5.92360133e-003 2.44677044e-003
      -6.86950423e-003 -1.13146864e-002 -8.50701239e-003 1.98438112e-002
      1.38170142e-002 2.02960372e-002 1.75115336e-002 9.62215476e-003
      -5.66761009e-003 -1.58803612e-002 -1.72874164e-002
      -2.11674720e-002 9.98450909e-003 1.87750533e-002 2.11400855e-002
      6.29894715e-003 -7.94868357e-003 -1.35334926e-002 -1.73583962e-002
      -1.09604644e-002 -1.17812837e-002 1.04420027e-002 1.85010862e-002
      1.45118935e-002 1.03650317e-002 7.90896546e-003 -8.93135183e-003
      -2.46434323e-002 -1.82127729e-002 -1.20868813e-002 1.66917797e-002
      1.34716453e-002 1.01814829e-002 -9.62650156e-005 -7.01472629e-003
      -1.71598997e-002 -3.12285069e-002 -2.26940494e-002
      -7.65919080e-003 -7.50384061e-004 2.03941315e-002 -3.94194736e-004
      -5.79831656e-003 -1.53206261e-002 -2.39409953e-002
      -2.03699097e-002 -9.96934343e-003 -7.69577269e-003 4.81864251e-003
      2.30796486e-002 -5.17850928e-003 -1.35937827e-002 -1.04809900e-004
      -6.22407207e-003 -4.78142174e-003 4.74681240e-003 1.00902459e-002
      1.19959842e-002 1.91685446e-002 -7.59041728e-003 -1.55908922e-002
      -2.00048387e-002 -2.39942800e-002 -2.19187140e-002
      -2.13239640e-002 6.29344210e-003 4.79052123e-003 3.49357314e-002
      7.67445425e-004 -1.26756700e-002 -2.13325303e-002 -1.75156519e-002
      -1.18429796e-003 1.99867040e-002 2.18441561e-002 3.00028659e-002
      8.66169762e-003 -4.97201551e-003 -1.62610319e-002 -6.50398480e-003
      2.01872853e-003 -1.15751950e-002 -9.08685033e-004 -2.41555157e-003
      1.90010555e-002 -7.59467250e-003 -8.83113034e-003 -7.59141427e-003
      -2.49362774e-002 -1.84086543e-002 -5.70673961e-003 6.45658234e-003
      1.48975430e-003 9.01926029e-003 2.82239560e-002 -4.73648310e-003
      -9.30832792e-003 -1.59856286e-002 -4.78534400e-003
      -4.03851131e-003 1.60666816e-002 1.73022393e-002 2.79375333e-002
      1.19427294e-002 4.88396327e-004 2.35914532e-003 -1.10228863e-002
      -6.60486752e-003 -5.99542633e-003 8.08524317e-004 1.10900467e-002
      1.49925537e-002 -1.75934490e-002 -5.79300942e-003 1.21026319e-002
      -2.13060956e-002 -1.30188381e-002 1.35775907e-002 1.04601216e-002
      9.05186497e-003 -1.44508493e-003 -2.56315097e-002 -2.07440741e-002
      -8.74137133e-003 -2.84208991e-002 8.33841600e-003 9.31790005e-003
      -7.03720096e-003 -1.42157683e-003 -1.85717549e-002 4.61670710e-003
      1.20980246e-002 1.84219219e-002 -4.09894763e-003 5.82785765e-003
      1.23713501e-002 5.41177252e-003 1.85216982e-002 2.03848798e-002
      -2.84469849e-003 -1.57446936e-002 -4.25156206e-003
      -2.38481276e-002 9.74326767e-003 1.61524732e-002 5.55550272e-004
      8.75075720e-003 6.00629428e-004 9.43984091e-003 1.43841747e-002
      3.66028138e-002 2.21358929e-002 -3.68686020e-003 -1.40428338e-002
      2.19540531e-003 1.30709745e-002 1.57415103e-002 -1.96297131e-002
      3.93702425e-002 4.28010300e-002 2.18692869e-002 -1.87471118e-002
      -1.52560035e-002 -1.55734019e-002 -6.29008934e-003
      -2.58695390e-002 -1.80673890e-003 1.70129742e-002 4.75874692e-002
      1.83967389e-002 -3.68686020e-003 -3.75873186e-002 -2.63711996e-002
      -1.43337389e-002 -7.84997549e-003 -1.31722437e-002 2.91443914e-002
      3.50976177e-002 2.15486139e-002 -2.32933983e-002 -4.11928818e-002
      -5.30909002e-002 -3.36974226e-002 -2.21839752e-002
      -1.06643727e-002 3.42868604e-002 3.31022367e-002 2.76817363e-002
      -1.63872424e-003 -1.83559489e-002 -2.48052590e-002
      -1.88591727e-003 -1.09137716e-002 -1.59250349e-002 5.49635664e-003
      1.14628226e-002 2.08501667e-002 1.06654288e-002 5.54591231e-003
      -2.43663862e-002 -2.51199342e-002 -1.01947375e-002 6.51154621e-003
      2.47730315e-002 2.26104856e-002 1.58763025e-002 -1.76935922e-002
      -2.77444720e-002 -3.61265764e-002 -1.84336677e-002
      -3.78810498e-003 3.34784831e-003 8.38824734e-003 4.02645266e-004
      -9.08237044e-003 -1.36842579e-002 -7.42093986e-003
      -2.37306207e-003 -1.26773969e-003 -1.29320679e-005
      -3.03302240e-002 -1.99752711e-002 -5.49630122e-003 6.03305828e-003
      2.45930981e-002 1.93240736e-002 4.94416011e-003 -3.32707241e-002
      -1.74886845e-002 -2.91081090e-002 -2.23278925e-002 1.85872341e-004
      4.63153189e-003 3.55316363e-002 3.90069522e-002 3.66802625e-002
      -3.76770576e-003 -1.34603707e-002 -4.53997077e-003
      -2.48043402e-003 3.38487560e-003 -1.65337306e-002 -1.12070926e-002
      -5.94211090e-003 8.10291898e-003 -4.88891499e-003 -1.03514409e-002
      -1.91801116e-002 -1.03376657e-002 2.73226090e-002 6.00570068e-003
      6.07969007e-003 5.38573787e-003 2.33391728e-002 -7.97350483e-004
      -2.36295983e-002 -2.98508126e-002 -3.40762921e-002
      -1.06296781e-002 7.14490376e-003 2.11302768e-002 1.42690130e-002
      2.54753456e-002 -3.97199206e-003 -1.72901768e-002 -7.08137453e-003
      3.04878084e-003 2.31363298e-003 -9.98914149e-003 -1.67735443e-002
      -1.97639056e-002 -5.50916791e-003 -1.33538414e-002
      -5.23090083e-003 -3.27141248e-002 -2.33051293e-002 7.75704347e-003
      1.04791718e-002 1.09912893e-002 1.27998199e-002 2.48925481e-002
      4.50910768e-003 -1.99691001e-002 -1.09091084e-002 -3.01540270e-003
      7.66857015e-003 1.00264745e-002 5.52250119e-003 -5.96386427e-003
      8.56951438e-003 1.76052316e-004 -9.02857073e-003 3.51284109e-002
      3.71920504e-002 2.58119833e-002 -8.58924445e-003 -3.07919644e-002
      -2.35641208e-002 -1.11936918e-002 -1.40678175e-002 1.55834490e-002
      4.17312756e-002 2.92465072e-002 1.52696725e-002 -2.85232393e-003
      -1.00818044e-002 -6.11245027e-003 -6.49579708e-003 2.76503270e-004
      3.92558463e-002 1.23127550e-002 1.50671871e-002 1.44353826e-002
      5.14869951e-003 -9.27660987e-003 -1.60866734e-002 -1.61929876e-002
      -6.70538051e-003 7.09049497e-003 2.03666780e-002 2.26958338e-002
      8.15992616e-003 -2.62203515e-002 -2.74302475e-002 -4.35578935e-002
      -3.82569395e-002 -1.46178994e-002 1.49603877e-002 2.93790419e-002
      1.46236140e-002 1.81514339e-003 -1.75474752e-002 -1.05188340e-002
      -7.78081245e-004 1.37043335e-002 1.89183801e-002 3.88092734e-002
      -5.21816174e-003 -5.08396514e-003 2.50874856e-003 5.16086258e-003
      3.15061514e-003 1.99463720e-005 1.82297379e-002 1.11317737e-002
      6.37558755e-003 2.32128985e-002 2.04935074e-002 -6.53412798e-003
      -3.91249135e-002 -4.50326838e-002 -4.18244228e-002
      -3.15494053e-002 1.43204778e-002 3.35851088e-002 -6.33708015e-003
      -8.07052851e-003 -1.61990765e-002 -1.88500900e-002
      -1.76762976e-002 2.19013146e-003 -1.14386471e-003 1.41887728e-003
      -3.82268778e-003 -1.50060588e-002 -1.45826489e-002
      -9.69495159e-003 8.80313385e-003 7.03605916e-003 5.98858809e-003
      1.55053241e-002 1.60302557e-002 -4.51198872e-003 -6.89328089e-003
      -2.58244220e-002 -2.37459317e-002 -3.10525554e-003 4.36565187e-003
      1.49113685e-002 1.41967209e-002 1.73800457e-002 1.20651850e-004
      -1.29215838e-002 -2.36830264e-002 -2.52800006e-002 1.54443653e-004
      1.80782117e-002 1.55971479e-002 2.17893440e-002 1.77434329e-002
      -2.65711034e-003 -4.18773154e-003 -1.71856135e-002
      -2.09826715e-002 -9.51786619e-003 7.44590024e-003 5.05800080e-003
      1.90790463e-002 3.00518963e-002 6.13804848e-004 -2.42817663e-002
      -3.30764540e-002 -3.26481052e-002 -1.28915366e-002 8.55345279e-003
      1.28689259e-002 1.30658094e-002 1.02242110e-002 -5.26787061e-003
      -1.04571115e-002 -1.29290326e-002 -2.44256109e-002
      -8.81051645e-003 4.56512254e-003 8.81474372e-003 1.04032606e-002
      1.37122599e-002 3.43886553e-003 -7.46973185e-003 -9.03825369e-003
      -1.33145163e-002 -9.00015235e-004 4.08896804e-003 1.17595363e-002
      1.22780595e-002 1.21298041e-002 9.28784162e-003 6.70490181e-003
      3.92504083e-003 -2.21975916e-003 1.64491255e-002 1.61893275e-002
      7.40760658e-003 1.74157489e-002 1.35413036e-002 1.39944330e-002
      -1.05463760e-003 -2.06775013e-002 -1.96481422e-002
      -1.06686167e-002 -7.12772971e-003 8.74637999e-003 1.11054657e-002
      2.00361013e-002 7.10674049e-003 -8.64894304e-004 -5.15752705e-003
      -6.60214294e-003 -1.00237764e-002 -1.42529327e-002
      -7.61062140e-004 2.63379496e-002 1.95190217e-002 -9.08556674e-003
      7.34098954e-003 1.49835087e-003 -1.11222302e-003 1.09926695e-002
      7.96286762e-003 -1.47830090e-002 1.97131326e-003 8.69157165e-003
      1.18535422e-002 -3.15095298e-003 2.11424869e-003 3.99338733e-003
      1.47681590e-003 -3.98349203e-003 -1.25707332e-002 1.77088995e-002
      1.40732462e-002 4.48417943e-003 6.69843343e-004 7.01712072e-003
      1.18156243e-002 5.09973895e-003 -1.96110718e-002 -3.65639362e-003
      3.22623737e-002 1.42347598e-002 2.52790330e-003 7.09482143e-003
      6.72853552e-003 2.04992443e-002 -5.03697572e-003 -1.44866584e-002
      -7.80711509e-003 1.52816263e-003 -6.41992642e-003 -2.66207685e-003
      -7.64608476e-003 1.45280622e-002 2.42926069e-002 7.57262856e-003
      -1.55942542e-002 -1.13006262e-002 2.76030526e-002 1.78035013e-002
      2.55148765e-003 4.22725035e-003 4.87740338e-003 -1.45048066e-003
      -2.26141587e-002 -2.60456018e-002 -1.75595116e-002 1.73256397e-002
      1.63381174e-002 1.66413337e-002 4.39147698e-003 -9.57539678e-003
      9.18341568e-004 -2.05664197e-003 3.64632439e-003 4.01249574e-003
      5.17002633e-003 3.02617159e-003 2.11375603e-003 1.10988431e-002
      3.53929034e-004 2.20450037e-003 7.92422239e-003 6.36916608e-003
      8.57342966e-003 6.87322021e-003 3.84902558e-003 8.45594890e-003
      -9.77205951e-003 -3.09271067e-002 -2.54593343e-002
      -3.43800299e-002 -6.91956794e-003 7.52317859e-003 1.63600128e-002
      1.54925173e-003 7.51876505e-003 -1.53565286e-002 -1.82427689e-002
      -9.16284882e-003 4.08031465e-003 1.20594427e-002 2.42118239e-002
      1.28404619e-002 1.56042422e-003 -7.63865653e-003 1.31111601e-002
      8.70507956e-003 -4.59208339e-003 6.66663703e-003 -2.33191924e-004
      -3.46546131e-003 7.35267531e-003 7.28207547e-003 1.08506670e-002
      1.04169929e-002 2.93722260e-003 -1.19220316e-002 -8.35653767e-003
      -1.90678798e-002 -1.93510149e-002 -1.79382097e-002
      -1.89950340e-003 -3.05932737e-003 9.98754986e-003 1.09680798e-002
      -3.40471067e-003 4.42981487e-003 -4.13046731e-003 7.46207824e-003
      6.75933855e-003 9.40046553e-003 -3.46333603e-004 1.19999619e-002
      5.74659603e-003 9.75155737e-003 3.79074458e-003 -1.33489277e-002
      -2.26325504e-002 -2.36783531e-002 -9.22459550e-003
      -8.38026777e-003 5.90544613e-003 -8.07674509e-003 -1.10187260e-002
      -2.02651024e-002 -2.40858216e-002 -1.42506380e-002
      -1.89587567e-002 -7.44306541e-004 6.08100183e-003 2.57916953e-002
      1.35763334e-002 -7.00357254e-004 -3.07205264e-002 -2.06503998e-002
      7.02398736e-003 2.31157616e-002 2.69873608e-002 3.94044667e-002
      -2.39019981e-003 -6.92951167e-003 1.77865345e-002 8.00568890e-003
      -1.24826124e-002 -2.13169754e-002 -2.68614627e-002
      -2.75373198e-002 -2.32919529e-002 2.08379943e-002 1.71275362e-002
      1.66014172e-002 -8.02290905e-003 -5.87668829e-003 -5.99673437e-003
      5.58033353e-004 -1.80323108e-003 4.16305568e-003 2.53472514e-002
      1.36352405e-002 7.76827149e-003 -3.38915810e-002 -2.37566475e-002
      -3.52218584e-003 1.68908294e-002 2.05690321e-002 2.32504252e-002
      1.40180057e-002 5.19639952e-003 7.30764074e-003 -6.54198136e-003
      2.32252828e-003 -1.37496758e-002 -7.72944419e-003 -1.14911554e-005
      5.34472195e-003 1.36241503e-002 3.09484676e-002 6.90890197e-003
      -3.21717039e-002 -1.64091382e-002 -5.70211979e-003
      -1.16853565e-002 6.83349697e-003 4.05839738e-003 -4.39414056e-003
      -7.58897187e-003 -5.20469481e-003 4.00663819e-003 -1.01955477e-002
      -2.11370224e-003 -2.15041656e-002 -1.01814428e-002
      -1.62255466e-002 -6.28594402e-003 2.18717195e-003 1.16276359e-002
      -2.64541642e-003 2.69723451e-003 -4.80532675e-004 -1.40335392e-002
      8.70211443e-005 -1.39805919e-003 -1.19803036e-002 -1.44920750e-002
      -8.91491771e-003 -2.43858770e-002 1.47213284e-002 5.45249972e-003
      -7.81925861e-003 4.29747021e-003 -8.57422501e-003 -6.03687251e-003
      -7.67263956e-003 -7.87388562e-005 1.03344209e-002 -8.13579559e-003
      8.72601941e-003 -8.42922088e-003 -7.49327382e-003 -9.90076922e-003
      -1.56307630e-002 -2.54458457e-004 -8.78880091e-004
      -2.16723862e-003 1.45951463e-002 1.66257210e-002 1.06304148e-002
      6.33404078e-003 -1.05851609e-002 8.23125802e-003 2.14826521e-002
      3.74912582e-002 1.98886730e-002 -1.86143210e-003 -8.18442088e-003
      -4.30243928e-003 -8.74615647e-003 3.93419323e-004 1.38302390e-002
      2.16588248e-002 2.76051965e-002 1.68821029e-002 -2.67161080e-003
      -1.60511862e-002 -2.29657106e-002 -2.88923532e-002 2.77848006e-003
      -1.36409397e-003 -2.09149858e-003 8.16832297e-003 -8.70325416e-003
      -1.86143210e-003 -2.84836977e-003 1.32870600e-002 -6.58155279e-003
      -9.96484887e-003 1.40514676e-004 -1.02955503e-002 -8.73979460e-003
      -1.35171534e-002 3.05515411e-003 8.48441292e-003 -7.90991820e-003
      -2.53186692e-002 -1.90906394e-002 2.40754206e-002 1.79394353e-002
      1.86078325e-002 6.76506525e-003 -4.50161053e-003 -1.55116059e-002
      -1.69698764e-002 -2.33643432e-003 1.32904453e-002 -2.29074783e-003
      9.42873303e-003 5.17289713e-003 -1.86137110e-002 -1.67655852e-002
      3.07367695e-003 1.25835203e-002 1.56279765e-002 -6.72845263e-003
      1.22683486e-002 1.20953349e-002 3.93829681e-003 -2.01202948e-002
      -4.81481897e-003 -1.53628243e-002 -1.66394431e-002
      -1.08184963e-002 -3.42820794e-003 -8.61919392e-003 1.12218177e-002
      1.12958569e-002 -7.69385695e-003 1.46686297e-003 -1.01658888e-002
      -1.44383051e-002 -6.89894753e-003 -2.53598839e-002
      -4.23220126e-003 -4.06248122e-003 -2.87938653e-003
      -2.68165339e-002 -2.35951040e-002 -1.74235797e-003 5.82840899e-003
      -1.40039297e-003 -1.28292488e-002 3.67713231e-003 -2.38017645e-003
      1.67602506e-002 1.24859894e-002 1.34662269e-002 1.67149007e-002
      1.92448478e-002 3.00940103e-003 -9.75694880e-003 -2.16417219e-002
      -6.89000590e-003 -3.22786835e-003 -2.18259227e-002
      -3.72115220e-003 1.30144553e-002 1.84755633e-003 -9.52426251e-003
      -3.73774171e-002 -2.05997340e-002 -1.11195240e-002
      -1.79181546e-002 -2.27538781e-004 3.22779007e-002 3.46989147e-002
      2.25321613e-002 3.42256646e-003 -1.97273865e-002 -1.81380715e-002
      -3.54740620e-002 -1.49421589e-002 1.46105643e-002 2.85389852e-002
      1.41656585e-002 8.78316909e-003 -1.01972278e-002 -1.25798322e-002
      -1.28635252e-003 -1.62685718e-002 8.09268933e-003 1.12504400e-002
      9.74593125e-003 -3.45524820e-003 8.85834545e-003 3.05508706e-006
      3.34505760e-003 -3.63757052e-002 -4.56206873e-002 -3.90204974e-002
      7.72070466e-003 4.56118137e-002 2.10348368e-002 1.00032091e-002
      -1.33303581e-002 -1.59710180e-002 -1.71683077e-002
      -2.42397450e-002 -1.15336189e-002 1.12163695e-002 1.97791103e-002
      1.33268218e-002 1.31404921e-002 -9.02250409e-003 -8.15041177e-003
      2.63713170e-002 1.06488746e-002 7.72313308e-003 8.40689614e-003
      6.36935793e-003 -2.89778737e-003 5.83168305e-003 1.81485321e-002
      2.75910068e-002 3.08451839e-002 1.89816803e-002 -7.11317919e-003
      -2.14273743e-002 -2.89325323e-002 -4.00876068e-002
      -3.82637382e-002 -3.00028361e-003 1.92086380e-002 1.28664337e-002
      -8.47862661e-003 -1.45275798e-002 -4.37543355e-003
      -3.33988830e-003 -1.59913558e-003 1.43155791e-002 1.89575311e-002
      1.61740761e-002 9.83756594e-003 1.49275118e-003 -1.59463920e-002
      -4.09051813e-002 -2.92587373e-002 -3.84622812e-002
      -2.21976154e-002 5.48642315e-003 9.94325336e-003 4.16136459e-002
      1.95341110e-002 -1.57164205e-002 -4.72987406e-002 -4.75456677e-002
      -4.01779562e-002 -4.47465293e-002 1.21954205e-002 4.36929502e-002
      2.40693986e-002 1.13544837e-002 -1.27449334e-002 -2.11219825e-002
      -2.30133701e-002 -1.20927102e-003 -4.35870932e-003 2.03348063e-002
      2.53035426e-002 2.83658709e-002 7.70143885e-003 -2.19212770e-002
      -4.47090343e-002 -4.09133658e-002 -3.78312506e-002
      -3.45262364e-002 -2.14402471e-003 2.00720765e-002 9.30948276e-003
      2.36399635e-003 -4.13811393e-003 -1.59265418e-002 -1.39068775e-002
      3.64493323e-003 -4.17171651e-003 8.53046775e-003 4.93384525e-003
      1.01671042e-002 1.44797668e-004 -1.34652178e-003 5.17527200e-003
      1.43258926e-002 6.06243778e-003 1.91771574e-002 1.51247820e-002
      9.85782687e-003 1.08562270e-002 -1.78485848e-002 -2.26695295e-002
      -5.45861805e-003 2.88857939e-003 -8.42458662e-003 8.13884009e-003
      1.59639139e-002 1.70453284e-002 -1.81144159e-002 -1.27634108e-002
      -1.87725713e-003 1.27126072e-002 1.60132945e-002 1.92065891e-002
      1.08482726e-002 -8.65343586e-003 -1.62128210e-002 -1.06890406e-002
      -1.75804161e-002 -1.56251378e-002 -9.97917261e-003
      -1.16430037e-002 -1.03101265e-002 -8.30396451e-003
      -2.21052468e-002 -1.70320440e-002 1.62593238e-002 -1.16959540e-002
      -1.15108564e-002 -6.87390275e-004 -1.13821533e-002
      -8.74639396e-003 -6.16078405e-003 1.02540641e-003 1.76693853e-002
      1.75262056e-002 6.05914509e-003 1.63384173e-002 2.09100302e-002
      2.15740707e-002 1.28948521e-002 2.12628227e-002 5.59775298e-003
      1.49640422e-002 -1.37408101e-003 -1.36671690e-002 -1.31104887e-002
      -5.21558244e-003 -1.27139743e-002 -2.01924480e-002
      -2.97038537e-002 -3.07434276e-002 -7.16176070e-003
      -1.21957278e-002 -1.34632764e-002 1.61732417e-002 2.32261531e-002
      1.27306711e-002 -6.06174394e-003 -1.27988625e-002 -1.52749531e-002
      -7.84916990e-003 1.05876802e-002 8.42723530e-003 1.35111837e-002
      2.43970789e-002 2.47579888e-002 -2.30124546e-003 9.04488005e-003
      3.41481925e-003 -4.47713584e-003 1.46797567e-003 3.37646389e-003
      2.25107279e-002 1.17501784e-002 -1.10224774e-002 -1.61107313e-002
      4.78869909e-003 6.47871784e-005 -1.90308469e-003 -1.55546945e-002
      -1.21405786e-002 6.81150239e-003 1.49183050e-002 9.45894793e-003
      -6.84150308e-003 -3.56638664e-003 -1.27833011e-002
      -2.63221972e-002 9.48726479e-003 1.63810141e-002 4.72072186e-003
      -1.34644229e-002 -2.03041751e-002 -6.47731312e-003 2.80680321e-003
      6.46645110e-003 -3.08875553e-003 -9.56616923e-003 9.19964258e-003
      3.29258628e-002 2.75020930e-003 -2.49460973e-002 -5.86927775e-003
      1.39866667e-002 1.17287673e-002 9.33320168e-003 1.68192945e-002
      1.52203329e-002 1.14781233e-002 -2.63568703e-002 -3.39254402e-002
      -1.76301617e-002 -8.82353727e-003 1.36906086e-002 1.91452969e-002
      6.26595179e-003 1.60466488e-002 1.22721568e-002 -7.46686338e-003
      -1.68552063e-002 1.57880001e-002 1.48432069e-002 1.38309719e-002
      9.22077056e-003 2.39481181e-002 1.49143431e-002 6.58692734e-004
      -1.61046647e-002 -3.07529029e-002 -4.64512641e-003
      -6.92273537e-003 1.54211456e-002 1.49517749e-002 8.14746413e-003
      -7.98408128e-003 -8.02743901e-003 -2.77233217e-002
      -1.58128943e-002 -1.11963125e-002 -1.19490251e-002
      -8.87709577e-003 8.19585100e-003 -1.00965835e-002 -1.52925318e-002
      2.64556566e-003 2.17388738e-002 1.81744676e-002 2.02387646e-002
      1.35423224e-002 -1.35449516e-002 -1.18459687e-002 -3.38364101e-004
      8.06818251e-004 3.71302478e-003 -1.92000717e-003 -6.83725299e-003
      -6.32201321e-003 -1.37125896e-002 -2.11782032e-003 1.00407877e-003
      -1.77920982e-002 -1.78536326e-002 6.35397248e-003 2.69683804e-002
      2.82022543e-002 2.40395740e-002 1.42881842e-002 -6.52607996e-003
      -1.14834653e-002 3.78564629e-003 7.01942155e-003 -4.00548847e-003
      1.49244238e-002 9.85637656e-004 -8.68682517e-004 4.00916254e-003
      2.75918446e-003 2.39619915e-003 4.45121294e-003 7.86685385e-003
      1.37539990e-002 1.15149403e-002 -1.41378297e-002 -2.31936146e-002
      -2.98216213e-002 -9.79657657e-003 -5.84260654e-003
      -1.54941721e-004 -9.75966733e-003 -3.32349981e-003 2.38392912e-002
      6.18008943e-003 5.27486787e-004 2.17695115e-003 5.69806853e-003
      5.21369884e-003 2.73880200e-003 -1.05010613e-003 3.82336532e-003
      9.93933156e-003 -9.33771953e-003 -1.05381003e-002 -1.69200152e-002
      1.03798267e-002 9.01185535e-003 -2.48341844e-003 -7.59852445e-003
      2.00613961e-002 1.34863174e-002 -6.59635616e-003 -9.35906544e-003
      -1.28423590e-002 -2.39380933e-002 -1.82127990e-002 1.12330243e-002
      4.89664776e-003 2.22841613e-002 4.21786401e-003 1.14894295e-002
      1.65451951e-002 1.54390531e-002 2.46388721e-003 3.76038672e-003
      -1.79281607e-002 -2.31320560e-002 -1.03096524e-002
      -3.49050830e-003 -4.29584039e-003 -9.73767787e-003 7.92768900e-004
      -3.39823216e-003 -9.63520259e-003 -1.02561954e-002
      -1.59589685e-002 8.15251668e-004 -2.97023822e-003 7.16854911e-003
      2.22643074e-002 2.29904857e-002 4.69978619e-003 -1.43600709e-003
      5.04017901e-003 -1.30123366e-003 -1.22767081e-003 -1.14422664e-002
      -6.94486452e-003 1.49756353e-002 2.98388256e-003 7.53466925e-003
      5.14278794e-003 -8.46538879e-003 -8.30954127e-003 -4.33468539e-003
      9.79756657e-003 -2.99741118e-003 2.16117445e-002 -7.01841153e-003
      -8.12176988e-003 -9.71441716e-003 -5.62432595e-003
      -1.53589323e-002 -3.07113794e-003 1.10896053e-002 7.91887101e-003
      3.05257104e-002 2.32852027e-002 1.25066770e-004 6.39631785e-003
      -1.53475711e-002 -1.96145847e-002 -6.72646658e-003
      -4.29282943e-003 -8.87870975e-003 1.61491632e-002 1.74067896e-002
      -1.15109840e-002 -1.61986556e-002 -1.31343771e-002
      -6.33863220e-003 3.93774547e-003 1.20200329e-002 -7.85768870e-003
      9.43247229e-003 -5.31627424e-003 -1.30553888e-002 -2.54839547e-002
      -1.10951681e-002 -1.25152338e-002 3.78252094e-004 7.33929221e-004
      1.01351393e-002 1.49305286e-002 5.39974030e-003 4.85368725e-003
      -2.23491173e-002 -2.92086974e-002 -2.24457718e-002 2.04350078e-003
      -3.92099982e-003 -2.94421334e-004 1.29024638e-002 9.43548512e-003
      -2.64583621e-003 -3.27661596e-002 -5.64072328e-003
      -2.34404188e-002 6.65271142e-003 -3.51709686e-003 1.01351393e-002
      2.93075107e-002 8.17629509e-003 1.16812261e-002 -1.58012751e-002
      -5.94963692e-003 -4.52576159e-003 1.32367630e-002 8.15659936e-004
      -1.47412997e-002 -2.46409364e-002 -2.05657096e-003
      -1.65201649e-002 -1.48822153e-002 -1.50963273e-002
      -2.17167325e-002 -2.63316301e-003 -1.08990846e-002
      -1.14829103e-002 -3.96006089e-003 -2.14804281e-002
      -2.92779263e-002 -3.32323313e-002 -2.55431188e-003 6.63103396e-003
      2.86033396e-002 2.73122955e-002 -1.45585742e-002 -2.07630787e-002
      1.21247061e-002 -7.65594793e-003 -6.81774924e-003 2.36330349e-002
      2.12328918e-002 4.91363071e-002 3.67505588e-002 1.85486078e-002
      2.26328993e-004 1.72301440e-003 -9.38753504e-003 1.51335048e-002
      3.33647331e-004 -8.65536463e-003 -1.31222969e-002 -2.01588906e-002
      -2.45642960e-002 -2.55678166e-002 -1.82184055e-002
      -7.12589733e-003 -5.17198257e-003 -5.95124252e-003
      -5.94638707e-003 -1.36446049e-002 -7.27621326e-003
      -1.48713486e-002 -3.56760174e-002 -2.71545351e-002
      -8.78433231e-003 -6.72568334e-003 1.95551496e-002 1.67490970e-002
      2.41409848e-003 -7.26316503e-005 -1.41801573e-002 -2.28988826e-002
      8.36578431e-004 1.50256008e-002 1.88576579e-002 2.56187655e-002
      1.04231806e-002 -2.51781009e-002 -7.72192795e-003 -1.13183036e-002
      -2.74272580e-002 1.01490412e-002 1.66629739e-002 2.11213585e-002
      -2.43770704e-002 -8.14186689e-003 -5.08515909e-003 2.40768728e-004
      -6.48133282e-004 -3.35181993e-003 3.03924578e-004 1.85936328e-003
      -2.00993847e-002 -2.49159094e-002 -2.49139518e-002
      -2.55690273e-002 -7.55448779e-003 6.37203548e-003 1.57202594e-002
      1.84042174e-002 1.08373985e-002 -1.81975421e-002 1.75423436e-002
      -7.95221713e-004 -9.42017604e-003 4.33450891e-003 7.92723428e-003
      -6.39947271e-003 3.19662504e-002 3.22094187e-002 1.84317809e-002
      7.80652044e-003 -3.69902067e-002 -2.69738659e-002 -1.28541812e-002
      1.18542241e-003 -1.70003679e-002 1.08477566e-002 1.86735904e-003
      8.25191196e-003 -2.24573109e-002 -3.79442982e-002 -2.68910136e-002
      2.63580144e-003 3.97466607e-002 1.47638880e-002 1.21084889e-002
      1.42406253e-003 -1.01408362e-002 -4.27316828e-003 -1.21378964e-002
      -7.35420501e-004 1.98852438e-002 4.17087823e-002 2.12379824e-002
      1.00883534e-002 -1.05655864e-002 1.38222903e-003 -4.31198813e-003
      -3.49901579e-002 -1.67475734e-002 -9.84053034e-003 1.96785387e-002
      -1.37226786e-002 -4.57860343e-003 -7.11551774e-003
      -1.06894132e-002 3.17805680e-003 -1.28424875e-002 -5.83480159e-003
      9.75908805e-003 1.58943422e-002 -7.39306584e-003 -1.35183111e-002
      -2.83617470e-002 -4.58498299e-003 -2.78857769e-003
      -7.07074581e-003 -4.80845431e-003 4.10658587e-003 5.92857949e-004
      3.47405614e-004 2.33636866e-003 5.46180224e-003 9.68819391e-003
      2.50041019e-002 6.31755218e-003 -5.36054373e-003 -3.62213776e-002
      -2.06112769e-002 -2.40066350e-002 -5.37790684e-003 1.56758130e-002
      1.34645738e-002 1.50623182e-002 1.62338410e-002 1.50616309e-002
      8.96344334e-003 -2.36147986e-004 -1.22006992e-002 -1.55183934e-002
      -1.04176509e-003 1.55255655e-002 2.21185945e-002 1.93197392e-002
      4.63699643e-003 -2.51572486e-002 -1.13508739e-002 -1.25302197e-002
      -7.08135450e-003 -5.13635809e-003 3.84106115e-003 2.57048924e-002
      1.90829765e-003 -2.05477532e-002 -3.06839813e-002 -1.30854966e-002
      -1.15074618e-002 -2.52163410e-002 -1.85699351e-002 5.53622749e-003
      2.60172109e-003 -1.37159573e-002 -2.41193082e-002 3.81489191e-003
      1.46805812e-002 2.04148740e-002 -2.66328715e-002 -2.80638188e-002
      -4.31281747e-003 2.21597422e-002 1.64196678e-002 -2.94832373e-003
      -2.15191245e-002 -6.08225120e-003 2.99631880e-004 -1.85670666e-002
      -1.33845136e-002 1.45275509e-002 8.76262784e-003 1.43286791e-002
      1.19799692e-002 1.45567721e-002 1.92532297e-002 1.25335008e-002
      -3.64044420e-002 -3.01024076e-002 -1.37236377e-003
      -1.31119564e-002 -1.88851748e-002 -1.63361765e-002 1.16805984e-002
      2.15678923e-002 2.96522826e-002 -1.09828555e-003 -2.12936103e-002
      -1.31825022e-002 -4.68554068e-003 -5.11668809e-003
      -1.47012081e-002 -1.69284604e-002 -1.09346071e-002
      -6.04054052e-003 -7.37720449e-003 -1.27612129e-002
      -7.87925441e-003 -1.75826484e-003 -5.10717556e-003
      -9.80784744e-003 1.65909082e-002 2.54340079e-002 1.98952816e-002
      -1.53591540e-002 -1.79982278e-002 -7.14271516e-003 7.73799280e-003
      -5.40610170e-004 -1.50458829e-003 -1.80744752e-002 6.09261543e-003
      8.16221535e-003 1.29030291e-002 9.10951383e-003 6.76430482e-003
      1.34724993e-004 8.02118704e-003 -1.12629617e-002 -7.49056460e-003
      -1.85331202e-003 -1.52493445e-002 -2.82684397e-002
      -1.81518905e-002 -1.30428029e-002 3.28133116e-003 2.33579613e-002
      2.28995010e-002 1.90487206e-002 1.16541553e-002 -1.74904317e-002
      -2.07149703e-002 -2.03263946e-002 -9.29528289e-003 1.83875877e-002
      1.61951203e-002 1.56866834e-002 -1.16805891e-002 -6.09835843e-004
      -1.81317539e-003 -4.39466210e-003 -3.62833380e-003
      -1.06375143e-002 2.07598787e-002 3.38600427e-002 4.02299203e-002
      -8.18606932e-003 -6.61773700e-003 -1.41281290e-002
      -1.92571282e-002 -1.61912106e-002 -6.96729822e-003
      -5.76831680e-003 5.36622619e-003 1.36769917e-002 1.28558232e-002
      9.37445834e-003 -1.66565031e-002 -1.89299136e-002 -2.24018041e-002
      -1.47595685e-002 3.44041921e-003 9.28436872e-003 2.52421200e-003
      2.92108324e-003 -8.68689269e-003 7.71311810e-003 4.08579130e-003
      4.46300674e-003 -5.11380564e-003 1.28275296e-002 1.50248762e-002
      1.19423615e-002 -4.03342582e-003 3.68067459e-003 -1.45887677e-002
      -1.12905065e-002 -5.82114328e-003 -2.49634450e-003 5.54225314e-003
      -6.69108646e-004 2.26351917e-002 -3.08936316e-004 -1.32950544e-002
      -3.48926662e-003 2.25959290e-002 1.01202847e-002 1.65230036e-003
      -3.78733734e-003 -2.74933572e-003 -6.66353060e-003
      -1.24865640e-002 -2.60247961e-002 1.79314669e-002 2.91912947e-002
      2.11643092e-002 5.44456812e-003 -5.71639626e-004 -4.29177569e-004
      -5.01984591e-003 -1.69453956e-002 -3.32110003e-002 8.99979286e-003
      2.17121057e-002 1.22068264e-002 4.67265118e-003 7.24992156e-003
      -6.51409756e-003 9.19305719e-003 -1.48925930e-002 -1.94512047e-002
      1.36057725e-002 3.73182036e-002 1.94616746e-002 6.70671044e-003
      2.24820692e-002 9.42321029e-003 1.26898997e-002 -1.97831206e-002
      -1.56416241e-002 1.62671134e-002 2.92349011e-002 1.37431296e-002
      1.03950491e-002 2.21405015e-003 8.74868967e-003 -2.11689668e-003
      -7.26259733e-003 -1.36371469e-002 -3.59330955e-003 1.27417198e-003
      -3.75721650e-003 1.91086123e-003 -5.83354058e-003 -8.76101572e-003
      -1.52181238e-002 -1.30931619e-006 4.20726556e-003 1.28954481e-002
      2.27378821e-003 -7.01564888e-004 -3.70432925e-003 3.35833505e-002
      2.09289268e-002 -2.76908814e-003 -1.16778687e-002 -2.64924951e-003
      3.70739703e-003 1.42384935e-002 -2.17924314e-003 6.52938848e-003
      -5.70922066e-003 3.27615300e-003 -7.86117092e-003 -9.81494505e-003
      -7.27559254e-003 -1.24179129e-003 6.98304176e-003 1.56468712e-004
      -5.66842780e-003 -5.36301220e-003 -3.19033116e-002
      -2.23250277e-002 -3.04861390e-003 2.18840796e-004 1.34616895e-002
      4.18633269e-003 5.62758651e-003 3.90877295e-003 9.93488077e-003
      -1.75315849e-002 -1.65088419e-002 -9.72301792e-003
      -1.05135515e-002 1.02798706e-002 1.42193725e-002 2.54852809e-002
      1.76220797e-002 -2.20201798e-002 -9.75427311e-003 -2.01100207e-004
      -7.31271785e-003 -7.86833651e-003 1.62067953e-002 1.18833417e-002
      4.19150572e-003 -2.66873953e-003 -2.68673594e-003 -2.90965941e-003
      -6.39305869e-003 -1.47620114e-002 -2.13861495e-004 3.06575336e-002
      4.39455472e-002 2.85580661e-002 1.41451340e-002 -6.46846648e-003
      -1.29055372e-002 -8.94127972e-003 -7.26469932e-003 2.71219877e-003
      1.19379470e-002 1.32411085e-002 2.36007310e-002 -2.00672730e-004
      -3.68923880e-003 -8.15446023e-003 -4.10615280e-003
      -2.84771645e-003 -9.98724997e-003 1.56118814e-003 3.90630169e-003
      9.27267317e-003 -5.15569234e-003 -1.05383014e-002 -9.19515081e-003
      -2.36594910e-003 6.98450347e-003 4.33010189e-003 1.80160664e-002
      3.13438699e-002 3.39650549e-002 -8.03545397e-003 -6.31306320e-003
      2.92499433e-003 1.06579633e-002 -6.13374962e-003 -1.75628215e-002
      -1.18007911e-002 8.24652612e-003 1.36914263e-002 -9.91452299e-003
      4.15665982e-003 -5.78046683e-003 6.04652055e-003 1.08204503e-002
      2.36170110e-003 2.55539156e-002 2.35770512e-002 1.20444931e-002
      8.35293066e-003 -1.07141472e-002 -8.09974130e-003 4.51182667e-003
      1.21844010e-002 5.86228445e-003 2.24669948e-002 1.86383016e-002
      6.82239234e-003 1.09930232e-003 -1.24834450e-002 -2.65618856e-003
      1.44258030e-002 -1.38387410e-002 -4.41357270e-002 -7.32143503e-003
      5.74648753e-003 1.30300028e-002 -1.62608698e-002 -1.17435921e-002
      -4.31486731e-003 8.58202484e-003 -4.30789171e-003 -9.53022856e-003
      6.28840178e-003 1.02167223e-002 1.13090128e-002 -1.16612418e-002
      -1.33252647e-002 -7.74232810e-003 6.83182664e-003 1.39542269e-002
      1.45970853e-002 9.29355994e-003 -6.47197757e-003 -2.62283441e-003
      -1.65694021e-002 -8.37441999e-003 1.59625488e-003 1.93898641e-002
      2.29365788e-002 1.47487074e-002 2.05592457e-002 1.41696003e-003
      1.37009495e-003 -1.39949322e-002 -3.31000574e-002 -2.27881726e-002
      1.25133535e-002 1.41977863e-002 2.11426872e-003 -1.11818919e-002
      -1.72200296e-002 -1.02097960e-002 -3.22898887e-002
      -3.47789302e-002 -7.23786070e-004 3.99512388e-002 1.41242845e-002
      1.36010973e-002 -2.52168085e-002 -2.39618551e-002 -2.20882874e-002
      -4.14504558e-002 -1.25802597e-002 6.74663950e-003 1.63694397e-002
      1.30984467e-002 -1.30095081e-002 -2.86993533e-002 1.08950101e-002
      -4.71406616e-004 -1.95613969e-002 1.52450264e-003 1.65022798e-002
      3.30403298e-002 3.14435698e-002 2.11478416e-002 9.77192167e-003
      2.18590423e-002 2.96671875e-003 2.19282781e-004 -2.59390939e-002
      -1.14146376e-003 -7.54320819e-004 7.46164587e-005 -1.24185309e-002
      -4.16657962e-002 -6.01525744e-003 -2.75417697e-003
      -2.63558179e-002 -3.18181850e-002 -1.91800278e-002
      -1.49011537e-002 3.13762575e-003 1.35147236e-002 8.22922215e-003
      1.76230874e-002 4.80014924e-003 -1.69332027e-002 4.56198212e-003
      1.95310987e-003 2.04724516e-003 1.40230171e-002 9.23660677e-003
      5.90518210e-003 1.97005365e-002 1.36397490e-002 6.72539510e-003
      -7.54341343e-003 -1.13441925e-002 -1.53826308e-002 5.03153121e-003
      1.41178528e-002 1.72031969e-002 2.27235910e-002 4.29073907e-003
      -3.32233816e-004 -1.87082421e-002 -1.92045365e-002
      -9.63457301e-003 1.11776814e-002 -1.84743665e-003 3.28169414e-003
      1.51049718e-002 3.05698602e-003 -7.57436780e-003 -2.72987019e-002
      -3.50730792e-002 -2.62429528e-002 -2.61869421e-003 1.84691034e-003
      9.65398271e-003 4.79769986e-003 -1.48874531e-002 -2.51701344e-002
      -1.10444389e-002 -1.31912325e-002 -7.39999255e-003 8.56706128e-003
      3.07879392e-002 2.98119262e-002 2.61471104e-002 1.25775086e-002
      1.81226374e-003 -7.44911097e-003 -2.83026155e-002 -1.67966951e-002
      -5.14295185e-003 2.64156014e-002 3.89530696e-003 1.56363267e-002
      6.67939521e-003 2.13773176e-003 -2.74014547e-002 -3.01269740e-002
      -2.47738361e-002 3.70106241e-003 6.22296473e-003 1.67136118e-002
      -6.90172426e-003 -1.15002412e-002 -2.87758876e-002 1.29071437e-003
      -2.23111920e-002 -1.41251953e-002 -6.77700294e-003 7.40201911e-003
      5.54403989e-003 -8.07854533e-003 -4.39004926e-003 6.70954352e-003
      -6.78243302e-003 -2.77071707e-002 -2.17155013e-002
      -1.76888164e-002 -4.05572791e-004 -2.11212039e-002
      -5.48876729e-003 -1.27793849e-002 -5.64532913e-003 5.38836047e-003
      -7.53957825e-003 -1.29917394e-002 -2.26034713e-003 8.08783807e-003
      -1.07317455e-002 -1.05278259e-002 -1.86016317e-002
      -3.59592913e-003 2.66036019e-003 -1.37397218e-002 -3.86214373e-003
      -1.83001831e-002 -3.33948876e-003 -6.77575171e-003
      -4.73159598e-003 -1.43104256e-003 8.30388535e-003 1.99203417e-002
      2.95193703e-003 1.70765154e-003 -1.25606656e-002 2.01742481e-002
      -1.49151194e-004 2.73507670e-003 1.80745609e-002 3.28922197e-002
      3.37508274e-003 -7.92391971e-003 -1.36937052e-002 -8.31105839e-003
      1.07278386e-002 -2.13959143e-002 -3.02068274e-002 -1.74114257e-002
      -2.54646782e-003 8.38998239e-003 2.79372931e-003 -2.06894036e-002
      -3.07527743e-002 -9.45629366e-003 -3.12219113e-002
      -3.92292514e-002 -1.18598621e-002 2.13558233e-004 2.53672507e-002
      -1.17401639e-002 -2.48951698e-003 -1.18311793e-002 2.42821164e-002
      -8.46822560e-003 -8.32194742e-003 1.24247596e-002 3.41378115e-002
      3.03173512e-002 8.92101228e-003 1.03504946e-002 2.58690049e-003
      1.27250841e-002 -6.47987658e-003 -1.64635554e-002 -8.93222075e-003
      7.47628463e-003 1.02435723e-002 1.56379456e-003 -3.63529730e-003
      -2.23125443e-002 -8.61733407e-003 -2.35983767e-002
      -3.27571146e-002 -2.42613424e-002 7.01049436e-003 4.03565541e-003
      1.03921844e-002 2.05008313e-002 7.30984006e-003 2.92281690e-003
      -1.72794349e-002 -3.94394696e-002 -3.09314858e-002
      -5.19568427e-003 2.22316924e-002 1.14450585e-002 2.30834093e-002
      1.00514190e-002 6.94603659e-003 -2.38566520e-003 -1.14220185e-002
      -1.65735092e-002 3.47782113e-003 1.94841379e-003 1.47134727e-002
      1.55074354e-002 5.06059220e-003 7.05938181e-003 -6.54697185e-003
      -9.14476346e-003 -1.91022046e-002 -6.29493408e-003
      -1.71340792e-003 8.13767500e-003 2.30998476e-003 1.74165843e-003
      1.74042638e-002 -7.17442716e-003 -1.68857742e-002 -1.59134436e-002
      -6.01485465e-003 -1.98548404e-003 -6.78145746e-003
      -8.52684677e-003 -1.95829812e-002 -8.18279164e-004
      -5.90788806e-003 -1.04446197e-002 -1.09139858e-002
      -2.59328797e-003 7.34412810e-003 2.72992644e-002 1.20533593e-002
      4.86662332e-003 2.05230503e-003 -1.41487336e-002 -1.47587825e-002
      -1.56392623e-002 -2.70544481e-003 5.22377109e-003 2.17401050e-002
      1.35977927e-003 -3.31259333e-003 -1.15773994e-002 -1.70171708e-002
      -2.94134510e-003 -1.60283707e-002 -6.54675206e-003 1.99474562e-002
      1.22365085e-002 7.17555871e-003 -4.44621360e-003 4.74842219e-003
      2.74428658e-005 -6.06084336e-003 -1.28652826e-002 -1.31775867e-002
      5.76251140e-003 1.34182163e-002 1.59033816e-002 -1.96335167e-002
      -2.31193732e-002 -2.36798474e-003 -1.55237718e-002
      -2.09892038e-002 -1.28851039e-002 2.80026030e-002 1.11539895e-002
      -1.20193316e-002 4.05985909e-003 4.20247018e-003 -5.23317605e-003
      1.30310869e-002 -9.44321975e-003 1.15460241e-002 7.14825513e-003
      -1.17622120e-002 -1.15465242e-002 -9.75805242e-003
      -1.08237322e-002 -1.13238301e-002 -1.28152296e-002
      -2.36149710e-002 6.40902109e-003 8.61088745e-003 -3.07871378e-003
      9.41985939e-003 -4.84628370e-003 -3.90953384e-003 8.08733422e-003
      6.84197701e-004 -1.89642736e-003 1.81127735e-003 4.92406683e-003
      3.18200723e-003 2.55786497e-002 8.78134277e-003 -5.26828645e-003
      8.11322033e-003 3.42223793e-003 -5.27119078e-003 1.72883668e-003
      -7.85588380e-003 -1.06738973e-002 1.24105606e-002 -3.76823638e-003
      -2.46470235e-002 5.26574301e-003 -1.51457246e-002 -2.10503899e-002
      -1.30653987e-002 -1.24007408e-002 -7.50343641e-003 1.03134103e-002
      2.34938972e-002 -2.29862370e-002 -7.11349724e-003 -6.20183861e-003
      3.65955685e-003 -6.34520687e-003 6.49395259e-003 1.49722639e-002
      2.32421402e-002 8.57473165e-003 -4.43160674e-003 1.90283637e-002
      1.74123142e-002 -2.62321532e-003 6.26865681e-003 1.93358231e-002
      1.97408143e-002 1.75623205e-002 1.37640489e-003 -1.29359001e-002
      1.75999552e-002 1.73214730e-002 5.26540400e-003 1.47056514e-002
      -5.06315473e-003 4.78417240e-003 -1.58542744e-003 3.36594484e-003
      -3.17790098e-002 -2.22689682e-003 4.76953480e-003 3.82071245e-003
      7.71453697e-003 2.06177682e-003 -1.42858806e-003 -1.34395706e-002
      -2.41894629e-002 -3.88719812e-002 9.41401348e-003 8.59054644e-003
      -8.04632343e-003 4.36773477e-003 2.62232050e-002 1.50397671e-002
      1.52805336e-002 7.48836668e-003 -6.86837221e-003 1.06058363e-002
      9.93176643e-003 -1.42427729e-002 5.19314641e-003 -4.77605080e-003
      -7.05458131e-003 1.10500883e-002 8.07252992e-003 1.28250755e-003
      1.69164408e-002 1.37524921e-002 -3.85506265e-003 -7.04052672e-003
      -7.04938686e-003 1.37149952e-002 1.40567468e-002 -1.01813721e-002
      -1.62644368e-002 9.85732116e-003 -8.76596104e-003 -1.20519325e-002
      -8.13803170e-003 -1.24662025e-002 -1.03983618e-002 2.42589656e-002
      2.03073490e-002 9.33733024e-003 1.08848494e-002 -9.96239390e-003
      -3.88178304e-002 -2.41587069e-002 2.56771484e-004 -5.76130673e-003
      1.10301161e-002 2.05036681e-002 9.82698984e-003 1.82024688e-002
      1.50787057e-002 6.22343970e-003 8.02700408e-003 -1.49324294e-002
      -8.24474206e-004 4.09290008e-003 2.48396583e-002 9.55562945e-003
      3.01694404e-002 3.00497115e-002 4.23327601e-003 -2.35442398e-003
      -2.26018466e-002 -2.10060626e-002 2.22274428e-003 1.86241474e-002
      -3.31638125e-003 9.65142436e-003 5.09349909e-003 2.49372897e-005
      -9.05546546e-003 -4.60023293e-003 -6.07957551e-003
      -1.74976625e-002 -8.33014399e-003 -1.72638912e-002 3.71445110e-003
      7.89675862e-003 -9.10079852e-003 -9.93609522e-003 -2.16728114e-002
      -1.45349037e-002 -2.38022418e-003 2.40823738e-002 2.15873048e-002
      3.15803066e-002 3.45851071e-002 1.24310954e-002 -1.49545185e-002
      -1.01506338e-002 -1.18436283e-002 4.77822061e-004 7.42570357e-003
      2.49784742e-003 1.84325818e-002 1.55183021e-002 9.72084049e-003
      -2.02338472e-002 -1.89655684e-002 -5.36520313e-003
      -4.34859702e-003 1.49048995e-002 -2.83029699e-003 5.03235031e-003
      9.06688569e-004 -3.09020723e-003 -1.67346187e-002 -1.30744756e-003
      -5.81370015e-003 1.78507390e-003 1.73251331e-002 1.05279579e-003
      3.90213425e-003 3.37532302e-003 9.77012049e-003 -4.75608790e-003
      1.11738909e-002 5.38904965e-003 1.86930001e-002 1.39705641e-002
      -1.91265512e-002 2.62478460e-003 7.67269637e-004 7.56088970e-003
      3.82693182e-003 -9.15305747e-004 -3.48102488e-003 8.54033884e-003
      -2.59538135e-003 -2.69440506e-002 -3.38324485e-003 4.88783279e-003
      1.36083001e-002 1.09062099e-003 1.61428582e-002 1.44383423e-002
      1.16131175e-002 1.98387858e-002 -1.61911976e-002 -1.50553444e-002
      1.31492065e-002 1.18422415e-002 3.10516567e-003 7.73682259e-004
      -1.67051586e-003 -7.52987200e-003 -2.52122548e-003
      -2.95708068e-002 -3.12043019e-002 -1.86545542e-004
      -3.63444001e-003 -7.32330466e-003 -2.46698502e-002
      -1.45923654e-002 6.37775613e-003 -9.09874309e-003 -2.29660776e-002
      -2.53283251e-002 -8.48417450e-003 3.48654739e-003 -1.42011531e-002
      -1.14343166e-002 4.97074053e-003 2.61519309e-002 1.49277765e-002
      9.82244126e-003 -1.50850955e-002 -1.01933451e-002 -2.07144208e-003
      -9.97127127e-003 -1.17643140e-002 -1.44496812e-002
      -1.13678630e-002 -1.56643940e-003 -2.30049342e-002
      -2.46891100e-002 -7.62013346e-003 -3.71085713e-003
      -3.49735463e-004 7.65524060e-003 1.96016654e-002 1.30091142e-002
      8.49882234e-003 9.19353683e-003 1.16961226e-002 1.21918507e-002
      1.06491083e-002 5.38932811e-003 -2.32654121e-002 -2.46135332e-002
      -1.41715361e-002 -8.77095480e-003 -1.47069455e-003
      -1.76574979e-002 8.75367038e-003 3.06654628e-003 -1.30389887e-003
      -1.41413566e-002 -1.71488915e-002 -1.80781782e-002 7.99725018e-003
      8.50545056e-003 -6.32252498e-003 1.01970555e-002 1.46627165e-002
      1.10641774e-002 -8.05305550e-004 -3.27940583e-002 -2.22876365e-003
      -2.79468717e-003 -1.15853176e-002 -1.10264001e-002 7.64596742e-003
      3.13314539e-003 2.22833939e-002 4.62864339e-003 -1.63130667e-002
      -1.22540109e-002 -1.97667093e-003 -9.81611200e-003
      -1.12646697e-002 5.47332596e-003 9.95327998e-003 1.97550058e-002
      4.28992044e-003 8.65492690e-003 1.26234675e-003 1.13541335e-002
      -7.52017274e-003 -1.57928113e-002 -4.43453761e-003 1.47143276e-002
      1.02364868e-002 -1.88384112e-002 -1.28003964e-002 -1.23359440e-002
      -2.45006965e-003 -6.20345958e-003 -5.48247620e-003 5.48120448e-003
      -1.44216651e-002 -1.12577965e-002 8.10115039e-003 6.46365061e-003
      1.77723108e-004 4.85820259e-004 -9.04136989e-003 -7.49134552e-003
      -8.10015918e-005 5.97880036e-003 1.50062665e-002 -5.51854074e-003
      2.29750667e-003 1.43652759e-003 1.38041610e-002 -4.08668071e-003
      -5.89964679e-004 9.84369684e-003 -7.76741933e-003 -2.41780328e-003
      -1.54846599e-002 -2.40455791e-002 -1.76999867e-002
      -7.76474271e-003 1.40272581e-003 1.20493006e-002 4.10748925e-003
      -7.94014055e-003 -2.02397015e-002 -3.35749518e-003
      -2.83768829e-002 -3.08630224e-002 -7.02763209e-003 6.32314757e-003
      1.10309580e-002 4.96736960e-003 1.22264745e-002 1.15181906e-002
      -2.56197905e-004 -1.15555180e-002 -9.48365498e-003 1.41246514e-002
      9.83697549e-003 6.00522896e-003 1.67428814e-002 1.29883289e-002
      1.03388801e-002 3.35419143e-004 -6.39948156e-003 -1.04413480e-002
      1.91190548e-003 1.60684232e-002 5.41868061e-003 1.85603406e-002
      2.97960266e-002 5.01352595e-003 -9.63887759e-003 -2.53618285e-002
      -3.07561527e-003 -1.05880173e-002 2.35334807e-003 9.09482536e-004
      -3.08857206e-003 -3.92522244e-003 5.28759975e-003 7.14303087e-003
      -1.57402866e-002 -8.56423192e-003 -1.77091416e-002 3.68059352e-002
      -3.96619667e-004 2.24345922e-003 1.78168248e-002 2.11697277e-002
      -9.07874014e-003 -8.60110391e-003 1.76185986e-003 -1.39598139e-002
      5.80434175e-003 -8.88646682e-005 -1.05709932e-003 -8.74728197e-004
      -2.95257755e-003 -1.16504170e-002 -2.19504628e-002
      -5.47472946e-003 1.87569577e-003 3.83819640e-002 3.58282737e-002
      1.76219177e-002 7.29698082e-003 -1.67167012e-003 6.62993779e-003
      -2.77572107e-002 -1.03699295e-002 -1.30612887e-002 2.64660195e-002
      -3.99711728e-003 -6.45115133e-003 3.81713966e-003 2.64903922e-002
      7.97152147e-003 -1.05913309e-002 1.05518345e-002 1.94804128e-002
      2.16695443e-002 7.86587689e-003 -4.65860358e-003 -7.12563191e-003
      3.35804443e-003 -2.11643707e-002 -4.78563420e-002 -1.01014627e-002
      5.33642899e-003 3.51165161e-002 3.26364040e-002 1.89557150e-002
      2.51688552e-003 -1.40975369e-002 -2.22519059e-002 -4.29049134e-002
      1.16538052e-002 2.69245617e-002 3.56633067e-002 2.13616677e-002
      1.61006786e-002 -1.70057220e-003 -2.17912719e-002 -3.10440222e-003
      -1.39540364e-003 1.79640464e-002 9.27962270e-003 8.87101330e-003
      5.59901027e-003 1.09652814e-003 -5.11246442e-004 -1.60739068e-002
      -1.20416610e-002 -1.27937132e-002 3.13086947e-003 -2.50171800e-003
      4.94820625e-003 -3.65551468e-003 2.15198402e-003 -1.67966820e-002
      -2.65132189e-002 -2.04988569e-002 -7.09308684e-003 2.67928541e-002
      2.24661138e-002 2.53492873e-002 1.63072161e-002 1.53812813e-002
      1.59532651e-002 -1.82011779e-002 -1.82554089e-002 -6.83411118e-003
      2.58872621e-002 2.25925762e-002 2.40490474e-002 1.10068806e-002
      1.86913051e-002 1.22406697e-002 -1.81092694e-002 -1.08457794e-002
      1.10431602e-002 1.10732233e-002 1.62016768e-002 1.21045131e-002
      -2.31052842e-003 -6.91203540e-003 -1.48889087e-002
      -1.86660141e-002 -3.40712033e-002 1.97017249e-002 1.07129803e-002
      4.50697169e-003 -1.00484688e-003 -1.52647039e-002 7.35710701e-003
      -8.76873359e-003 -4.04535308e-002 -1.13229314e-002 9.35831293e-003
      2.25119591e-002 2.51451079e-002 2.48677116e-002 1.35969762e-002
      1.68263931e-002 1.13668879e-002 -1.04047051e-002 -1.14728045e-002
      2.43321061e-003 2.61582360e-002 1.14028594e-002 1.68996882e-002
      1.97903439e-002 2.47739144e-002 1.55377323e-002 -1.04047051e-002
      3.89691303e-003 9.12480149e-003 -1.05507672e-002 -1.36039928e-002
      3.80390859e-003 -1.05918637e-002 2.45640203e-002 -2.69633834e-004
      5.82148554e-003 7.74884084e-003 4.34367219e-003 -8.68150778e-003
      -2.23611016e-002 -2.38846801e-002 -2.44572535e-002 4.38749371e-003
      -2.45892294e-002 2.94077094e-003 7.69513936e-005 2.31723720e-003
      9.78730060e-003 -8.76911450e-003 6.35044649e-003 1.14657832e-002
      2.54354905e-002 1.01143606e-002 -3.53031443e-004 1.96557783e-004
      5.25423838e-003 1.01720747e-002 -4.75524552e-003 5.04866475e-003
      1.13772666e-002 2.66089570e-002 2.09095961e-004 1.66504105e-004
      -2.74811895e-003 6.97860552e-004 1.14354109e-002 1.83771492e-003
      -2.26774104e-002 -4.94384114e-003 -4.50082775e-003
      -2.23221350e-002 -1.16344681e-002 -1.90912727e-002
      -9.12998151e-003 -2.98105320e-003 5.34930313e-003 -3.49602997e-002
      -1.46201905e-002 4.03055781e-003 1.62741002e-002 -5.31039760e-003
      -1.89800485e-004 1.18829152e-002 2.14414261e-002 1.19030736e-002
      1.40305255e-002 1.51953343e-002 1.91843435e-002 1.47918025e-002
      8.91560130e-003 7.75422482e-003 2.73124855e-002 1.59783494e-002
      6.09355746e-003 -2.14452706e-002 7.83181284e-004 1.64389312e-002
      2.43001617e-002 1.07368538e-002 -6.76205475e-003 -2.61995336e-003
      -8.48436449e-003 -9.50110797e-003 -6.81082681e-002
      -1.47890700e-002 2.48993002e-002 1.72515865e-002 1.64261647e-002
      3.40968650e-003 7.67780934e-003 -4.29190509e-003 -1.95585899e-002
      -4.67242859e-002 2.88309460e-003 1.31809628e-002 -6.43200753e-003
      -7.80532835e-003 2.36311425e-002 2.33885963e-002 1.72776952e-002
      3.19108553e-003 -4.88773659e-002 2.16161762e-003 1.86731182e-002
      2.84571797e-002 2.50079855e-002 1.31922411e-002 3.90383415e-002
      3.55426371e-002 1.08099869e-002 -3.85157727e-002 1.08195897e-002
      2.50762235e-002 3.49862836e-002 1.04907919e-002 -9.49030090e-003
      1.32320235e-002 6.98314561e-003 -1.24706281e-002 -1.06726047e-002
      5.57149481e-003 -1.77527703e-002 -1.58794150e-002 -1.99930537e-002
      -6.02076901e-003 -5.23075811e-004 2.35201884e-002 8.35305173e-003
      -6.60983287e-003 -9.83674312e-004 -1.91694032e-002
      -3.80800143e-002 -9.75182001e-003 -6.90593198e-003 2.88615897e-002
      2.06486247e-002 1.23163592e-002 -6.61997823e-003 5.35269966e-003
      1.40189016e-002 3.01712286e-002 -1.09850746e-002 -5.41686872e-003
      3.04928105e-002 1.96093488e-002 1.87670439e-002 2.80004852e-002
      1.15898792e-002 1.09496415e-002 2.36023981e-002 -7.99803622e-003
      -5.74336573e-003 -1.02937277e-002 1.25793638e-002 -1.59208896e-003
      -1.72861274e-002 -5.51422918e-003 -9.55008063e-003
      -5.93088707e-003 -4.28565312e-003 -6.25560200e-003
      -5.21464797e-004 8.14017188e-003 -1.81460641e-002 -2.88148038e-002
      -1.13269417e-002 -1.27617801e-002 -1.54767577e-002
      -8.69338494e-003 5.63589903e-003 2.83281785e-002 1.98057368e-002
      4.86522121e-003 4.05577151e-003 5.95403928e-003 7.73339579e-003
      1.90255642e-002 -2.40453301e-004 -1.03922817e-003 3.57884653e-002
      3.14770155e-002 6.74439361e-003 -2.41973419e-002 2.11651088e-003
      -5.37376560e-004 1.76816471e-002 1.31925393e-003 -1.72874779e-002
      4.35101241e-003 9.69008077e-003 2.01918092e-003 -1.89124122e-002
      -2.65786168e-003 -1.61254853e-002 -1.53780933e-002
      -2.68963538e-002 -1.31936325e-002 6.09389739e-003 1.20018264e-002
      2.59038387e-003 -1.79590583e-002 1.49944914e-004 5.52305439e-003
      1.55517850e-002 -1.43104531e-002 -8.16556811e-003 4.00677770e-002
      2.97135524e-002 9.70039144e-003 -1.68148410e-002 1.28224492e-002
      1.04137436e-002 2.07662545e-002 -7.46659702e-003 -6.31596707e-003
      3.80829498e-002 2.62093749e-002 6.87749358e-003 -3.38565372e-003
      2.31764633e-002 2.64688451e-002 3.18536572e-002 -9.75476578e-003
      -1.15203476e-002 -1.70586840e-003 -1.47662382e-003
      -5.31367911e-003 -2.13945545e-002 -1.49117438e-002 1.93059184e-002
      3.44777550e-003 -1.23885600e-002 -2.66111363e-002 -1.99765880e-002
      -2.17614342e-002 9.12649930e-003 -1.57870967e-002 -1.25778662e-002
      -6.23305840e-003 -1.34532377e-002 -2.69127078e-002
      -1.04753133e-002 1.39198275e-002 1.62246320e-002 1.22954175e-002
      2.29864917e-003 1.78464688e-002 2.65148599e-002 3.16081941e-002
      -4.68251621e-003 -1.60220824e-002 1.24529907e-002 2.19898354e-002
      3.78067233e-002 3.14479582e-002 3.12607586e-002 2.45324578e-002
      3.49764936e-002 -1.06331520e-002 -4.25645895e-002 -2.46605575e-002
      -1.63258445e-002 7.45202089e-003 -1.18388711e-002 1.61843945e-003
      -6.16705185e-003 -6.46673050e-003 -4.03723381e-002
      -3.71910781e-002 1.20348728e-003 3.13060777e-003 1.76658239e-002
      1.30366925e-002 1.39709597e-003 5.62558556e-003 4.30622231e-003
      -2.16903109e-002 -2.49679200e-002 2.42799055e-002 2.99518406e-002
      4.41548303e-002 2.36216225e-002 2.21403055e-002 8.16559326e-003
      2.28223689e-002 -1.88549086e-002 -2.24427152e-002 3.05681862e-002
      4.00842316e-002 4.32024375e-002 1.94294471e-002 6.41324557e-003
      -2.68072938e-003 9.16928053e-003 -2.02952549e-002</_>
    <_>
      4.40444052e-002 1.22817000e-002 -1.11581963e-002 -2.71080788e-002
      1.34725757e-002 8.86966474e-003 1.66256225e-003 1.59438048e-002
      4.54343967e-002 4.02753130e-002 1.32370098e-002 -4.90014162e-003
      -3.66419107e-002 -3.54718640e-002 -2.03931313e-002
      -1.03148427e-002 6.83616754e-003 3.71406265e-002 -2.56352536e-002
      4.20866883e-004 -1.18008759e-002 -5.00813276e-002 1.87468883e-002
      -4.54054493e-003 -1.86498817e-002 -1.34412646e-002
      -2.26286501e-002 -7.49948574e-003 1.41383838e-002 -6.52918534e-005
      -3.74943353e-002 -2.00788435e-002 -7.57177640e-003
      -8.98271892e-003 -1.74607728e-002 -1.83136649e-002 2.51443610e-002
      -2.62819673e-003 -2.51685525e-003 -1.81226563e-002
      -3.34330611e-002 -2.74257138e-002 -1.72576401e-002
      -1.15936724e-002 2.35544611e-002 1.79456268e-002 -4.90123453e-003
      -5.27905021e-003 -8.54498893e-003 -2.40870230e-002
      -3.52125242e-002 -2.33263094e-002 -2.84059681e-002 1.36275617e-002
      -2.80607445e-003 5.25894575e-003 9.05041490e-003 -2.82822619e-003
      -3.11416183e-002 -5.62502211e-003 -5.04387449e-003
      -1.21945906e-002 -2.28352789e-002 -3.43203195e-003 1.94161467e-003
      -5.44176111e-003 -6.61693281e-003 -2.39287913e-002
      -3.24534327e-002 -1.97640900e-003 -6.99316803e-003
      -8.75315070e-003 2.32194439e-002 2.60535133e-004 -7.23028963e-004
      1.24983722e-003 -5.53474342e-003 -1.18337395e-002 -1.80530865e-002
      -1.86455611e-003 7.23047741e-003 1.65782869e-002 -1.77616216e-002
      -1.61773153e-002 -5.73564181e-003 2.52228184e-003 6.09175814e-003
      -1.41013134e-002 7.90584646e-003 1.69237535e-002 -1.19707584e-002
      -3.77269159e-003 -2.96956976e-003 9.03016888e-003 1.43440510e-003
      -4.38160589e-003 1.01816747e-002 -5.07433945e-003 -1.65441986e-002
      -2.57111676e-002 -3.58115323e-002 -1.24832792e-002 4.40123631e-003
      1.47525575e-002 2.09849030e-002 -1.54704787e-002 -2.61581205e-002
      -2.91845147e-002 1.66082494e-002 -1.34531409e-002 -1.14267105e-002
      -1.13915959e-002 8.77956918e-004 4.75029927e-003 -1.83352455e-002
      -5.04247437e-004 1.56067694e-002 1.95731577e-002 5.61216008e-003
      7.41089135e-003 4.59201261e-003 1.91711672e-002 3.78280110e-003
      -3.45556140e-002 -2.92262645e-003 5.84408268e-003 -4.04246114e-002
      -2.92787720e-002 -7.85259344e-003 6.56686164e-003 -1.13469791e-002
      -3.49312648e-003 -3.37818116e-002 -2.56382450e-002
      -4.57115397e-002 -6.36289874e-003 1.21907669e-003 7.72983301e-003
      3.98658402e-002 1.52678071e-002 2.93996348e-003 -4.27284241e-002
      -4.17269068e-003 -1.30619770e-002 1.48183471e-002 1.08232973e-002
      -1.91568397e-003 1.50601869e-003 1.64415557e-002 -1.60987545e-002
      -3.76838520e-002 -2.67392397e-002 1.36098475e-003 1.18241115e-002
      5.83628705e-003 1.98758161e-003 -6.29752316e-003 -1.48159321e-002
      -1.65097192e-002 -2.61369906e-002 -2.67795958e-002 7.60001829e-003
      6.65589061e-004 7.76036317e-003 -2.29496951e-003 2.04838831e-002
      2.13486888e-002 3.58606782e-003 -3.08970753e-002 -1.05855083e-002
      -1.94856729e-002 -2.03640107e-003 1.24768727e-002 3.48108890e-003
      -4.73436015e-003 2.71366816e-003 4.69548348e-003 -7.65714515e-003
      -7.04321312e-003 -1.55035127e-002 1.22498227e-002 -1.39989657e-003
      -1.48890226e-003 -8.76452308e-003 -5.76884206e-003 1.77426054e-003
      -1.58950705e-002 -1.85896847e-002 9.36381612e-003 1.34496652e-002
      -2.65079625e-002 -2.08304916e-002 -5.29506803e-003
      -2.18130043e-003 4.68528783e-003 -8.01400188e-003 -2.21359637e-002
      1.20833218e-002 -8.44904687e-003 3.24779400e-003 9.20540281e-003
      -9.28269979e-003 -8.13093386e-004 4.33583325e-003 -5.04118216e-004
      5.50407032e-003 -2.14734338e-002 -9.68984270e-004 2.60476721e-003
      1.81895476e-002 -3.65752378e-003 1.32033008e-003 1.04128458e-002
      1.91655401e-002 1.10771703e-002 -4.72589023e-003 1.36938039e-002
      -3.49952504e-002 -2.67659668e-002 -6.43635634e-003
      -2.90269614e-003 -9.77605931e-004 -5.25945285e-003
      -1.24772359e-002 1.55395931e-002 1.37977144e-002 -2.55972277e-002
      -2.50073504e-002 -3.17419879e-004 3.71659920e-003 -1.20764584e-004
      -8.63502733e-003 -4.97358758e-003 1.51553797e-002 -1.15896342e-002
      -1.28596090e-002 -5.11432160e-003 -8.33581202e-003
      -5.19631570e-003 7.93643855e-003 2.23568697e-002 2.25759670e-002
      -4.96285176e-003 1.14330469e-005 3.22400751e-006 -7.13597285e-003
      -2.86721694e-003 3.19072837e-003 -6.28156262e-003 6.91613834e-003
      1.51948296e-002 -3.61528154e-003 2.90149953e-002 -2.91872751e-002
      -2.17509270e-002 -1.27853535e-003 -6.31824275e-003
      -1.12147117e-002 -1.18128266e-002 -5.39385853e-003 2.81326286e-002
      2.80854255e-002 -2.61707343e-002 -1.46322772e-002 -1.33558903e-002
      -2.27997620e-002 -2.63683833e-002 -1.89110897e-002 1.26496935e-002
      2.79094819e-002 -6.96254574e-005 9.57110710e-003 1.74922997e-003
      -3.47801368e-003 -5.44778910e-003 -2.67658960e-002
      -1.10004041e-002 -3.09224124e-003 -1.33829722e-002 2.41622943e-002
      2.30896268e-002 1.13744354e-002 -8.45660456e-003 -3.36072743e-002
      -3.66822407e-002 -1.68639272e-002 1.26751037e-002 2.13557947e-002
      4.50643711e-003 -1.25029050e-002 -9.27859917e-003 -9.79795400e-003
      -1.09956572e-002 -1.61165558e-002 -2.03160308e-002 1.08209578e-002
      8.72636097e-004 2.73564807e-003 -2.24750768e-002 -1.31158149e-002
      -8.57046153e-003 -9.67615377e-003 1.28887920e-003 -3.97184165e-003
      9.93773062e-003 2.55110790e-004 3.73246334e-003 1.25034871e-002
      7.28535047e-003 -7.24991364e-003 -1.66282281e-002 -1.04563236e-002
      -2.98880390e-003 2.16047708e-002 1.07022189e-002 -1.36146857e-003
      -1.11324154e-002 -8.42603482e-003 -1.14124343e-002
      -2.20699338e-004 2.15216931e-002 1.76361594e-002 2.80237310e-002
      2.07420681e-002 4.04957682e-003 -2.30099373e-002 -1.23290755e-002
      -5.94406156e-003 -5.67825185e-003 8.03187396e-003 1.31722586e-002
      7.41340080e-003 1.15194125e-003 -1.30825839e-003 -2.63801254e-002
      -2.33663078e-002 -1.12239420e-002 8.42954032e-004 1.32868839e-002
      1.59357954e-002 -7.64878280e-003 6.07176684e-004 7.11972266e-003
      -1.48227978e-002 -1.19403312e-002 -3.96766607e-003 6.37118879e-004
      1.43657485e-002 1.33713977e-002 2.18845420e-002 3.36031504e-002
      -8.13348778e-003 -1.59579366e-002 -9.03775636e-003 6.85112271e-003
      5.08094393e-003 1.05001144e-002 1.86564811e-002 1.09825544e-002
      1.27607966e-002 7.96474237e-003 -3.24322958e-003 -7.58776255e-003
      -8.47911276e-003 -7.11319409e-003 8.16109404e-003 4.87174187e-003
      -4.33855457e-003 1.28026307e-002 -3.30361701e-003 -6.18991675e-003
      -1.13141136e-002 -1.42167723e-002 -1.95837766e-002
      -7.99587183e-003 -2.09341254e-002 -1.32494401e-002 5.61686885e-003
      5.89501299e-003 -4.06700233e-003 1.34367021e-002 1.47327380e-002
      5.25182113e-003 1.02346996e-002 1.61962323e-002 5.00290515e-003
      -1.10925804e-003 -5.35894558e-003 -2.96448655e-002
      -3.70458560e-003 -2.66228453e-003 -1.61931023e-003 1.74176358e-002
      2.04123510e-003 2.44760909e-003 -1.03140352e-002 9.68203321e-003
      4.81038727e-003 -1.64413787e-002 -6.90424640e-004 1.16008818e-002
      7.41065247e-003 -9.13180877e-003 -2.03436147e-002 1.72250289e-002
      9.61641874e-003 -1.38704816e-003 -1.98982917e-002 -1.52320666e-002
      -6.14160323e-004 -4.06654039e-003 -1.68037377e-002
      -3.58776860e-002 1.80742238e-002 -1.86053701e-002 -2.02918965e-002
      -8.85708630e-003 8.72470904e-003 2.26000398e-002 3.33212838e-002
      5.01928618e-003 2.04276619e-003 -1.17045231e-002 -9.55273584e-003
      -7.19157886e-003 -1.86041128e-002 -1.03907464e-002 2.55207927e-003
      3.24059580e-003 -1.06361983e-002 -2.54708156e-002 -3.28012649e-003
      1.80569980e-002 -2.74304673e-003 -1.17507186e-002 -8.39836895e-003
      -8.42030998e-003 -6.03254978e-003 -1.05341822e-002
      -1.94584914e-002 2.32997574e-002 1.91332158e-002 -9.34806280e-003
      -1.02021638e-002 -2.34083831e-003 -7.37531995e-003
      -5.75418584e-003 -9.35330149e-003 -1.19135389e-002 2.20847614e-002
      6.18283870e-003 -5.11001796e-003 -8.20387620e-003 -1.03890803e-002
      -1.15616787e-002 -9.32050031e-003 -1.50509430e-002
      -1.87578890e-002 -2.03291816e-003 -4.34597163e-003
      -1.52080450e-002 -4.46667522e-003 -1.47210089e-002
      -2.26254165e-002 -1.82393137e-002 -8.32610391e-003
      -5.15788514e-003 -8.26948043e-003 2.34626196e-002 -8.44724849e-003
      -8.40537623e-003 -7.19319517e-003 -1.74380708e-002
      -6.44056499e-003 -7.79881142e-003 6.93857437e-003 1.99693479e-002
      2.56102979e-002 1.59713551e-002 1.29465829e-003 -1.41158830e-002
      -2.55960561e-002 -2.54762778e-003 -1.83586236e-002 3.77193512e-003
      2.13699136e-002 1.50791090e-003 -1.01623312e-002 -8.54965951e-003
      -1.29357465e-002 -3.56151834e-002 -1.39304120e-002
      -3.87231965e-004 1.86658204e-002 5.37714222e-003 -1.60425715e-003
      9.35697928e-003 -1.12154102e-002 -5.05905822e-002 -3.59171927e-002
      -1.85467787e-002 -2.97801979e-002 1.11539252e-002 1.05068581e-002
      1.74061228e-002 2.52074245e-002 1.34530906e-002 5.76435728e-003
      -1.21245626e-002 1.47319492e-002 -4.22175415e-003 9.32657067e-003
      1.34858023e-002 4.75056432e-002 1.55486567e-002 5.14271343e-003
      -5.75191923e-004 -1.99870467e-002 1.46012139e-002 1.14936074e-002
      6.21966459e-003 3.78341302e-002 2.23816212e-004 2.25581918e-002
      8.77917837e-003 -2.96578668e-002 -2.96350885e-002 -9.28593334e-003
      -3.03459167e-002 5.77777764e-003 1.81681756e-002 4.17762203e-003
      2.05757450e-002 -4.04443359e-003 -3.35999136e-003 -1.76835023e-002
      6.32284395e-003 -8.05399474e-003 1.03544239e-002 6.92075631e-003
      -8.20937287e-003 7.81712495e-003 1.06672524e-002 -2.73495913e-002
      -4.13498050e-003 -1.37935989e-002 -1.86792500e-002
      -6.50334358e-003 -4.22319025e-003 1.74659377e-004 -5.55252191e-003
      1.57729480e-002 -1.95881855e-002 -2.48208977e-002 -1.61217278e-004
      -3.64782009e-003 -1.65078733e-002 -1.41198412e-002 1.51289552e-002
      2.32302826e-002 2.92424913e-002 4.88018850e-003 -2.54970440e-003
      -1.11253401e-002 -1.16889505e-002 -6.86686952e-003 1.22147324e-002
      1.15875984e-002 6.54307520e-003 4.14452106e-002 2.39760298e-002
      1.06548639e-002 2.53209216e-003 1.26128737e-003 -7.68664933e-004
      -1.07681593e-002 -1.94194913e-002 -1.15268249e-002 1.04153100e-002
      1.22189317e-002 -2.11284333e-003 1.11293625e-002 -2.35820934e-003
      -2.82952189e-002 -3.91900800e-002 -2.48339791e-002
      -2.88923550e-003 1.13594420e-002 1.37391770e-002 2.54426356e-002
      9.53840651e-003 -5.30774053e-003 -2.63989829e-002 -2.95683406e-002
      -8.29540379e-003 -1.53523991e-002 1.85278654e-002 2.58432981e-002
      1.98308565e-002 8.30181874e-003 -6.80231210e-003 -2.26425380e-002
      -2.56144088e-002 -1.89243201e-002 -1.31024746e-002 1.15597760e-002
      1.93280000e-002 3.14769931e-002 2.16976684e-002 -1.12215513e-002
      -3.70240323e-002 -3.09225414e-002 -2.64137425e-002
      -8.05992726e-003 3.04305181e-003 3.11979745e-003 3.45552228e-002
      1.71555812e-003 1.53555896e-003 -1.53200133e-002 -3.14524770e-002
      -8.86455085e-003 -1.01321051e-002 1.06599079e-002 1.38011621e-002
      3.02356575e-002 1.04985647e-002 -1.39958458e-002 -2.52296384e-002
      -2.16922704e-002 -2.29237750e-002 -9.93728638e-003 5.51038235e-003
      5.06985933e-003 4.41239364e-002 9.82324965e-003 -2.15801317e-003
      -1.85953937e-002 -2.98616830e-002 -1.09434929e-002 1.85069547e-003
      1.69771016e-002 2.55758911e-002 4.09757867e-002 1.88497771e-002
      7.37170829e-003 -4.71907994e-003 -2.01689880e-002 -2.37364192e-002
      -1.04040653e-002 6.93270878e-004 1.53447622e-002 -5.43785840e-003
      -6.10924559e-003 -2.12325696e-002 -2.83853579e-002
      -4.60059568e-002 -3.86100053e-003 -2.28689075e-003 2.15535561e-004
      1.88741162e-002 1.16435131e-002 2.74781603e-003 1.32423406e-003
      -4.27749380e-003 -1.53948488e-002 -4.89877071e-003 1.31787257e-002
      1.63067617e-002 2.13718154e-002 1.55698583e-002 7.61086075e-003
      3.74930282e-003 -4.50011436e-003 -2.07834411e-002 1.96134374e-002
      1.39063597e-002 2.89105345e-003 -8.43221415e-003 9.12120286e-003
      1.61984134e-002 2.10286807e-002 1.82379391e-002 2.23106556e-002
      -1.16618583e-002 -7.35953031e-003 -9.44668334e-003 2.07399353e-002
      2.40362175e-002 2.50943061e-002 1.55992564e-002 1.51798900e-004
      -1.64158009e-002 -2.34416388e-002 -3.60192172e-003 4.54036565e-003
      4.78512142e-003 1.09600471e-002 2.48200614e-002 1.07783256e-002
      -1.01650171e-002 -2.11859159e-002 7.67144561e-003 -1.59982359e-003
      1.81182590e-003 1.93234358e-003 2.29452364e-003 1.67634599e-002
      1.74966920e-002 9.30002984e-003 2.63333856e-003 -3.95549834e-003
      2.57219584e-003 -1.94087555e-003 3.37517587e-004 -1.01354187e-002
      -1.30534917e-002 -7.56361242e-003 -6.79957494e-003
      -2.16782279e-003 -1.59053486e-002 2.78600398e-003 1.34717776e-002
      1.23683037e-003 3.97065422e-003 1.00539206e-002 3.60995159e-003
      3.47942999e-003 -1.44350966e-002 -1.33529743e-002 1.15341619e-002
      3.12386490e-002 1.54215097e-002 1.69220101e-002 1.39982514e-002
      1.38230072e-002 8.28798302e-003 -1.66857466e-002 3.70151596e-003
      1.03613769e-003 -1.72014421e-004 -3.12074996e-003 -1.54737979e-002
      -1.31325973e-002 -1.06447954e-002 9.80636012e-003 1.33600477e-002
      -1.19315051e-002 -5.78750041e-004 1.49795813e-002 1.22895371e-002
      -1.64274406e-002 -1.36973825e-003 7.31684128e-003 9.33369715e-003
      5.58697572e-003 -9.25533846e-003 1.89143531e-002 1.63319837e-002
      1.24434689e-002 1.39070004e-002 2.08242722e-002 2.02536359e-002
      1.73703469e-002 -1.59170087e-002 -2.46481562e-004 1.67964995e-002
      1.07750995e-002 -7.29746604e-003 -7.73887848e-003 2.98834662e-003
      7.74465548e-003 1.13005415e-002 -1.73965562e-002 -1.16537828e-002
      1.98531058e-002 1.04539311e-002 8.04992393e-003 -9.37050022e-003
      -4.19548567e-004 1.43106468e-002 -6.71389280e-003 2.02860712e-004
      -1.48427393e-003 1.61113366e-002 -2.84620537e-003 -1.38947554e-002
      -1.67409088e-002 -9.98687278e-003 -9.13141482e-003
      -9.05854627e-003 -1.10292872e-002 1.09489113e-002 1.93838999e-002
      1.28622930e-002 -5.80749428e-003 -3.88334994e-003 -2.25039590e-002
      -7.03220721e-004 5.74374665e-003 -3.85425822e-003 1.99203547e-002
      3.46471891e-002 2.78349034e-002 8.79949983e-003 -1.60926804e-002
      -3.61203142e-002 -5.99912042e-003 1.80985816e-002 1.22580705e-002
      2.86844489e-003 1.06814001e-002 8.85943009e-004 -2.16547195e-002
      -2.49573216e-002 -2.25232746e-002 -1.62838362e-002 1.09674912e-002
      2.09249323e-003 2.16981564e-002 1.61617678e-002 1.82187054e-002
      -1.81624629e-002 -3.13743576e-002 -2.95393877e-002
      -3.13409884e-003 3.97488736e-002 2.73887012e-002 1.56699065e-002
      1.35116279e-002 4.81710304e-003 -8.11215397e-003 -1.80341974e-002
      -1.78362075e-002 4.63650154e-004 2.73191687e-002 1.82187632e-002
      9.56078875e-004 -7.19126686e-003 -6.38772314e-003 -1.19573139e-002
      1.32207917e-002 2.32630316e-002 2.32610628e-002 2.72273887e-002
      2.00353153e-002 2.85421927e-002 4.15302999e-003 -7.36823585e-003
      -2.60569789e-002 -4.53697816e-002 -4.10584882e-002
      -1.62599925e-002 2.48207357e-002 2.74812505e-002 9.97186080e-003
      -5.30811213e-003 -2.32207552e-002 -2.04698779e-002 8.35599005e-003
      1.44476118e-002 -2.94526201e-003 8.43880523e-004 -6.64987508e-003
      -7.84905441e-003 -5.47128543e-003 -5.73611259e-003 3.97851598e-003
      1.18767088e-002 1.80437155e-002 1.04651572e-002 1.58495866e-002
      1.35952942e-002 2.26992910e-004 -1.24843908e-003 8.97752834e-005
      1.71652995e-002 7.91730732e-003 6.62671356e-003 1.05182396e-003
      6.64725783e-004 4.51249257e-003 -4.63257032e-003 -9.53712966e-003
      -1.62326507e-002 -1.72137970e-003 7.05760019e-003 1.83299240e-002
      -4.35701106e-003 -1.07604591e-002 -1.41968075e-002 3.23361857e-003
      -5.07208053e-003 -7.38390349e-003 -7.95817096e-003
      -4.47334303e-003 1.20748058e-002 -1.11472588e-002 -2.28887163e-002
      -4.33786726e-003 1.04860654e-002 1.97561411e-003 1.44667886e-002
      1.60143264e-002 7.87765346e-003 4.65099839e-003 4.32662154e-003
      -2.17887247e-003 -3.00881430e-003 -3.33791296e-003
      -2.46569701e-002 -1.48756979e-002 -2.38395692e-003 2.32400955e-003
      1.00382203e-002 3.96936061e-003 6.53180340e-003 -5.32690843e-004
      1.42605463e-002 -9.74158582e-004 -4.96009970e-003 -7.86411390e-003
      -7.13058456e-004 4.85471822e-003 -2.23639305e-003 -2.14418327e-003
      2.99446704e-003 3.84472217e-003 -2.18050112e-003 -1.91487931e-002
      -1.40242800e-002 -4.91306698e-003 -2.05611996e-002
      -9.28885769e-003 2.75508384e-004 7.57586397e-003 -8.51458032e-003
      -6.33505778e-003 -9.77840461e-003 4.03393898e-003 5.79815917e-003
      1.27015943e-002 7.15532387e-003 1.01743024e-002 5.78699773e-003
      -1.19821932e-002 -1.08870920e-002 -2.61801649e-002
      -1.28632030e-002 -4.81758639e-003 -2.86825025e-003 8.96654837e-003
      -2.13663094e-003 -4.25740285e-003 4.67586890e-003 8.84487294e-003
      -8.60776752e-003 3.65232676e-003 6.94443192e-003 -1.48184868e-002
      1.63688185e-003 1.65349955e-003 1.02631319e-002 4.56955191e-003
      1.13779143e-003 -8.05236120e-003 1.83485821e-003 -1.48524868e-003
      -6.31175190e-003 1.86421152e-003 1.03640393e-003 1.50189747e-003
      5.55646047e-003 3.91523819e-003 -7.67740514e-003 -1.60666220e-002
      -9.07806493e-003 -8.34056991e-004 3.25727509e-003 -2.81353225e-003
      -2.48002843e-003 -7.92390294e-003 -2.71318550e-003
      -4.24417993e-003 -1.51693225e-002 -1.56678762e-002
      -5.54032158e-003 4.81106248e-003 1.05153052e-002 -3.84597015e-003
      9.54294391e-003 5.69628179e-003 -4.19748574e-003 -1.09234434e-002
      -1.11818770e-002 4.56986018e-003 1.25239296e-002 1.47430282e-002
      1.24342861e-002 3.17268469e-003 -6.48601633e-003 -1.25026582e-002
      -1.35803586e-002 -1.32912863e-002 1.19507369e-002 2.42951885e-002
      1.58660822e-002 4.44813631e-003 -7.37814512e-003 -1.56358164e-002
      -1.03353504e-002 -7.09903659e-003 -2.09701303e-002
      -4.89796139e-003 8.14568065e-003 8.18698946e-003 6.82274159e-003
      -6.79633394e-003 4.68040677e-003 -3.63895250e-003 -3.01139411e-002
      -3.12498063e-002 3.87498573e-003 1.17333187e-002 2.37274431e-002
      1.73099171e-002 -2.34866457e-004 -1.40864020e-002 -1.54310623e-002
      -1.29637504e-002 -4.32192069e-003 6.18860684e-003 1.77582055e-002
      1.78100560e-002 1.02359168e-002 1.17572295e-002 1.44854514e-003
      -3.65317520e-003 -1.84043497e-002 -2.26822961e-002 2.93573597e-003
      1.43495379e-002 2.63805483e-002 2.71904860e-002 -6.37325738e-003
      1.14285732e-002 9.19262227e-003 -1.13795903e-002 -2.23984867e-002
      2.14930438e-002 2.26308443e-002 3.21184732e-002 1.04941856e-002
      -1.80280246e-002 1.60177669e-003 -1.79539192e-002 -1.89582687e-002
      -1.62270851e-002 2.74545774e-002 9.73201171e-003 1.31982369e-002
      -1.28646232e-002 1.57573428e-002 1.95066612e-002 1.69995613e-002
      3.81909718e-004 -2.17259843e-002 3.52910231e-003 1.56630296e-002
      2.72861104e-002 3.74624096e-002 -1.06925117e-002 -1.12558072e-002
      -1.94545686e-002 -2.91469023e-002 -1.36519205e-002 1.34147005e-002
      9.80720576e-003 1.51732797e-002 6.20683888e-003 -1.53048278e-003
      2.18538288e-002 3.86485159e-002 4.79264476e-004 -1.93433464e-002
      -3.22954394e-002 -2.96881255e-002 -4.83280160e-002
      -1.33753000e-002 -1.21618120e-003 8.05386901e-003 4.07620445e-002
      3.00025064e-002 9.00383852e-003 -5.27169416e-003 -1.31908394e-002
      -2.28472967e-002 -2.74554156e-002 3.11731314e-003 2.91191675e-002
      4.88834418e-002 1.64504815e-002 -1.93433464e-002 -3.54390889e-002
      -1.27029624e-002 -2.38312725e-002 -6.72620861e-003 2.44764448e-003
      3.61514501e-002 4.07912582e-002 2.89406069e-002 -5.65520348e-003
      9.17784125e-003 -5.01977280e-003 -1.44750504e-002 -1.12058716e-002
      -3.64960078e-003 -9.65515524e-003 9.02970415e-003 1.74148269e-002
      1.16707683e-002 -3.67318816e-003 -1.66807696e-002 -2.36696228e-002
      -1.90713648e-002 -1.62775144e-002 -1.24991070e-002 8.08275864e-003
      1.93956345e-002 3.69682088e-002 9.85543616e-003 -2.56560165e-002
      -3.90640795e-002 -2.46324614e-002 -5.70579944e-003 2.00221837e-002
      1.75822135e-002 1.78491045e-002 7.95697514e-003 1.04343388e-002
      -1.23373205e-002 -1.77004840e-002 -1.57923233e-002
      -1.03497002e-002 -4.61764494e-003 4.73116292e-003 9.48560517e-003
      2.08738260e-002 1.46061112e-003 -2.25104522e-002 -2.81682890e-002
      -2.15795059e-002 -1.81338806e-002 -1.08250137e-002 2.37334101e-003
      3.61380796e-003 4.70885672e-002 -9.17293655e-004 -1.22344131e-002
      -2.02272497e-002 -1.09542320e-002 -1.78652294e-002
      -1.27299661e-002 1.04645034e-002 4.27266769e-003 2.86141783e-002
      1.51948407e-002 1.18903061e-002 -3.63050727e-004 -1.27247106e-002
      -1.58269294e-002 -2.90057138e-002 -1.17264930e-002
      -1.67663712e-002 6.69716811e-003 3.15862638e-003 -1.98534434e-003
      -1.22437496e-002 -1.37173636e-002 -1.81571450e-002
      -2.39655394e-002 1.30481960e-003 -9.65878367e-003 -5.15192049e-004
      5.57532022e-003 2.33302992e-002 -1.06223291e-002 -1.81077402e-002
      -4.48359922e-003 3.14127863e-003 1.09641049e-002 5.82839176e-003
      2.61244345e-002 1.55006275e-002 2.24651489e-002 5.32495510e-003
      -1.05768128e-003 2.01884322e-002 1.38498656e-002 -3.93343624e-003
      -1.17833754e-002 -3.50929704e-003 -1.29789207e-002
      -1.01930127e-002 -3.71433236e-003 2.58667283e-002 -1.15058431e-002
      -1.19507946e-002 1.31251318e-002 3.87831568e-003 6.33545918e-003
      1.96299772e-003 6.07185019e-003 -1.71610657e-002 -1.63322743e-002
      1.78051889e-002 9.01109166e-003 1.53687336e-002 9.68209840e-003
      -1.28137809e-003 -2.59673297e-002 -3.38920951e-002
      -2.94735562e-002 -1.37501769e-003 1.23679629e-002 -7.21974182e-004
      6.49171975e-003 -2.56569008e-003 -6.33467920e-003 -2.16693291e-003
      -3.59799946e-004 7.68014113e-004 8.66044592e-003 1.39781246e-002
      -1.02984253e-003 -1.30554205e-002 -5.60700195e-003
      -1.30505459e-002 -2.29098275e-002 -1.42572951e-002
      -5.17057348e-003 2.78480444e-003 1.87334679e-002 4.47509252e-003
      6.38658414e-003 1.47904651e-002 3.32976598e-003 -1.63728781e-002
      -1.92514937e-002 -9.59192496e-003 1.78112034e-002 2.09795740e-002
      6.81106793e-003 -7.78393028e-003 -1.24280639e-002 -1.37135861e-002
      -2.12393608e-002 -2.34453436e-002 -8.91930610e-003 1.24879479e-002
      3.04310340e-002 2.01245006e-002 8.13229382e-003 -3.75608355e-003
      -1.32552972e-002 -1.86264552e-002 -8.65672622e-003
      -4.65787947e-003 2.28476021e-002 9.49793030e-003 8.89857486e-003
      1.10167675e-002 -2.40798993e-003 -2.75806282e-002 -1.83016248e-002
      8.31773505e-003 6.12169318e-003 1.96188577e-002 3.26642431e-002
      2.37488504e-002 6.65313611e-003 -2.20898865e-003 -1.46599812e-002
      -1.98236350e-002 -1.77271180e-002 -4.05382481e-004 1.49432542e-002
      1.54616963e-002 1.18690440e-002 5.72541263e-003 -1.60944257e-002
      -3.45608145e-002 -3.49524990e-002 -5.99502726e-003
      -1.72318425e-002 4.61881375e-003 1.14942659e-002 1.44112529e-002
      2.81599071e-003 -6.23996137e-003 -1.11887855e-002 -6.24678889e-003
      1.72673147e-002 1.51051143e-002 2.25640312e-002 6.06853003e-003
      9.01122205e-003 -6.61903434e-003 -2.12138575e-002 -1.64767019e-002
      -2.00174246e-002 4.32404829e-003 1.13155460e-002 3.56692559e-004
      8.47957283e-003 9.10475384e-003 9.67929885e-003 1.70683430e-003
      -9.23532713e-003 -1.33617865e-002 1.67664848e-002 2.60127313e-003
      5.72444638e-003 2.10618647e-003 2.73410324e-003 -7.58692389e-004
      -1.09063052e-002 -1.05143257e-003 -8.54970887e-003 1.60117596e-002
      1.51576903e-002 -1.37630594e-003 -1.59766674e-002 1.16230994e-002
      5.62695693e-003 -1.12880198e-002 -6.68682670e-003 -4.24919836e-003
      1.00700371e-003 1.56230424e-002 -1.80073306e-002 4.82864911e-004
      2.44563725e-002 1.19937705e-002 -1.75289735e-002 -2.04628203e-002
      -2.18114490e-003 2.14501992e-002 3.14681567e-002 1.68616162e-003
      -2.59321667e-002 1.12672327e-002 4.43302048e-003 -2.86139490e-004
      -1.27086020e-003 1.58283319e-002 1.57966614e-002 1.92879550e-002
      -2.23451629e-002 -7.87604228e-003 3.12958360e-002 1.47300009e-002
      9.29492339e-003 3.85571946e-003 3.16714235e-002 3.70459668e-002
      2.18356438e-002 -1.90062996e-003 1.47720398e-002 5.85082499e-003
      -1.08395070e-002 -2.93847248e-002 -3.54658328e-002
      -2.37155184e-002 6.83479477e-003 2.88113058e-002 1.81609318e-002
      1.13647338e-002 5.91305364e-003 -4.33146767e-003 6.16103737e-003
      -1.36273611e-005 9.11584683e-003 7.50946521e-004 5.73017867e-003
      -1.86244510e-002 -2.57758121e-003 1.17877452e-002 -2.59891385e-003
      -2.05958076e-002 -8.71184655e-003 1.10824434e-002 3.28186639e-002
      2.15369742e-002 -1.94410235e-003 2.78549152e-003 5.06672775e-003
      9.32782236e-003 -6.24442054e-003 -1.18743721e-002 3.04403808e-003
      2.81684529e-002 2.61213854e-002 -2.41355016e-003 2.36821637e-004
      7.40058627e-003 2.18275632e-003 7.29172071e-003 -6.98924239e-004
      1.46758985e-002 -5.98818122e-004 -6.80979807e-003 -2.79794969e-002
      7.16921315e-003 -8.48734006e-003 -1.01054239e-003 -3.81026533e-003
      5.84311830e-003 1.82577427e-002 -3.15818586e-003 -1.94173642e-002
      -1.40682859e-002 6.31435728e-003 2.91272230e-003 -1.36995025e-003
      -8.74926616e-003 -1.51790651e-002 -5.79257868e-003 1.07533187e-002
      1.02586169e-002 -3.23254755e-003 4.76032216e-003 -5.58999600e-003
      8.82757959e-005 -7.64448522e-003 -6.25688303e-003 6.62145205e-003
      1.61687396e-002 3.12392646e-003 6.97523262e-003 8.02448718e-004
      -1.12925889e-002 -2.04809848e-003 3.23488982e-003 8.20465945e-003
      1.05819618e-002 4.06211754e-003 -5.07886335e-003 -3.60332360e-003
      -1.16875162e-002 4.57663788e-003 8.01785849e-003 2.22270004e-002
      1.82261467e-002 -6.96314638e-003 -7.31307827e-003 -1.53516913e-002
      -7.09197903e-003 -9.33453534e-003 -1.74429957e-002
      -2.05334090e-003 1.80163374e-003 4.43595555e-003 7.19482359e-003
      4.49561514e-003 -1.17110275e-002 -6.03968464e-003 -1.61810219e-002
      3.94087285e-003 1.95744112e-002 3.92616466e-002 3.63868885e-002
      2.28492152e-002 -4.57680691e-003 -8.46629031e-003 -2.57444754e-002
      -2.23744917e-003 2.40281783e-002 1.13549624e-002 2.29650848e-002
      2.26934366e-002 -6.08439231e-003 -5.67778712e-003 -2.00961214e-002
      -7.86352903e-003 1.28427651e-002 1.70114916e-002 1.05536161e-002
      1.67574622e-002 2.81905895e-003 -1.38567118e-002 -2.98072640e-002
      -2.37341002e-002 -2.10225713e-002 2.69814231e-003 2.49028858e-002
      2.74875928e-002 4.30095680e-002 3.93567942e-002 1.42925233e-002
      -5.60851069e-003 -8.20734166e-003 -2.54367981e-002 7.14973034e-003
      2.16142330e-002 2.30027493e-002 2.99375542e-002 1.05226105e-002
      -9.31733102e-003 -2.51141377e-002 -2.36765128e-002
      -4.05503735e-002 8.21860507e-003 1.95248076e-003 1.16918725e-003
      9.12526529e-003 -4.71399026e-003 1.14694599e-003 -9.20287706e-003
      -3.86220543e-003 4.82712593e-003 -2.77624512e-003 1.18141226e-003
      -3.11744894e-004 -6.20151218e-003 -8.10531713e-003 4.94149560e-003
      1.48380315e-002 1.12463012e-002 1.23689491e-002 1.66328135e-003
      1.03054494e-002 3.19076260e-003 1.69901103e-002 -5.56941191e-003
      1.07505592e-003 -1.50504308e-002 -1.78918242e-002 -3.17062661e-002
      -1.39991520e-002 1.21785868e-002 7.01567670e-003 6.24923501e-003
      -3.55173182e-003 1.09799849e-002 1.52143463e-002 7.68101029e-003
      -6.31401734e-003 2.46392027e-003 2.16581766e-003 -1.22965197e-003
      -1.54586686e-002 -5.72805898e-003 4.59677586e-003 7.54799834e-003
      4.94239898e-003 8.95550009e-003 -4.72142128e-003 -3.54242837e-003
      -1.56009814e-003 -2.11983975e-002 -7.00392062e-003
      -3.57424701e-003 -3.11557832e-003 6.28607441e-003 1.99432652e-002
      -1.48755647e-002 -4.30275424e-004 -2.84289289e-003
      -4.98334318e-003 7.24640349e-003 1.49618611e-002 2.91056745e-003
      6.61164569e-003 6.65280409e-003 -2.72814743e-003 -5.36643760e-003
      -3.53973685e-003 1.26594314e-002 7.60477828e-003 1.11447833e-002
      -1.13536492e-002 -5.16477041e-003 7.15310173e-003 1.35301957e-002
      1.24761304e-002 1.97190382e-002 1.62574882e-003 -1.63250361e-002
      -4.51892568e-003 -1.12917330e-002 1.29464893e-002 2.89829392e-002
      8.00435059e-003 1.83338672e-003 -1.38525357e-002 -2.82647144e-002
      -6.53477572e-003 1.05718300e-002 5.55015029e-003 2.00508162e-002
      1.90499369e-002 1.84427779e-002 7.38943601e-003 -1.67690590e-002
      -7.93212745e-003 -2.33610477e-002 1.01501020e-002 -7.91860744e-003
      4.60636662e-003 9.33748577e-003 1.56919267e-002 1.55262863e-002
      -2.21526474e-002 -3.78048010e-002 -6.73751999e-003 3.04930005e-002
      2.05216855e-002 2.19850317e-002 1.52730094e-002 4.56075789e-003
      1.79428551e-002 2.90139187e-002 6.68115355e-003 -1.80711038e-002
      5.76785393e-003 2.49813311e-003 3.07595381e-003 4.49632760e-003
      1.32098340e-003 1.32816387e-002 2.55365539e-002 2.13871412e-002
      3.79666733e-003 3.22493725e-002 1.36886779e-002 3.59103712e-003
      2.89765093e-003 -2.10919864e-002 -3.57458182e-002 -2.79923622e-002
