<?xml version="1.0"?>
<opencv_storage>
<my_svm type_id="opencv-ml-svm">
  <svm_type>C_SVC</svm_type>
  <kernel><type>LINEAR</type></kernel>
  <C>1.</C>
  <term_criteria><epsilon>2.2204460492503131e-016</epsilon>
    <iterations>10000</iterations></term_criteria>
  <var_all>3780</var_all>
  <var_count>3780</var_count>
  <class_count>6</class_count>
  <class_labels type_id="opencv-matrix">
    <rows>1</rows>
    <cols>6</cols>
    <dt>i</dt>
    <data>
      0 1 2 3 4 5</data></class_labels>
  <sv_total>15</sv_total>
  <support_vectors>
    <_>
      4.03447682e-003 -1.75769921e-004 -5.52590890e-003 1.42309144e-002
      4.44604233e-002 -1.02421362e-003 -4.11846954e-003 2.55438359e-003
      2.98159570e-003 5.49031794e-003 7.71834655e-003 8.17233231e-003
      3.02249682e-003 8.06224905e-003 -7.47440476e-003 -7.11606117e-003
      4.56217473e-004 1.43737730e-003 -1.58896875e-002 9.33533709e-004
      -3.10330722e-003 -4.41629160e-003 2.69481707e-002 -1.17358435e-002
      -9.12634656e-003 -8.46093521e-003 -1.71339903e-002
      -2.46977303e-002 1.61700528e-002 1.29986312e-002 -3.63285630e-003
      -1.84807070e-002 -2.33269762e-002 -2.30857264e-002
      -1.94939990e-002 -4.23930772e-002 -1.61927082e-002
      -6.68428326e-003 -2.47398129e-004 3.66275501e-003 -1.51932309e-003
      -1.74760527e-003 2.30640383e-003 6.44125091e-003 -1.91111192e-002
      -1.58303920e-002 -2.97581870e-003 -3.61490296e-003 1.36329690e-002
      1.38689037e-002 9.46806744e-003 1.41699510e-002 6.36329222e-003
      -1.85045525e-002 -6.38224883e-003 -4.97609796e-003
      -5.32538723e-003 -6.68592053e-003 -3.11449356e-002
      -2.36087735e-003 7.25475233e-003 3.76499887e-003 -9.93535947e-003
      1.09902313e-002 -3.69715318e-003 -1.32134780e-002 1.11055758e-003
      2.00946499e-002 2.89614182e-002 3.67627852e-002 3.34726572e-002
      2.84207407e-002 -2.07271595e-002 1.63021553e-002 1.25782210e-002
      1.84360407e-002 2.22634189e-002 1.30802859e-002 6.53337827e-003
      -1.61615908e-002 -2.39133500e-002 -1.79328509e-002 1.47147626e-002
      1.72919519e-002 2.05732901e-002 1.63641982e-002 1.70800579e-003
      -1.60801727e-002 -2.08634436e-002 -1.97760798e-002 5.47669083e-003
      7.77486293e-003 -1.39683357e-003 2.91244965e-002 5.06317727e-002
      3.45925204e-002 4.92131617e-003 2.80410424e-003 -7.23900157e-004
      1.29521089e-002 2.54855566e-002 2.94531547e-002 3.97704430e-002
      2.81662699e-002 1.28776324e-003 -2.88162306e-002 -1.37196686e-002
      1.77430618e-003 1.13956006e-002 6.24526152e-003 8.55972152e-003
      4.90474794e-003 6.67396700e-003 -9.15650465e-003 -2.22806744e-002
      -2.56013442e-002 8.16357788e-003 1.12569379e-002 3.20375524e-003
      1.36025634e-003 3.05401790e-003 4.96061845e-003 -6.41166419e-003
      -2.68015526e-002 -2.01036558e-002 2.60110712e-004 -7.39933271e-003
      1.41816419e-002 2.24383865e-002 2.59568263e-002 -8.15046579e-003
      -2.26045996e-002 -3.07473447e-002 -8.48361570e-003
      -1.51796574e-002 -1.45120677e-002 1.56579004e-003 6.65810099e-003
      3.13263685e-002 -9.02427733e-003 -5.43168862e-004 -9.23234690e-003
      9.21774539e-004 -2.76981443e-002 2.34906673e-002 6.43154373e-004
      -5.83666191e-003 1.89067592e-004 -7.56322581e-004 -5.87041071e-003
      -1.71799082e-002 -6.44226186e-003 2.21148375e-002 1.88290160e-002
      -5.69433719e-003 1.29419193e-003 -2.27081604e-004 -1.56060653e-002
      -2.93573772e-004 -5.76987118e-003 8.16783123e-003 1.94449034e-002
      -1.45429838e-002 -1.14834327e-002 -2.33819373e-002
      -3.26740672e-003 -2.31078882e-002 1.24882779e-003 -2.39136931e-003
      1.67403538e-002 -1.53042935e-002 -7.89919030e-003 1.12157525e-003
      -6.41162088e-003 -1.13886697e-002 -4.64493930e-002 5.22071554e-004
      1.24939075e-002 3.14696580e-002 -1.51591599e-002 3.62580968e-003
      -2.79746670e-002 -8.62474437e-004 2.73319846e-003 -3.81658855e-003
      3.89781827e-003 -5.41050511e-004 -6.32372219e-004 9.71119013e-003
      3.32590565e-003 -2.09066328e-002 4.14158404e-003 1.17399739e-002
      1.07167391e-002 1.63592231e-002 1.16002960e-002 -7.65445118e-004
      3.62580968e-003 -2.46085450e-002 -7.02347187e-003 3.72020341e-003
      -5.81663568e-003 -2.19958276e-002 4.69041802e-003 1.66323129e-002
      2.60334983e-002 -2.50959042e-002 -2.19275299e-002 -1.80458266e-003
      1.01057896e-002 6.16660900e-003 7.75305182e-003 2.52003912e-002
      3.21112685e-002 3.38566788e-002 -1.37429452e-002 -2.41452176e-003
      -9.47816018e-003 4.09910781e-003 6.67237910e-003 9.80919320e-003
      1.14597995e-002 7.48573849e-003 -4.88872640e-003 3.48816888e-004
      -9.42160608e-004 -7.71912560e-003 1.18196132e-002 9.14253481e-003
      1.20644756e-002 6.14980375e-003 7.24752666e-003 5.62602794e-003
      3.48816888e-004 -3.30212899e-002 8.98202765e-004 5.67862950e-003
      7.48452172e-003 6.83882926e-003 1.45299723e-002 2.44810116e-002
      2.29030699e-002 -2.77277138e-002 -2.07245946e-002 8.58393312e-003
      1.29403584e-002 6.81069214e-003 1.02550378e-002 4.36460273e-003
      3.38636339e-002 2.14249175e-002 -2.13999711e-002 1.96762849e-002
      -8.99890345e-003 9.74864885e-003 4.54781577e-003 7.28586968e-003
      5.30243246e-003 -2.95830006e-003 2.98006786e-003 1.97642595e-002
      2.10211482e-002 -2.32695192e-002 -9.75990482e-003 -1.03088720e-002
      -3.27621633e-003 -5.40543441e-003 -1.36192925e-002
      -1.05494484e-002 1.97642595e-002 -2.45127194e-002 8.97636730e-003
      5.63358748e-003 5.99993905e-003 -5.14460320e-004 -8.54152197e-004
      1.69364996e-002 1.52472621e-002 -2.65768375e-002 -4.81369393e-003
      -4.68288176e-003 -1.63337048e-002 -4.31236532e-003
      -1.40348915e-002 -1.46374200e-002 -4.19813581e-003 6.73109852e-003
      5.04753366e-003 1.18855610e-002 -1.89734995e-002 -1.31460615e-002
      -7.03266263e-003 -5.49876085e-003 -6.83329394e-003
      -2.49913987e-003 6.40382944e-003 1.62845943e-002 2.21206024e-002
      -1.63844824e-002 -2.14124527e-002 -2.86053848e-002
      -3.75738777e-002 -9.01789870e-003 1.31503185e-002 1.53450798e-002
      1.47634223e-002 -2.22655246e-003 -1.24597009e-002 -1.25102699e-002
      -1.57496438e-003 -1.27195027e-002 -1.04818773e-002
      -1.66346889e-003 1.80726312e-002 8.69894214e-003 1.46596543e-002
      -2.83707725e-003 -3.47880437e-003 -1.44116394e-002
      -2.85154898e-002 -6.80003408e-003 5.18708397e-003 2.84062680e-002
      1.16026048e-002 2.55572554e-002 1.42559363e-003 2.29370012e-003
      -3.47413346e-002 -5.63386306e-002 -1.68468188e-002 2.59837843e-002
      1.64218377e-002 2.86118817e-002 8.93642567e-003 9.07167606e-003
      7.49265030e-003 -1.41081745e-002 -4.08899300e-002 -8.48257169e-003
      2.85742711e-002 2.88442485e-002 1.49150714e-002 1.69142708e-002
      1.72679778e-002 1.08974492e-002 -3.02979946e-002 -3.79998125e-002
      -1.38306767e-002 8.33788048e-003 1.97448190e-002 2.18370035e-002
      7.49619445e-003 1.01375077e-002 1.65098235e-002 -1.59154814e-002
      -4.25353833e-002 -1.16340350e-002 8.22939735e-004 1.82166751e-002
      6.46405993e-003 5.09349816e-003 5.08285419e-004 3.49976611e-003
      3.78440786e-003 -1.38759650e-002 2.32703146e-003 1.32187568e-002
      1.61370710e-002 1.12132533e-002 5.89340972e-003 4.61994065e-003
      7.11934175e-004 2.32975394e-003 -5.15343389e-003 4.06803843e-003
      4.23170440e-003 1.35916503e-004 1.02998083e-002 -1.27658350e-002
      -3.54435551e-003 1.54533470e-002 2.51462450e-003 -2.69705914e-002
      -8.93173646e-003 -2.47218041e-003 -8.27405881e-003
      -1.79839786e-002 -2.94974493e-003 -8.18928611e-003 1.18230069e-002
      1.02943685e-002 -8.11625551e-003 -1.29885226e-002 -9.09411628e-003
      -1.83363296e-002 -4.78356751e-003 9.54068825e-003 1.72240380e-002
      -7.98177347e-003 -1.08198049e-002 -4.51880181e-003 2.71567632e-003
      -3.07361363e-003 -1.04520712e-002 1.38706779e-002 9.36524943e-003
      2.55523009e-005 -1.30433589e-002 -2.89579146e-002 -2.60436758e-002
      -1.90801956e-002 -7.47213233e-003 -9.83468909e-003 1.42043252e-002
      -9.95672122e-003 -7.22111249e-003 5.88436518e-003 -8.65376554e-003
      2.51591508e-003 6.04986912e-004 -1.81734487e-002 -1.82747636e-002
      -3.80243454e-003 8.10480036e-004 -1.93795201e-003 -6.77898340e-003
      -2.60543302e-002 -1.11905700e-002 -2.94786738e-003
      -7.88107049e-003 -1.44942533e-002 9.19064507e-003 7.88752269e-003
      -2.35530939e-002 -1.15470374e-002 -9.99101438e-003
      -1.75816175e-002 -1.09040970e-002 -5.13900584e-003
      -1.07032480e-002 1.10164275e-002 1.08907102e-002 -3.98310013e-002
      -1.34519776e-002 -8.82236473e-003 -2.26634443e-002
      -6.96932431e-003 -2.31511565e-003 1.00500155e-002 1.07025793e-002
      5.71764121e-003 -1.16797071e-002 -7.72058824e-003 -1.87401213e-002
      -1.66980140e-002 -2.85624620e-003 -8.48706404e-004
      -1.70445386e-002 1.64122656e-002 3.79110174e-003 -2.30467115e-002
      -1.47247948e-002 -2.00294871e-002 -1.33663369e-002
      -5.14590787e-003 -3.41822440e-003 1.92509126e-003 1.84957851e-002
      -2.62560276e-003 -1.27462745e-002 -4.01851302e-003
      -8.81632324e-003 -2.07556337e-002 -2.51573161e-003 4.27055033e-003
      1.32333990e-002 -7.62192486e-003 -9.41139553e-003 1.05764298e-002
      3.76538071e-003 5.50295180e-003 5.63181750e-003 1.75022818e-002
      1.34418346e-002 5.78017626e-003 -7.49792950e-003 1.17546534e-002
      -1.04235746e-002 -4.88300715e-003 -1.23968804e-002
      -2.45247642e-003 -4.76154173e-003 6.54801680e-003 7.75893964e-003
      2.63405107e-002 -9.03183222e-003 -1.32873086e-002 -1.28447860e-002
      -2.11973339e-002 -2.03027669e-002 4.41331603e-003 8.36776942e-003
      2.97626504e-003 8.89661442e-003 -7.24140881e-003 9.70718730e-003
      7.41382875e-003 1.30414339e-002 1.91591289e-002 2.69687418e-002
      2.54212730e-002 2.15940066e-002 -5.20910043e-003 -8.07157811e-003
      -1.87185761e-002 -5.56846661e-003 1.52398413e-002 2.69989036e-002
      3.10726631e-002 1.65606551e-002 -2.36513512e-003 -4.13425779e-003
      -7.96347577e-003 -6.24258677e-003 1.48016936e-003 -1.64443515e-002
      -2.05052793e-002 1.30932266e-002 1.88685942e-003 4.88025229e-003
      4.46586730e-003 -2.68384721e-002 -2.04991307e-002 -2.49996083e-003
      -2.10066773e-002 -1.83710875e-003 5.70967793e-003 -1.20997550e-002
      -7.54818833e-003 -1.33858081e-002 8.59297719e-003 8.21589865e-003
      4.32415074e-003 -8.55843630e-003 -4.93289344e-003 -2.66708117e-002
      -1.19169177e-002 -1.32977879e-002 -5.85130509e-003 1.36059551e-002
      1.78047009e-002 1.01200286e-002 -1.43335229e-002 -2.26726942e-002
      -3.22187580e-002 -2.40341313e-002 -2.20441129e-002
      -5.97992167e-003 2.51034182e-002 1.80055331e-002 2.22180933e-002
      9.62182973e-003 -3.35964467e-003 1.44128909e-003 1.38726775e-002
      1.14673497e-002 1.71626005e-002 3.65836220e-003 3.80416662e-002
      2.30481010e-002 1.00660855e-002 -8.98430217e-003 -8.22550803e-003
      8.77510873e-004 -6.00921875e-003 -1.37029318e-002 -2.74998555e-003
      -4.39401390e-003 5.72736887e-003 -7.13994540e-003 -1.75566114e-002
      -5.02417330e-003 2.98825325e-003 -4.05019009e-003 -6.97070453e-003
      4.78870096e-003 -1.26502216e-002 -2.42966227e-003 3.02404352e-003
      1.97631512e-002 1.56538971e-002 1.16301875e-003 5.50234108e-004
      1.31963566e-002 -1.03547322e-002 1.76728461e-002 1.60750467e-002
      1.39726726e-002 9.07034337e-005 -2.53143138e-003 -1.89477131e-002
      -9.41993203e-003 -1.49899982e-002 -2.55404096e-002
      -1.14217922e-002 1.37923239e-002 2.94835474e-002 2.38027778e-002
      1.27982209e-002 -2.95522548e-002 -3.30398269e-002 -2.40310654e-002
      1.12989610e-002 -1.12418802e-002 -8.41759518e-003 3.71893472e-003
      4.12323326e-002 1.93306673e-002 2.14002852e-004 8.41689948e-003
      1.71979517e-002 3.09832208e-002 8.43116827e-003 -2.17295997e-003
      -3.49466619e-003 1.04425540e-002 -4.17120149e-003 -2.35653166e-002
      6.60812715e-003 1.91430710e-002 -3.36514302e-002 -3.58702950e-002
      -2.12654117e-002 9.37376078e-003 3.72585133e-002 1.84396505e-002
      -1.42302150e-002 -3.93489264e-002 -1.97887570e-002
      -2.35903449e-002 -2.11553350e-002 -1.25351176e-002
      -1.10726804e-002 2.26739421e-002 3.07292510e-002 2.91129500e-002
      2.63317139e-003 -6.76107267e-003 1.50183989e-002 1.36011876e-002
      -1.92261615e-003 -1.48445647e-003 -1.56088620e-002
      -2.10435651e-002 -2.53606755e-002 1.67841103e-003 -6.42207591e-003
      -2.46065739e-003 1.32006956e-002 1.90332849e-002 2.87970584e-002
      4.35649697e-003 1.60777420e-002 1.63648352e-002 7.49980099e-004
      -2.34954134e-002 -5.02775563e-003 -1.41288498e-002
      -1.70459207e-002 -9.51180141e-003 8.62552971e-003 1.98567212e-002
      9.36727971e-003 -1.10172760e-002 -1.88819896e-002 2.92746117e-003
      1.28419027e-002 1.63936839e-002 -4.04004822e-004 1.94559514e-003
      9.87086818e-003 7.36149447e-003 -1.30882002e-002 -6.01476757e-003
      -1.88113712e-002 -1.29559590e-002 -9.24059283e-003
      -5.51985251e-003 -2.80367434e-002 1.15281763e-002 1.95570048e-002
      1.26404911e-002 -1.90524869e-002 -1.09456452e-002 -1.88622437e-003
      -7.07245851e-003 -2.29729097e-002 -4.72925939e-002 1.65553519e-003
      1.80326514e-002 3.03784423e-002 -1.73319038e-002 2.17503626e-002
      2.19044723e-002 1.64494682e-002 -1.93017852e-002 -2.88304407e-002
      -6.49657520e-003 1.25940600e-002 -2.25942442e-003 -3.01833730e-003
      2.26062741e-002 1.89239234e-002 5.36971865e-003 -8.09838902e-003
      -2.23382115e-002 5.43539319e-003 1.50215235e-002 2.71583833e-002
      3.57097425e-002 2.62186979e-004 6.54948689e-003 -3.94025957e-003
      -9.46991239e-003 -3.05971112e-002 -4.26902995e-003 1.10746417e-002
      2.93728281e-002 1.35115092e-003 -2.91371951e-003 5.14533697e-003
      -1.37211140e-002 -5.78464533e-004 -8.78266117e-004 1.11359479e-002
      1.22013250e-002 3.04665882e-002 1.72957883e-003 1.35501719e-003
      -5.62772737e-004 -8.45152326e-003 -1.18058743e-002
      -2.48751957e-002 -8.43607355e-003 1.51310838e-003 1.43523114e-002
      1.98805761e-002 -8.76358245e-003 -1.21751754e-002 -1.16447359e-002
      -1.19806755e-004 -7.95869436e-003 -2.19208263e-002
      -7.02392543e-003 7.38695497e-003 7.06782797e-003 -4.80344286e-003
      1.99597031e-002 4.11276659e-003 1.50781386e-002 8.30332935e-003
      1.36268446e-002 7.31935957e-003 2.62300987e-002 4.78043640e-003
      -4.45147511e-003 1.57777909e-002 8.27687234e-003 6.09394209e-003
      -8.89246631e-003 7.12212967e-003 1.95471793e-002 3.01251896e-002
      -9.01380554e-003 -1.54839996e-002 -4.87381965e-003
      -3.85021861e-003 1.49631277e-002 -6.94319431e-004 -1.45073719e-002
      -7.09246844e-003 2.07303162e-003 -9.82110482e-003 -1.24346148e-002
      -1.72567796e-002 -2.27682255e-002 -2.02592136e-003
      -1.50007745e-002 2.00993172e-003 4.29636519e-003 1.84542383e-003
      -1.23161152e-002 1.60503499e-002 1.46502759e-002 5.43229468e-003
      5.14539843e-003 -4.71706362e-003 -2.67345924e-003 1.78616699e-002
      3.82588059e-002 9.40307509e-003 -2.51723686e-003 -9.74360330e-004
      -7.43973115e-003 -5.66326256e-004 -1.02919256e-002
      -9.66665708e-003 1.01104947e-002 2.82979365e-002 3.11189331e-003
      -1.85220335e-002 -2.60645282e-002 -2.97470987e-002
      -7.63492472e-003 4.71707527e-003 1.08393347e-002 1.44487871e-002
      2.55690087e-002 6.19037217e-003 2.39403150e-003 -8.97346158e-003
      -1.91774182e-002 -1.43522928e-002 4.48476057e-003 1.29049374e-002
      1.19377701e-002 2.41677798e-002 1.58815703e-003 -6.86921505e-003
      -1.44197876e-002 -2.02521379e-003 3.45185795e-003 -3.82911530e-003
      2.34834081e-003 8.31745658e-003 2.86530089e-002 1.24764424e-002
      -8.00402928e-003 -1.81040540e-002 -4.07282636e-003 2.69016344e-003
      -5.82013978e-003 8.15346092e-003 1.39190927e-002 2.48766467e-002
      -3.49973328e-003 -4.81235300e-004 -1.98494736e-002
      -3.43691558e-003 5.62784728e-003 5.17864665e-003 2.21563857e-002
      2.01030150e-002 1.73288975e-002 -3.71077820e-003 -6.90840650e-003
      -1.21656097e-002 -2.03082548e-003 1.34507585e-002 9.77417827e-003
      1.92681067e-002 3.58911864e-002 1.44662689e-002 -9.70849209e-003
      1.21506182e-002 1.33493980e-002 1.48207247e-002 -6.49505528e-003
      -3.22967507e-002 -6.11704448e-003 4.56393510e-003 1.65623762e-002
      8.65959935e-003 1.63710546e-002 1.98063031e-002 3.09566651e-002
      1.17675820e-002 -2.48533618e-002 2.09309557e-003 -9.26802121e-003
      5.85128088e-003 1.38846701e-002 6.75266376e-003 1.89953716e-003
      1.15467599e-002 4.10876097e-003 -2.14563403e-002 5.21161419e-004
      1.34697594e-002 3.43122846e-003 1.04920496e-003 9.52348579e-003
      9.21669789e-003 3.13296765e-002 5.76279964e-003 -1.72845013e-002
      2.21862947e-003 -7.67813344e-003 -9.92857013e-003 4.30294685e-003
      -4.75989236e-003 -5.86467749e-003 1.61316302e-002 1.38406251e-002
      -1.01062125e-002 2.29259604e-003 -5.98938018e-003 -1.35672363e-002
      -2.24638171e-003 -3.69542930e-003 -7.93732237e-003 3.41012346e-004
      1.16446540e-002 9.55788535e-004 -7.87267275e-003 -1.05999252e-002
      -1.55737624e-002 2.93782493e-003 -6.93923188e-003 -4.82298899e-003
      9.37755033e-003 5.56203490e-003 -8.79927771e-004 3.45082162e-003
      -1.15832444e-002 -9.32113174e-003 5.39921410e-003 1.38540436e-002
      1.74592322e-004 -2.42645154e-003 5.92358736e-003 2.44675484e-003
      -6.86950423e-003 -1.13146631e-002 -8.50698538e-003 1.98438130e-002
      1.38170151e-002 2.02960242e-002 1.75115392e-002 9.62216314e-003
      -5.66761708e-003 -1.58803724e-002 -1.72874182e-002
      -2.11674646e-002 9.98449046e-003 1.87750608e-002 2.11400818e-002
      6.29894063e-003 -7.94868078e-003 -1.35334609e-002 -1.73583757e-002
      -1.09604709e-002 -1.17813069e-002 1.04419906e-002 1.85010787e-002
      1.45119019e-002 1.03650270e-002 7.90896360e-003 -8.93137045e-003
      -2.46434305e-002 -1.82127617e-002 -1.20868813e-002 1.66917630e-002
      1.34716434e-002 1.01814857e-002 -9.62717168e-005 -7.01472582e-003
      -1.71598922e-002 -3.12284753e-002 -2.26940550e-002
      -7.65920291e-003 -7.50391686e-004 2.03941278e-002 -3.94184957e-004
      -5.79833845e-003 -1.53206252e-002 -2.39409711e-002
      -2.03698892e-002 -9.96933319e-003 -7.69581133e-003 4.81863460e-003
      2.30796542e-002 -5.17851766e-003 -1.35937892e-002 -1.04826999e-004
      -6.22407021e-003 -4.78142826e-003 4.74681426e-003 1.00902356e-002
      1.19959768e-002 1.91685297e-002 -7.59042287e-003 -1.55909080e-002
      -2.00048350e-002 -2.39942763e-002 -2.19186954e-002
      -2.13239472e-002 6.29341044e-003 4.79051564e-003 3.49357203e-002
      7.67451071e-004 -1.26756923e-002 -2.13325564e-002 -1.75156519e-002
      -1.18431973e-003 1.99867208e-002 2.18441393e-002 3.00028566e-002
      8.66168924e-003 -4.97202436e-003 -1.62610263e-002 -6.50399690e-003
      2.01872713e-003 -1.15752053e-002 -9.08689457e-004 -2.41554133e-003
      1.90010685e-002 -7.59468880e-003 -8.83113220e-003 -7.59140542e-003
      -2.49362756e-002 -1.84086580e-002 -5.70674054e-003 6.45657675e-003
      1.48976571e-003 9.01926775e-003 2.82239728e-002 -4.73649194e-003
      -9.30833165e-003 -1.59856416e-002 -4.78534820e-003
      -4.03852714e-003 1.60666984e-002 1.73022412e-002 2.79375408e-002
      1.19427443e-002 4.88396967e-004 2.35914253e-003 -1.10228900e-002
      -6.60486845e-003 -5.99541981e-003 8.08542478e-004 1.10900551e-002
      1.49925584e-002 -1.75934434e-002 -5.79297682e-003 1.21026244e-002
      -2.13060733e-002 -1.30188456e-002 1.35775842e-002 1.04601150e-002
      9.05184448e-003 -1.44511426e-003 -2.56314836e-002 -2.07440499e-002
      -8.74137226e-003 -2.84208972e-002 8.33841134e-003 9.31790564e-003
      -7.03719212e-003 -1.42161292e-003 -1.85717866e-002 4.61670756e-003
      1.20980348e-002 1.84219182e-002 -4.09894623e-003 5.82786510e-003
      1.23713668e-002 5.41179487e-003 1.85217094e-002 2.03848742e-002
      -2.84469360e-003 -1.57446750e-002 -4.25157044e-003
      -2.38481387e-002 9.74326394e-003 1.61525067e-002 5.55565523e-004
      8.75074323e-003 6.00633095e-004 9.43984278e-003 1.43841635e-002
      3.66028063e-002 2.21358854e-002 -3.68685764e-003 -1.40428413e-002
      2.19542347e-003 1.30709726e-002 1.57415159e-002 -1.96297131e-002
      3.93702202e-002 4.28010374e-002 2.18692888e-002 -1.87470969e-002
      -1.52559811e-002 -1.55733842e-002 -6.29008794e-003
      -2.58695185e-002 -1.80673040e-003 1.70129742e-002 4.75874618e-002
      1.83967389e-002 -3.68685764e-003 -3.75873186e-002 -2.63711996e-002
      -1.43337296e-002 -7.84995314e-003 -1.31722391e-002 2.91443951e-002
      3.50976102e-002 2.15486288e-002 -2.32933909e-002 -4.11928706e-002
      -5.30908927e-002 -3.36974114e-002 -2.21839286e-002
      -1.06643848e-002 3.42868492e-002 3.31022330e-002 2.76817381e-002
      -1.63872563e-003 -1.83559339e-002 -2.48052608e-002
      -1.88592193e-003 -1.09137865e-002 -1.59250330e-002 5.49637247e-003
      1.14628170e-002 2.08501779e-002 1.06654130e-002 5.54592721e-003
      -2.43663881e-002 -2.51199268e-002 -1.01947663e-002 6.51153550e-003
      2.47730557e-002 2.26104967e-002 1.58763062e-002 -1.76935866e-002
      -2.77444813e-002 -3.61265838e-002 -1.84336733e-002
      -3.78809636e-003 3.34784109e-003 8.38826969e-003 4.02660429e-004
      -9.08236858e-003 -1.36842709e-002 -7.42093939e-003
      -2.37307791e-003 -1.26775168e-003 -1.29322461e-005
      -3.03302221e-002 -1.99752599e-002 -5.49633335e-003 6.03306247e-003
      2.45930851e-002 1.93240903e-002 4.94415453e-003 -3.32707092e-002
      -1.74887106e-002 -2.91081090e-002 -2.23278608e-002 1.85849873e-004
      4.63153142e-003 3.55316140e-002 3.90069596e-002 3.66802886e-002
      -3.76770645e-003 -1.34603912e-002 -4.53996798e-003
      -2.48043006e-003 3.38486023e-003 -1.65337212e-002 -1.12070814e-002
      -5.94208715e-003 8.10292456e-003 -4.88893501e-003 -1.03514455e-002
      -1.91801041e-002 -1.03376694e-002 2.73226127e-002 6.00571511e-003
      6.07970404e-003 5.38574252e-003 2.33391859e-002 -7.97370391e-004
      -2.36296095e-002 -2.98508182e-002 -3.40762809e-002
      -1.06296763e-002 7.14490609e-003 2.11302545e-002 1.42690092e-002
      2.54753586e-002 -3.97201581e-003 -1.72901899e-002 -7.08136847e-003
      3.04876734e-003 2.31364137e-003 -9.98913310e-003 -1.67735387e-002
      -1.97639093e-002 -5.50913299e-003 -1.33538526e-002
      -5.23091620e-003 -3.27141136e-002 -2.33051348e-002 7.75706023e-003
      1.04791783e-002 1.09912893e-002 1.27998143e-002 2.48925462e-002
      4.50908579e-003 -1.99691020e-002 -1.09090926e-002 -3.01539921e-003
      7.66855851e-003 1.00264754e-002 5.52250305e-003 -5.96386194e-003
      8.56951717e-003 1.76054455e-004 -9.02857911e-003 3.51284035e-002
      3.71920466e-002 2.58119851e-002 -8.58924259e-003 -3.07919662e-002
      -2.35641170e-002 -1.11936722e-002 -1.40678221e-002 1.55834379e-002
      4.17312868e-002 2.92464979e-002 1.52696660e-002 -2.85232905e-003
      -1.00817941e-002 -6.11246377e-003 -6.49578823e-003 2.76501378e-004
      3.92558277e-002 1.23127550e-002 1.50672067e-002 1.44353798e-002
      5.14870230e-003 -9.27661452e-003 -1.60866845e-002 -1.61929727e-002
      -6.70537539e-003 7.09047588e-003 2.03666799e-002 2.26958301e-002
      8.15993268e-003 -2.62203515e-002 -2.74302401e-002 -4.35579084e-002
      -3.82569283e-002 -1.46179134e-002 1.49603896e-002 2.93790456e-002
      1.46236066e-002 1.81513699e-003 -1.75474640e-002 -1.05188349e-002
      -7.78106158e-004 1.37043446e-002 1.89183839e-002 3.88092585e-002
      -5.21817012e-003 -5.08396188e-003 2.50874157e-003 5.16087376e-003
      3.15061142e-003 1.99174501e-005 1.82297323e-002 1.11317821e-002
      6.37557590e-003 2.32128892e-002 2.04935092e-002 -6.53410330e-003
      -3.91249210e-002 -4.50326912e-002 -4.18244302e-002
      -3.15493867e-002 1.43204881e-002 3.35851088e-002 -6.33708714e-003
      -8.07052385e-003 -1.61990467e-002 -1.88500937e-002
      -1.76763032e-002 2.19014287e-003 -1.14386855e-003 1.41888589e-003
      -3.82268569e-003 -1.50060710e-002 -1.45826284e-002
      -9.69495531e-003 8.80313851e-003 7.03602890e-003 5.98857598e-003
      1.55053288e-002 1.60302576e-002 -4.51199384e-003 -6.89328602e-003
      -2.58244090e-002 -2.37459261e-002 -3.10525578e-003 4.36562719e-003
      1.49113657e-002 1.41967395e-002 1.73800457e-002 1.20645120e-004
      -1.29215904e-002 -2.36830264e-002 -2.52799802e-002 1.54423382e-004
      1.80781987e-002 1.55971665e-002 2.17893440e-002 1.77434236e-002
      -2.65711593e-003 -4.18772642e-003 -1.71856154e-002
      -2.09826771e-002 -9.51789413e-003 7.44589558e-003 5.05802175e-003
      1.90790612e-002 3.00519075e-002 6.13812357e-004 -2.42817625e-002
      -3.30764428e-002 -3.26481052e-002 -1.28915440e-002 8.55344161e-003
      1.28689231e-002 1.30658094e-002 1.02241887e-002 -5.26787201e-003
      -1.04571246e-002 -1.29290260e-002 -2.44255904e-002
      -8.81051645e-003 4.56510903e-003 8.81473906e-003 1.04032457e-002
      1.37122329e-002 3.43884923e-003 -7.46971834e-003 -9.03823879e-003
      -1.33145209e-002 -9.00016865e-004 4.08896571e-003 1.17595447e-002
      1.22780539e-002 1.21298041e-002 9.28785931e-003 6.70488598e-003
      3.92503245e-003 -2.21974519e-003 1.64491273e-002 1.61893237e-002
      7.40760565e-003 1.74157545e-002 1.35412943e-002 1.39944470e-002
      -1.05464656e-003 -2.06774976e-002 -1.96481254e-002
      -1.06686149e-002 -7.12772552e-003 8.74636229e-003 1.11054536e-002
      2.00360771e-002 7.10673723e-003 -8.64907866e-004 -5.15752891e-003
      -6.60213875e-003 -1.00237513e-002 -1.42529262e-002
      -7.61048461e-004 2.63379272e-002 1.95189938e-002 -9.08556115e-003
      7.34097417e-003 1.49836473e-003 -1.11221545e-003 1.09926816e-002
      7.96287321e-003 -1.47830062e-002 1.97131000e-003 8.69156327e-003
      1.18535431e-002 -3.15097207e-003 2.11425149e-003 3.99339944e-003
      1.47684163e-003 -3.98348598e-003 -1.25707155e-002 1.77089144e-002
      1.40732182e-002 4.48418921e-003 6.69849105e-004 7.01711047e-003
      1.18156038e-002 5.09975106e-003 -1.96110681e-002 -3.65639431e-003
      3.22623514e-002 1.42347449e-002 2.52792565e-003 7.09483400e-003
      6.72855368e-003 2.04992220e-002 -5.03696920e-003 -1.44866705e-002
      -7.80711975e-003 1.52816926e-003 -6.41992828e-003 -2.66208011e-003
      -7.64608290e-003 1.45280650e-002 2.42926106e-002 7.57264160e-003
      -1.55942598e-002 -1.13006234e-002 2.76030395e-002 1.78034790e-002
      2.55148974e-003 4.22726944e-003 4.87740710e-003 -1.45047565e-003
      -2.26141680e-002 -2.60455888e-002 -1.75595004e-002 1.73256379e-002
      1.63381174e-002 1.66413356e-002 4.39148815e-003 -9.57537536e-003
      9.18328355e-004 -2.05664523e-003 3.64630716e-003 4.01248503e-003
      5.17004449e-003 3.02617834e-003 2.11374671e-003 1.10988421e-002
      3.53934098e-004 2.20449967e-003 7.92420749e-003 6.36914326e-003
      8.57342314e-003 6.87323883e-003 3.84903210e-003 8.45594145e-003
      -9.77205485e-003 -3.09270974e-002 -2.54593566e-002
      -3.43800411e-002 -6.91956049e-003 7.52317626e-003 1.63600147e-002
      1.54925685e-003 7.51877483e-003 -1.53565286e-002 -1.82427634e-002
      -9.16285068e-003 4.08031838e-003 1.20594418e-002 2.42118109e-002
      1.28404601e-002 1.56041875e-003 -7.63865281e-003 1.31111508e-002
      8.70509259e-003 -4.59208898e-003 6.66662445e-003 -2.33215615e-004
      -3.46545898e-003 7.35268369e-003 7.28207035e-003 1.08506549e-002
      1.04169818e-002 2.93723540e-003 -1.19220382e-002 -8.35653953e-003
      -1.90678723e-002 -1.93510000e-002 -1.79382078e-002
      -1.89949654e-003 -3.05933179e-003 9.98754706e-003 1.09681031e-002
      -3.40471743e-003 4.42981161e-003 -4.13048035e-003 7.46206660e-003
      6.75933715e-003 9.40045435e-003 -3.46350978e-004 1.19999535e-002
      5.74660255e-003 9.75154992e-003 3.79074714e-003 -1.33489110e-002
      -2.26325449e-002 -2.36783624e-002 -9.22459643e-003
      -8.38026498e-003 5.90543263e-003 -8.07673950e-003 -1.10187326e-002
      -2.02650949e-002 -2.40858067e-002 -1.42506240e-002
      -1.89587623e-002 -7.44304853e-004 6.08099299e-003 2.57916860e-002
      1.35763381e-002 -7.00368197e-004 -3.07205450e-002 -2.06504054e-002
      7.02397805e-003 2.31157579e-002 2.69873347e-002 3.94044593e-002
      -2.39021983e-003 -6.92952238e-003 1.77865177e-002 8.00568797e-003
      -1.24825807e-002 -2.13169809e-002 -2.68614832e-002
      -2.75373142e-002 -2.32919324e-002 2.08379813e-002 1.71275418e-002
      1.66014135e-002 -8.02292768e-003 -5.87667432e-003 -5.99674461e-003
      5.58027823e-004 -1.80323061e-003 4.16305847e-003 2.53472570e-002
      1.36352526e-002 7.76825892e-003 -3.38915884e-002 -2.37566438e-002
      -3.52219143e-003 1.68908294e-002 2.05690153e-002 2.32504401e-002
      1.40180448e-002 5.19639766e-003 7.30762957e-003 -6.54198742e-003
      2.32254760e-003 -1.37496600e-002 -7.72944465e-003 -1.14844834e-005
      5.34474012e-003 1.36241447e-002 3.09484806e-002 6.90889684e-003
      -3.21717188e-002 -1.64091345e-002 -5.70211373e-003
      -1.16853407e-002 6.83349837e-003 4.05839738e-003 -4.39412706e-003
      -7.58896815e-003 -5.20471530e-003 4.00662981e-003 -1.01955403e-002
      -2.11369921e-003 -2.15041582e-002 -1.01814326e-002
      -1.62255559e-002 -6.28592167e-003 2.18715100e-003 1.16276154e-002
      -2.64541060e-003 2.69725197e-003 -4.80515533e-004 -1.40335402e-002
      8.70187650e-005 -1.39801682e-003 -1.19803008e-002 -1.44920973e-002
      -8.91494751e-003 -2.43858863e-002 1.47213312e-002 5.45251789e-003
      -7.81925209e-003 4.29745903e-003 -8.57417565e-003 -6.03685621e-003
      -7.67266937e-003 -7.87750687e-005 1.03344051e-002 -8.13578349e-003
      8.72601289e-003 -8.42923205e-003 -7.49328732e-003 -9.90075618e-003
      -1.56307574e-002 -2.54497427e-004 -8.78901570e-004
      -2.16724421e-003 1.45951500e-002 1.66257191e-002 1.06304120e-002
      6.33402215e-003 -1.05851209e-002 8.23126920e-003 2.14826409e-002
      3.74912657e-002 1.98886730e-002 -1.86142174e-003 -8.18442274e-003
      -4.30243649e-003 -8.74614622e-003 3.93442606e-004 1.38302566e-002
      2.16588210e-002 2.76051946e-002 1.68821160e-002 -2.67162430e-003
      -1.60511788e-002 -2.29657032e-002 -2.88923550e-002 2.77851592e-003
      -1.36407581e-003 -2.09149695e-003 8.16833414e-003 -8.70327931e-003
      -1.86142174e-003 -2.84837303e-003 1.32870730e-002 -6.58155745e-003
      -9.96483583e-003 1.40549906e-004 -1.02955559e-002 -8.73978809e-003
      -1.35171656e-002 3.05515761e-003 8.48438405e-003 -7.90992007e-003
      -2.53186710e-002 -1.90906283e-002 2.40754243e-002 1.79394428e-002
      1.86078344e-002 6.76508062e-003 -4.50161425e-003 -1.55116245e-002
      -1.69698801e-002 -2.33642245e-003 1.32904621e-002 -2.29074224e-003
      9.42872837e-003 5.17288921e-003 -1.86136942e-002 -1.67655945e-002
      3.07366811e-003 1.25834988e-002 1.56280026e-002 -6.72842842e-003
      1.22683831e-002 1.20953256e-002 3.93828982e-003 -2.01202948e-002
      -4.81482595e-003 -1.53628588e-002 -1.66394711e-002
      -1.08184805e-002 -3.42820259e-003 -8.61917250e-003 1.12218214e-002
      1.12958262e-002 -7.69383414e-003 1.46685052e-003 -1.01659140e-002
      -1.44383274e-002 -6.89893123e-003 -2.53598727e-002
      -4.23220079e-003 -4.06250078e-003 -2.87940539e-003
      -2.68165227e-002 -2.35951059e-002 -1.74234365e-003 5.82840340e-003
      -1.40041730e-003 -1.28292441e-002 3.67714674e-003 -2.38019344e-003
      1.67602580e-002 1.24859847e-002 1.34662380e-002 1.67149175e-002
      1.92448273e-002 3.00936983e-003 -9.75695904e-003 -2.16417257e-002
      -6.89001149e-003 -3.22789070e-003 -2.18258910e-002
      -3.72117083e-003 1.30144404e-002 1.84755772e-003 -9.52428952e-003
      -3.73774208e-002 -2.05997285e-002 -1.11195436e-002
      -1.79181565e-002 -2.27520897e-004 3.22778821e-002 3.46989185e-002
      2.25321557e-002 3.42254480e-003 -1.97273940e-002 -1.81380585e-002
      -3.54740582e-002 -1.49421329e-002 1.46105606e-002 2.85389759e-002
      1.41656650e-002 8.78316257e-003 -1.01972362e-002 -1.25798266e-002
      -1.28634914e-003 -1.62685718e-002 8.09268840e-003 1.12504503e-002
      9.74592753e-003 -3.45525146e-003 8.85833427e-003 3.05677986e-006
      3.34506249e-003 -3.63756865e-002 -4.56206836e-002 -3.90204899e-002
      7.72070792e-003 4.56118025e-002 2.10348498e-002 1.00031998e-002
      -1.33303683e-002 -1.59710143e-002 -1.71683114e-002
      -2.42397524e-002 -1.15336273e-002 1.12163639e-002 1.97791066e-002
      1.33268125e-002 1.31404651e-002 -9.02250595e-003 -8.15040525e-003
      2.63713133e-002 1.06488839e-002 7.72312609e-003 8.40690453e-003
      6.36936352e-003 -2.89780251e-003 5.83169423e-003 1.81485265e-002
      2.75909808e-002 3.08451839e-002 1.89816821e-002 -7.11319176e-003
      -2.14273687e-002 -2.89325267e-002 -4.00876254e-002
      -3.82637121e-002 -3.00028222e-003 1.92086417e-002 1.28664337e-002
      -8.47862754e-003 -1.45275919e-002 -4.37543076e-003
      -3.33987456e-003 -1.59912440e-003 1.43155744e-002 1.89575125e-002
      1.61740649e-002 9.83756315e-003 1.49276794e-003 -1.59464199e-002
      -4.09051739e-002 -2.92587299e-002 -3.84622626e-002
      -2.21976042e-002 5.48641384e-003 9.94323567e-003 4.16136459e-002
      1.95341110e-002 -1.57164223e-002 -4.72987331e-002 -4.75456789e-002
      -4.01779748e-002 -4.47465181e-002 1.21954335e-002 4.36929390e-002
      2.40693986e-002 1.13544799e-002 -1.27449036e-002 -2.11219918e-002
      -2.30133664e-002 -1.20926788e-003 -4.35872329e-003 2.03348007e-002
      2.53035314e-002 2.83658691e-002 7.70144444e-003 -2.19213087e-002
      -4.47090119e-002 -4.09133621e-002 -3.78312357e-002
      -3.45262326e-002 -2.14400887e-003 2.00720765e-002 9.30947345e-003
      2.36398797e-003 -4.13810648e-003 -1.59265418e-002 -1.39068766e-002
      3.64493974e-003 -4.17173468e-003 8.53045937e-003 4.93385084e-003
      1.01671107e-002 1.44788384e-004 -1.34649989e-003 5.17526083e-003
      1.43259019e-002 6.06246479e-003 1.91771686e-002 1.51247745e-002
      9.85781103e-003 1.08562419e-002 -1.78485904e-002 -2.26695389e-002
      -5.45863947e-003 2.88858567e-003 -8.42456985e-003 8.13886803e-003
      1.59639418e-002 1.70453191e-002 -1.81144197e-002 -1.27634164e-002
      -1.87726913e-003 1.27126146e-002 1.60132963e-002 1.92065965e-002
      1.08482614e-002 -8.65342375e-003 -1.62128117e-002 -1.06890406e-002
      -1.75804198e-002 -1.56251378e-002 -9.97918285e-003
      -1.16429953e-002 -1.03101144e-002 -8.30396079e-003
      -2.21052226e-002 -1.70320421e-002 1.62593313e-002 -1.16959605e-002
      -1.15108723e-002 -6.87407854e-004 -1.13821533e-002
      -8.74638092e-003 -6.16080407e-003 1.02544122e-003 1.76693872e-002
      1.75262019e-002 6.05914555e-003 1.63384117e-002 2.09100209e-002
      2.15740856e-002 1.28948456e-002 2.12628040e-002 5.59776649e-003
      1.49640478e-002 -1.37407624e-003 -1.36671513e-002 -1.31104961e-002
      -5.21560526e-003 -1.27139743e-002 -2.01924443e-002
      -2.97038704e-002 -3.07434089e-002 -7.16177048e-003
      -1.21957380e-002 -1.34632466e-002 1.61732398e-002 2.32261289e-002
      1.27306851e-002 -6.06175186e-003 -1.27988709e-002 -1.52749410e-002
      -7.84918386e-003 1.05876764e-002 8.42725486e-003 1.35111772e-002
      2.43970752e-002 2.47580186e-002 -2.30124430e-003 9.04486049e-003
      3.41481715e-003 -4.47712932e-003 1.46796717e-003 3.37647973e-003
      2.25107372e-002 1.17501765e-002 -1.10224662e-002 -1.61107238e-002
      4.78870841e-003 6.47504785e-005 -1.90308038e-003 -1.55547084e-002
      -1.21405665e-002 6.81149028e-003 1.49182938e-002 9.45897494e-003
      -6.84149703e-003 -3.56638152e-003 -1.27832899e-002
      -2.63222046e-002 9.48727503e-003 1.63809992e-002 4.72071953e-003
      -1.34644248e-002 -2.03041639e-002 -6.47731638e-003 2.80680414e-003
      6.46641804e-003 -3.08875740e-003 -9.56617203e-003 9.19964723e-003
      3.29258740e-002 2.75019952e-003 -2.49461103e-002 -5.86926145e-003
      1.39866769e-002 1.17287552e-002 9.33319144e-003 1.68193076e-002
      1.52203245e-002 1.14781205e-002 -2.63568629e-002 -3.39254439e-002
      -1.76301431e-002 -8.82352889e-003 1.36906151e-002 1.91452894e-002
      6.26595365e-003 1.60466321e-002 1.22721754e-002 -7.46686896e-003
      -1.68552287e-002 1.57879889e-002 1.48432199e-002 1.38309635e-002
      9.22076683e-003 2.39481125e-002 1.49143487e-002 6.58708392e-004
      -1.61046628e-002 -3.07529308e-002 -4.64511942e-003
      -6.92272559e-003 1.54211596e-002 1.49517609e-002 8.14746600e-003
      -7.98408873e-003 -8.02744273e-003 -2.77233161e-002
      -1.58128738e-002 -1.11963013e-002 -1.19490251e-002
      -8.87708925e-003 8.19584914e-003 -1.00965779e-002 -1.52925188e-002
      2.64556683e-003 2.17388794e-002 1.81744918e-002 2.02387497e-002
      1.35422973e-002 -1.35449627e-002 -1.18459631e-002 -3.38362152e-004
      8.06850556e-004 3.71304480e-003 -1.92000426e-003 -6.83726091e-003
      -6.32200576e-003 -1.37126101e-002 -2.11782614e-003 1.00408040e-003
      -1.77921019e-002 -1.78536065e-002 6.35399390e-003 2.69683730e-002
      2.82022581e-002 2.40395740e-002 1.42881526e-002 -6.52610278e-003
      -1.14834532e-002 3.78565420e-003 7.01944344e-003 -4.00550663e-003
      1.49244089e-002 9.85643012e-004 -8.68688570e-004 4.00914392e-003
      2.75915861e-003 2.39618705e-003 4.45121154e-003 7.86686316e-003
      1.37540000e-002 1.15149245e-002 -1.41378222e-002 -2.31936127e-002
      -2.98216250e-002 -9.79658682e-003 -5.84260281e-003
      -1.54954512e-004 -9.75965243e-003 -3.32349865e-003 2.38392744e-002
      6.18007593e-003 5.27497788e-004 2.17695115e-003 5.69803221e-003
      5.21369558e-003 2.73880246e-003 -1.05008460e-003 3.82336299e-003
      9.93930735e-003 -9.33770742e-003 -1.05380733e-002 -1.69200078e-002
      1.03798006e-002 9.01187304e-003 -2.48343172e-003 -7.59851513e-003
      2.00613905e-002 1.34863080e-002 -6.59633288e-003 -9.35907476e-003
      -1.28423525e-002 -2.39381008e-002 -1.82127934e-002 1.12330131e-002
      4.89666453e-003 2.22841538e-002 4.21785656e-003 1.14894509e-002
      1.65451746e-002 1.54390531e-002 2.46388651e-003 3.76037741e-003
      -1.79281458e-002 -2.31320374e-002 -1.03096459e-002
      -3.49052716e-003 -4.29583015e-003 -9.73767228e-003 7.92765699e-004
      -3.39824706e-003 -9.63519327e-003 -1.02561926e-002
      -1.59589704e-002 8.15244508e-004 -2.97024637e-003 7.16856960e-003
      2.22643055e-002 2.29904708e-002 4.69977828e-003 -1.43601431e-003
      5.04016038e-003 -1.30122423e-003 -1.22766872e-003 -1.14422748e-002
      -6.94486685e-003 1.49756353e-002 2.98388535e-003 7.53467716e-003
      5.14277723e-003 -8.46540462e-003 -8.30953941e-003 -4.33469238e-003
      9.79757309e-003 -2.99740792e-003 2.16117483e-002 -7.01840641e-003
      -8.12178571e-003 -9.71443299e-003 -5.62434131e-003
      -1.53589593e-002 -3.07115191e-003 1.10895960e-002 7.91888684e-003
      3.05257272e-002 2.32852083e-002 1.25082384e-004 6.39631413e-003
      -1.53475795e-002 -1.96145903e-002 -6.72645587e-003
      -4.29281779e-003 -8.87869485e-003 1.61491856e-002 1.74067970e-002
      -1.15109896e-002 -1.61986575e-002 -1.31343789e-002
      -6.33864244e-003 3.93773988e-003 1.20200412e-002 -7.85768218e-003
      9.43246670e-003 -5.31627238e-003 -1.30553944e-002 -2.54839491e-002
      -1.10951774e-002 -1.25152590e-002 3.78255383e-004 7.33941735e-004
      1.01351412e-002 1.49305239e-002 5.39973611e-003 4.85367840e-003
      -2.23490931e-002 -2.92086955e-002 -2.24457718e-002 2.04352685e-003
      -3.92098911e-003 -2.94416037e-004 1.29024722e-002 9.43548325e-003
      -2.64585717e-003 -3.27661671e-002 -5.64074982e-003
      -2.34404244e-002 6.65272912e-003 -3.51708406e-003 1.01351412e-002
      2.93075051e-002 8.17628577e-003 1.16812065e-002 -1.58012938e-002
      -5.94963413e-003 -4.52576298e-003 1.32367574e-002 8.15634674e-004
      -1.47412885e-002 -2.46409494e-002 -2.05655838e-003
      -1.65201556e-002 -1.48822041e-002 -1.50963096e-002
      -2.17167232e-002 -2.63315183e-003 -1.08990893e-002
      -1.14829009e-002 -3.96009535e-003 -2.14804355e-002
      -2.92779114e-002 -3.32323276e-002 -2.55431980e-003 6.63102046e-003
      2.86033414e-002 2.73122806e-002 -1.45585621e-002 -2.07630880e-002
      1.21247200e-002 -7.65593816e-003 -6.81774039e-003 2.36330405e-002
      2.12328639e-002 4.91363183e-002 3.67505439e-002 1.85486227e-002
      2.26309683e-004 1.72299671e-003 -9.38751362e-003 1.51335113e-002
      3.33665404e-004 -8.65536090e-003 -1.31222783e-002 -2.01588906e-002
      -2.45642941e-002 -2.55678389e-002 -1.82184298e-002
      -7.12589594e-003 -5.17199142e-003 -5.95123507e-003
      -5.94637170e-003 -1.36445900e-002 -7.27620116e-003
      -1.48713589e-002 -3.56760323e-002 -2.71545462e-002
      -8.78433511e-003 -6.72567822e-003 1.95551515e-002 1.67490728e-002
      2.41414574e-003 -7.26511644e-005 -1.41801434e-002 -2.28988882e-002
      8.36554274e-004 1.50256166e-002 1.88576616e-002 2.56187562e-002
      1.04231704e-002 -2.51780748e-002 -7.72194751e-003 -1.13183111e-002
      -2.74272356e-002 1.01490086e-002 1.66629907e-002 2.11213566e-002
      -2.43770797e-002 -8.14185850e-003 -5.08514885e-003 2.40769761e-004
      -6.48144807e-004 -3.35183227e-003 3.03925539e-004 1.85936003e-003
      -2.00993773e-002 -2.49159187e-002 -2.49139480e-002
      -2.55690273e-002 -7.55448360e-003 6.37200614e-003 1.57202631e-002
      1.84042156e-002 1.08373920e-002 -1.81975421e-002 1.75423250e-002
      -7.95221888e-004 -9.42016859e-003 4.33449214e-003 7.92722777e-003
      -6.39944151e-003 3.19662243e-002 3.22094448e-002 1.84317809e-002
      7.80650834e-003 -3.69901881e-002 -2.69738529e-002 -1.28541924e-002
      1.18541240e-003 -1.70003548e-002 1.08477455e-002 1.86736346e-003
      8.25191196e-003 -2.24573053e-002 -3.79443020e-002 -2.68910043e-002
      2.63581518e-003 3.97466347e-002 1.47638880e-002 1.21084759e-002
      1.42405741e-003 -1.01408456e-002 -4.27317992e-003 -1.21378889e-002
      -7.35412003e-004 1.98852606e-002 4.17087786e-002 2.12379843e-002
      1.00883208e-002 -1.05655668e-002 1.38223392e-003 -4.31198999e-003
      -3.49901728e-002 -1.67475566e-002 -9.84052289e-003 1.96785256e-002
      -1.37226786e-002 -4.57861368e-003 -7.11552287e-003
      -1.06894281e-002 3.17806425e-003 -1.28425071e-002 -5.83477831e-003
      9.75910574e-003 1.58943385e-002 -7.39307888e-003 -1.35183400e-002
      -2.83617396e-002 -4.58497833e-003 -2.78857001e-003
      -7.07073743e-003 -4.80846874e-003 4.10658633e-003 5.92862489e-004
      3.47426772e-004 2.33636424e-003 5.46181435e-003 9.68820043e-003
      2.50041056e-002 6.31755916e-003 -5.36056655e-003 -3.62213999e-002
      -2.06112713e-002 -2.40066126e-002 -5.37790405e-003 1.56758185e-002
      1.34645626e-002 1.50623331e-002 1.62338242e-002 1.50616113e-002
      8.96345265e-003 -2.36144406e-004 -1.22007057e-002 -1.55184017e-002
      -1.04173936e-003 1.55255757e-002 2.21186019e-002 1.93197113e-002
      4.63697407e-003 -2.51572803e-002 -1.13508618e-002 -1.25302104e-002
      -7.08135078e-003 -5.13633993e-003 3.84104345e-003 2.57048979e-002
      1.90830079e-003 -2.05477737e-002 -3.06839831e-002 -1.30854854e-002
      -1.15074506e-002 -2.52163503e-002 -1.85699258e-002 5.53622888e-003
      2.60171131e-003 -1.37159647e-002 -2.41192970e-002 3.81489052e-003
      1.46805793e-002 2.04148814e-002 -2.66328827e-002 -2.80638095e-002
      -4.31280816e-003 2.21597496e-002 1.64196584e-002 -2.94833351e-003
      -2.15191413e-002 -6.08223816e-003 2.99639942e-004 -1.85670964e-002
      -1.33845052e-002 1.45275248e-002 8.76263436e-003 1.43286828e-002
      1.19799608e-002 1.45567581e-002 1.92532334e-002 1.25335148e-002
      -3.64044793e-002 -3.01024187e-002 -1.37236458e-003
      -1.31119620e-002 -1.88851859e-002 -1.63361933e-002 1.16806002e-002
      2.15678904e-002 2.96522789e-002 -1.09829172e-003 -2.12936010e-002
      -1.31824985e-002 -4.68554208e-003 -5.11668064e-003
      -1.47012183e-002 -1.69284735e-002 -1.09346127e-002
      -6.04053587e-003 -7.37720449e-003 -1.27612054e-002
      -7.87924416e-003 -1.75825192e-003 -5.10717370e-003
      -9.80786234e-003 1.65909044e-002 2.54340023e-002 1.98952835e-002
      -1.53591605e-002 -1.79982334e-002 -7.14271143e-003 7.73801515e-003
      -5.40605746e-004 -1.50460610e-003 -1.80744994e-002 6.09261636e-003
      8.16221442e-003 1.29030468e-002 9.10950825e-003 6.76432997e-003
      1.34724585e-004 8.02120753e-003 -1.12629468e-002 -7.49058835e-003
      -1.85333367e-003 -1.52493464e-002 -2.82684341e-002
      -1.81518737e-002 -1.30428057e-002 3.28131486e-003 2.33579911e-002
      2.28995308e-002 1.90487131e-002 1.16541525e-002 -1.74904410e-002
      -2.07149591e-002 -2.03263778e-002 -9.29531734e-003 1.83876026e-002
      1.61951296e-002 1.56866722e-002 -1.16806049e-002 -6.09861803e-004
      -1.81318063e-003 -4.39464906e-003 -3.62832705e-003
      -1.06375013e-002 2.07598563e-002 3.38600427e-002 4.02299315e-002
      -8.18605069e-003 -6.61775935e-003 -1.41281448e-002
      -1.92571152e-002 -1.61911845e-002 -6.96731033e-003
      -5.76833682e-003 5.36623085e-003 1.36769880e-002 1.28558166e-002
      9.37446393e-003 -1.66565087e-002 -1.89298932e-002 -2.24017818e-002
      -1.47595862e-002 3.44042969e-003 9.28435847e-003 2.52423692e-003
      2.92108068e-003 -8.68690666e-003 7.71309761e-003 4.08580434e-003
      4.46300022e-003 -5.11380192e-003 1.28275054e-002 1.50248436e-002
      1.19423596e-002 -4.03342070e-003 3.68064735e-003 -1.45887835e-002
      -1.12905009e-002 -5.82110882e-003 -2.49635172e-003 5.54224802e-003
      -6.69145025e-004 2.26351973e-002 -3.08934541e-004 -1.32950693e-002
      -3.48928664e-003 2.25959402e-002 1.01203108e-002 1.65230397e-003
      -3.78733152e-003 -2.74934270e-003 -6.66349614e-003
      -1.24865491e-002 -2.60248184e-002 1.79314464e-002 2.91913114e-002
      2.11643074e-002 5.44456253e-003 -5.71642246e-004 -4.29168547e-004
      -5.01981284e-003 -1.69453975e-002 -3.32110338e-002 8.99978355e-003
      2.17121169e-002 1.22068208e-002 4.67264280e-003 7.24993134e-003
      -6.51410595e-003 9.19308141e-003 -1.48925660e-002 -1.94512233e-002
      1.36057576e-002 3.73182148e-002 1.94616895e-002 6.70672581e-003
      2.24820618e-002 9.42319911e-003 1.26899201e-002 -1.97831225e-002
      -1.56416614e-002 1.62670985e-002 2.92349085e-002 1.37431100e-002
      1.03950454e-002 2.21402873e-003 8.74872599e-003 -2.11687107e-003
      -7.26259407e-003 -1.36371590e-002 -3.59328813e-003 1.27417105e-003
      -3.75722884e-003 1.91085972e-003 -5.83355129e-003 -8.76098871e-003
      -1.52181052e-002 -1.31173681e-006 4.20727581e-003 1.28954602e-002
      2.27377261e-003 -7.01561337e-004 -3.70431505e-003 3.35833319e-002
      2.09289361e-002 -2.76908744e-003 -1.16778677e-002 -2.64927209e-003
      3.70740169e-003 1.42384805e-002 -2.17924942e-003 6.52939361e-003
      -5.70922159e-003 3.27615626e-003 -7.86116067e-003 -9.81493760e-003
      -7.27559393e-003 -1.24179001e-003 6.98300265e-003 1.56480848e-004
      -5.66841429e-003 -5.36301732e-003 -3.19033116e-002
      -2.23250091e-002 -3.04860971e-003 2.18827336e-004 1.34616857e-002
      4.18633316e-003 5.62758278e-003 3.90877528e-003 9.93487705e-003
      -1.75315738e-002 -1.65088437e-002 -9.72302351e-003
      -1.05135366e-002 1.02798976e-002 1.42193818e-002 2.54852772e-002
      1.76220927e-002 -2.20201798e-002 -9.75428801e-003 -2.01101124e-004
      -7.31271366e-003 -7.86835421e-003 1.62067879e-002 1.18833119e-002
      4.19151224e-003 -2.66874279e-003 -2.68677995e-003 -2.90968991e-003
      -6.39306474e-003 -1.47620104e-002 -2.13839347e-004 3.06575391e-002
      4.39455435e-002 2.85580829e-002 1.41451173e-002 -6.46846183e-003
      -1.29055222e-002 -8.94128159e-003 -7.26471795e-003 2.71221530e-003
      1.19379750e-002 1.32411001e-002 2.36007348e-002 -2.00658571e-004
      -3.68924416e-003 -8.15446489e-003 -4.10616491e-003
      -2.84772902e-003 -9.98721551e-003 1.56118092e-003 3.90626909e-003
      9.27267503e-003 -5.15568024e-003 -1.05383405e-002 -9.19516664e-003
      -2.36595888e-003 6.98449044e-003 4.33012657e-003 1.80160832e-002
      3.13438550e-002 3.39650586e-002 -8.03545490e-003 -6.31308323e-003
      2.92498874e-003 1.06579494e-002 -6.13376731e-003 -1.75628010e-002
      -1.18007725e-002 8.24651215e-003 1.36914346e-002 -9.91451088e-003
      4.15665517e-003 -5.78048872e-003 6.04650844e-003 1.08204419e-002
      2.36172462e-003 2.55539156e-002 2.35770587e-002 1.20445015e-002
      8.35293438e-003 -1.07141342e-002 -8.09976831e-003 4.51183040e-003
      1.21844048e-002 5.86229982e-003 2.24669930e-002 1.86383277e-002
      6.82240073e-003 1.09928648e-003 -1.24834543e-002 -2.65620300e-003
      1.44258002e-002 -1.38387717e-002 -4.41357158e-002 -7.32143782e-003
      5.74650755e-003 1.30300131e-002 -1.62608512e-002 -1.17435921e-002
      -4.31487476e-003 8.58203694e-003 -4.30790614e-003 -9.53021273e-003
      6.28840690e-003 1.02167530e-002 1.13090165e-002 -1.16612334e-002
      -1.33252693e-002 -7.74234161e-003 6.83182990e-003 1.39542315e-002
      1.45970909e-002 9.29357205e-003 -6.47197058e-003 -2.62284093e-003
      -1.65694151e-002 -8.37443303e-003 1.59625628e-003 1.93898603e-002
      2.29365826e-002 1.47487139e-002 2.05592476e-002 1.41695852e-003
      1.37008366e-003 -1.39949461e-002 -3.31000425e-002 -2.27881763e-002
      1.25133675e-002 1.41977817e-002 2.11426499e-003 -1.11818891e-002
      -1.72200408e-002 -1.02097979e-002 -3.22898850e-002
      -3.47789302e-002 -7.23778328e-004 3.99512239e-002 1.41242938e-002
      1.36011038e-002 -2.52168085e-002 -2.39618756e-002 -2.20882874e-002
      -4.14504670e-002 -1.25802569e-002 6.74663205e-003 1.63694359e-002
      1.30984513e-002 -1.30095072e-002 -2.86993403e-002 1.08950017e-002
      -4.71410429e-004 -1.95613969e-002 1.52450486e-003 1.65022612e-002
      3.30403410e-002 3.14435549e-002 2.11478360e-002 9.77192633e-003
      2.18590293e-002 2.96670757e-003 2.19292022e-004 -2.59390958e-002
      -1.14147656e-003 -7.54320761e-004 7.46195728e-005 -1.24185309e-002
      -4.16657776e-002 -6.01527141e-003 -2.75417045e-003
      -2.63557974e-002 -3.18181962e-002 -1.91800464e-002
      -1.49011463e-002 3.13763437e-003 1.35147180e-002 8.22923053e-003
      1.76230818e-002 4.80014272e-003 -1.69331934e-002 4.56198212e-003
      1.95307960e-003 2.04726076e-003 1.40230116e-002 9.23660677e-003
      5.90518583e-003 1.97005179e-002 1.36397462e-002 6.72541605e-003
      -7.54341716e-003 -1.13442084e-002 -1.53826335e-002 5.03152935e-003
      1.41178379e-002 1.72032062e-002 2.27235816e-002 4.29076282e-003
      -3.32230877e-004 -1.87082347e-002 -1.92045532e-002
      -9.63456742e-003 1.11776860e-002 -1.84744084e-003 3.28170066e-003
      1.51049718e-002 3.05697741e-003 -7.57436454e-003 -2.72987057e-002
      -3.50730866e-002 -2.62429398e-002 -2.61870841e-003 1.84691011e-003
      9.65398084e-003 4.79771197e-003 -1.48874363e-002 -2.51701232e-002
      -1.10444473e-002 -1.31912259e-002 -7.39999907e-003 8.56705941e-003
      3.07879243e-002 2.98119411e-002 2.61471123e-002 1.25775328e-002
      1.81226013e-003 -7.44910771e-003 -2.83026025e-002 -1.67966951e-002
      -5.14296396e-003 2.64155939e-002 3.89531115e-003 1.56363305e-002
      6.67940127e-003 2.13773991e-003 -2.74014641e-002 -3.01269554e-002
      -2.47738119e-002 3.70104518e-003 6.22295821e-003 1.67136155e-002
      -6.90170703e-003 -1.15002384e-002 -2.87758969e-002 1.29071763e-003
      -2.23111790e-002 -1.41252019e-002 -6.77701738e-003 7.40200793e-003
      5.54405572e-003 -8.07853509e-003 -4.39005438e-003 6.70955563e-003
      -6.78242045e-003 -2.77071632e-002 -2.17154864e-002
      -1.76888220e-002 -4.05574450e-004 -2.11211983e-002
      -5.48876217e-003 -1.27793727e-002 -5.64531703e-003 5.38838189e-003
      -7.53957033e-003 -1.29917366e-002 -2.26035295e-003 8.08783527e-003
      -1.07317474e-002 -1.05278427e-002 -1.86016411e-002
      -3.59591935e-003 2.66036182e-003 -1.37397405e-002 -3.86216259e-003
      -1.83001962e-002 -3.33946780e-003 -6.77572796e-003
      -4.73159878e-003 -1.43104151e-003 8.30390677e-003 1.99203435e-002
      2.95194495e-003 1.70762371e-003 -1.25606861e-002 2.01742481e-002
      -1.49143700e-004 2.73506111e-003 1.80745423e-002 3.28922160e-002
      3.37510346e-003 -7.92389829e-003 -1.36937164e-002 -8.31106212e-003
      1.07278414e-002 -2.13959124e-002 -3.02068349e-002 -1.74114164e-002
      -2.54646060e-003 8.38998798e-003 2.79372046e-003 -2.06894130e-002
      -3.07527706e-002 -9.45627503e-003 -3.12218778e-002
      -3.92292403e-002 -1.18598463e-002 2.13557316e-004 2.53672544e-002
      -1.17401350e-002 -2.48952443e-003 -1.18312091e-002 2.42820978e-002
      -8.46821815e-003 -8.32193810e-003 1.24247503e-002 3.41378078e-002
      3.03173512e-002 8.92102160e-003 1.03504658e-002 2.58689281e-003
      1.27250776e-002 -6.47985749e-003 -1.64635684e-002 -8.93221702e-003
      7.47628463e-003 1.02435770e-002 1.56378036e-003 -3.63529241e-003
      -2.23125424e-002 -8.61731172e-003 -2.35983450e-002
      -3.27571370e-002 -2.42613442e-002 7.01049156e-003 4.03565262e-003
      1.03921872e-002 2.05008388e-002 7.30984751e-003 2.92282295e-003
      -1.72794070e-002 -3.94394845e-002 -3.09314914e-002
      -5.19568287e-003 2.22317073e-002 1.14450520e-002 2.30833683e-002
      1.00514339e-002 6.94603845e-003 -2.38565216e-003 -1.14220437e-002
      -1.65735167e-002 3.47783533e-003 1.94841798e-003 1.47134503e-002
      1.55074112e-002 5.06060850e-003 7.05937110e-003 -6.54695928e-003
      -9.14477091e-003 -1.91022027e-002 -6.29493129e-003
      -1.71341270e-003 8.13767686e-003 2.30999361e-003 1.74165622e-003
      1.74042638e-002 -7.17441412e-003 -1.68857817e-002 -1.59134492e-002
      -6.01485232e-003 -1.98546611e-003 -6.78144395e-003
      -8.52683652e-003 -1.95829812e-002 -8.18272121e-004
      -5.90788852e-003 -1.04446337e-002 -1.09140007e-002
      -2.59328401e-003 7.34411599e-003 2.72992309e-002 1.20533518e-002
      4.86664055e-003 2.05228850e-003 -1.41487308e-002 -1.47587936e-002
      -1.56392492e-002 -2.70544598e-003 5.22376597e-003 2.17400994e-002
      1.35980255e-003 -3.31258145e-003 -1.15774050e-002 -1.70171820e-002
      -2.94137187e-003 -1.60283428e-002 -6.54675206e-003 1.99474804e-002
      1.22365281e-002 7.17557268e-003 -4.44621220e-003 4.74842219e-003
      2.74292779e-005 -6.06085174e-003 -1.28652938e-002 -1.31775616e-002
      5.76250674e-003 1.34182097e-002 1.59033928e-002 -1.96335129e-002
      -2.31193844e-002 -2.36800173e-003 -1.55237634e-002
      -2.09891833e-002 -1.28850983e-002 2.80026011e-002 1.11540034e-002
      -1.20192915e-002 4.05985070e-003 4.20246925e-003 -5.23319654e-003
      1.30310673e-002 -9.44319926e-003 1.15460344e-002 7.14825885e-003
      -1.17621934e-002 -1.15465159e-002 -9.75807197e-003
      -1.08237294e-002 -1.13238478e-002 -1.28152240e-002
      -2.36149654e-002 6.40901551e-003 8.61087162e-003 -3.07873287e-003
      9.41985752e-003 -4.84628929e-003 -3.90953245e-003 8.08732398e-003
      6.84202823e-004 -1.89640780e-003 1.81126385e-003 4.92407102e-003
      3.18200141e-003 2.55786590e-002 8.78133904e-003 -5.26828039e-003
      8.11319798e-003 3.42224236e-003 -5.27115958e-003 1.72883878e-003
      -7.85588846e-003 -1.06739122e-002 1.24105467e-002 -3.76824592e-003
      -2.46470198e-002 5.26571414e-003 -1.51457163e-002 -2.10503712e-002
      -1.30654154e-002 -1.24007417e-002 -7.50343595e-003 1.03133926e-002
      2.34938823e-002 -2.29862239e-002 -7.11351633e-003 -6.20181859e-003
      3.65959574e-003 -6.34522131e-003 6.49396842e-003 1.49722602e-002
      2.32421551e-002 8.57473910e-003 -4.43161651e-003 1.90283395e-002
      1.74123198e-002 -2.62319879e-003 6.26867404e-003 1.93358175e-002
      1.97408050e-002 1.75623372e-002 1.37639430e-003 -1.29359374e-002
      1.75999478e-002 1.73214655e-002 5.26538491e-003 1.47056533e-002
      -5.06314915e-003 4.78417007e-003 -1.58542884e-003 3.36593064e-003
      -3.17789987e-002 -2.22691731e-003 4.76954924e-003 3.82071547e-003
      7.71454303e-003 2.06178310e-003 -1.42860110e-003 -1.34395715e-002
      -2.41894629e-002 -3.88719887e-002 9.41400882e-003 8.59056134e-003
      -8.04632623e-003 4.36774734e-003 2.62231920e-002 1.50397765e-002
      1.52805308e-002 7.48836389e-003 -6.86838338e-003 1.06058260e-002
      9.93174314e-003 -1.42427944e-002 5.19313663e-003 -4.77605360e-003
      -7.05455523e-003 1.10500846e-002 8.07253737e-003 1.28250150e-003
      1.69164147e-002 1.37524707e-002 -3.85507988e-003 -7.04053370e-003
      -7.04938592e-003 1.37149869e-002 1.40567664e-002 -1.01813581e-002
      -1.62644219e-002 9.85732116e-003 -8.76596291e-003 -1.20519521e-002
      -8.13802890e-003 -1.24662099e-002 -1.03983376e-002 2.42589843e-002
      2.03073546e-002 9.33734048e-003 1.08848242e-002 -9.96238086e-003
      -3.88178416e-002 -2.41587069e-002 2.56763160e-004 -5.76130580e-003
      1.10301254e-002 2.05036644e-002 9.82697867e-003 1.82024576e-002
      1.50786862e-002 6.22342294e-003 8.02699663e-003 -1.49324546e-002
      -8.24516232e-004 4.09290800e-003 2.48396564e-002 9.55561921e-003
      3.01694460e-002 3.00497152e-002 4.23327973e-003 -2.35442934e-003
      -2.26018373e-002 -2.10060552e-002 2.22275686e-003 1.86241381e-002
      -3.31637659e-003 9.65139735e-003 5.09350654e-003 2.49307686e-005
      -9.05546639e-003 -4.60023852e-003 -6.07958250e-003
      -1.74976643e-002 -8.33011512e-003 -1.72638651e-002 3.71445436e-003
      7.89678097e-003 -9.10079014e-003 -9.93609615e-003 -2.16728412e-002
      -1.45349391e-002 -2.38021463e-003 2.40823794e-002 2.15873104e-002
      3.15803029e-002 3.45851108e-002 1.24310991e-002 -1.49545195e-002
      -1.01506431e-002 -1.18436571e-002 4.77826368e-004 7.42570451e-003
      2.49785162e-003 1.84325725e-002 1.55183123e-002 9.72083025e-003
      -2.02338416e-002 -1.89655721e-002 -5.36523620e-003
      -4.34859237e-003 1.49049331e-002 -2.83026160e-003 5.03233960e-003
      9.06716392e-004 -3.09020816e-003 -1.67346206e-002 -1.30743370e-003
      -5.81370527e-003 1.78508367e-003 1.73251312e-002 1.05280767e-003
      3.90211912e-003 3.37534491e-003 9.77009162e-003 -4.75610234e-003
      1.11738937e-002 5.38903754e-003 1.86929926e-002 1.39705483e-002
      -1.91265643e-002 2.62477854e-003 7.67294900e-004 7.56088598e-003
      3.82693391e-003 -9.15292418e-004 -3.48101300e-003 8.54035281e-003
      -2.59539322e-003 -2.69440673e-002 -3.38327046e-003 4.88784397e-003
      1.36083094e-002 1.09061843e-003 1.61428880e-002 1.44383535e-002
      1.16131371e-002 1.98387671e-002 -1.61911976e-002 -1.50553500e-002
      1.31492270e-002 1.18422443e-002 3.10515659e-003 7.73697393e-004
      -1.67050015e-003 -7.52985151e-003 -2.52122898e-003
      -2.95708012e-002 -3.12043149e-002 -1.86546953e-004
      -3.63442069e-003 -7.32332375e-003 -2.46698242e-002
      -1.45923626e-002 6.37776824e-003 -9.09874681e-003 -2.29660943e-002
      -2.53283363e-002 -8.48418754e-003 3.48655367e-003 -1.42011521e-002
      -1.14343073e-002 4.97073866e-003 2.61519179e-002 1.49277989e-002
      9.82244406e-003 -1.50851030e-002 -1.01933535e-002 -2.07144488e-003
      -9.97127034e-003 -1.17643019e-002 -1.44496663e-002
      -1.13678565e-002 -1.56643090e-003 -2.30049472e-002
      -2.46891119e-002 -7.62012694e-003 -3.71084269e-003
      -3.49747163e-004 7.65523873e-003 1.96016636e-002 1.30091133e-002
      8.49885121e-003 9.19353962e-003 1.16961095e-002 1.21918358e-002
      1.06491111e-002 5.38931880e-003 -2.32654233e-002 -2.46135332e-002
      -1.41715398e-002 -8.77096318e-003 -1.47067965e-003
      -1.76574811e-002 8.75366386e-003 3.06656095e-003 -1.30389165e-003
      -1.41413715e-002 -1.71488933e-002 -1.80781689e-002 7.99723901e-003
      8.50544032e-003 -6.32252218e-003 1.01970546e-002 1.46627016e-002
      1.10641681e-002 -8.05305783e-004 -3.27940322e-002 -2.22878368e-003
      -2.79469299e-003 -1.15853045e-002 -1.10263899e-002 7.64597254e-003
      3.13315331e-003 2.22833976e-002 4.62865224e-003 -1.63130406e-002
      -1.22540398e-002 -1.97667861e-003 -9.81611758e-003
      -1.12646548e-002 5.47331339e-003 9.95327719e-003 1.97550002e-002
      4.28991439e-003 8.65493622e-003 1.26234302e-003 1.13541512e-002
      -7.52017694e-003 -1.57928020e-002 -4.43452690e-003 1.47143193e-002
      1.02364784e-002 -1.88384000e-002 -1.28004076e-002 -1.23359375e-002
      -2.45009060e-003 -6.20344887e-003 -5.48246922e-003 5.48123149e-003
      -1.44216511e-002 -1.12577872e-002 8.10115505e-003 6.46365713e-003
      1.77707014e-004 4.85823635e-004 -9.04138293e-003 -7.49132968e-003
      -8.09931880e-005 5.97879430e-003 1.50062665e-002 -5.51853841e-003
      2.29748199e-003 1.43651885e-003 1.38041517e-002 -4.08669235e-003
      -5.89954318e-004 9.84372199e-003 -7.76741421e-003 -2.41780304e-003
      -1.54846683e-002 -2.40455847e-002 -1.76999737e-002
      -7.76477624e-003 1.40272069e-003 1.20493043e-002 4.10751672e-003
      -7.94013310e-003 -2.02397052e-002 -3.35749565e-003
      -2.83768922e-002 -3.08630113e-002 -7.02763814e-003 6.32313779e-003
      1.10309767e-002 4.96737426e-003 1.22264698e-002 1.15181804e-002
      -2.56203581e-004 -1.15555283e-002 -9.48364567e-003 1.41246337e-002
      9.83696524e-003 6.00523083e-003 1.67428888e-002 1.29883429e-002
      1.03388764e-002 3.35426972e-004 -6.39951183e-003 -1.04413535e-002
      1.91190513e-003 1.60684120e-002 5.41869598e-003 1.85603369e-002
      2.97960248e-002 5.01352409e-003 -9.63887945e-003 -2.53618583e-002
      -3.07563087e-003 -1.05880192e-002 2.35336111e-003 9.09501745e-004
      -3.08856717e-003 -3.92522290e-003 5.28760441e-003 7.14300852e-003
      -1.57403126e-002 -8.56425427e-003 -1.77091472e-002 3.68059427e-002
      -3.96610470e-004 2.24345713e-003 1.78168137e-002 2.11697258e-002
      -9.07872245e-003 -8.60113278e-003 1.76186138e-003 -1.39597952e-002
      5.80433523e-003 -8.88594004e-005 -1.05710025e-003 -8.74725927e-004
      -2.95257196e-003 -1.16504021e-002 -2.19504777e-002
      -5.47473179e-003 1.87571184e-003 3.83819565e-002 3.58282514e-002
      1.76219139e-002 7.29697803e-003 -1.67166046e-003 6.62993407e-003
      -2.77572088e-002 -1.03699369e-002 -1.30613074e-002 2.64660027e-002
      -3.99711262e-003 -6.45113457e-003 3.81713570e-003 2.64903903e-002
      7.97151122e-003 -1.05913309e-002 1.05518000e-002 1.94803961e-002
      2.16695368e-002 7.86589365e-003 -4.65860264e-003 -7.12564308e-003
      3.35805374e-003 -2.11643595e-002 -4.78563495e-002 -1.01014711e-002
      5.33644250e-003 3.51165123e-002 3.26363929e-002 1.89557150e-002
      2.51688273e-003 -1.40975202e-002 -2.22518928e-002 -4.29049134e-002
      1.16537809e-002 2.69245580e-002 3.56632955e-002 2.13616770e-002
      1.61006842e-002 -1.70058326e-003 -2.17912607e-002 -3.10439640e-003
      -1.39540352e-003 1.79640017e-002 9.27962549e-003 8.87101330e-003
      5.59902331e-003 1.09653280e-003 -5.11258142e-004 -1.60738938e-002
      -1.20416516e-002 -1.27937151e-002 3.13081685e-003 -2.50171614e-003
      4.94820345e-003 -3.65551445e-003 2.15199892e-003 -1.67966671e-002
      -2.65132077e-002 -2.04988327e-002 -7.09308824e-003 2.67928187e-002
      2.24660970e-002 2.53492948e-002 1.63072255e-002 1.53812859e-002
      1.59532651e-002 -1.82011668e-002 -1.82553940e-002 -6.83410559e-003
      2.58872192e-002 2.25925576e-002 2.40490474e-002 1.10068815e-002
      1.86913088e-002 1.22406818e-002 -1.81092564e-002 -1.08457888e-002
      1.10431323e-002 1.10731795e-002 1.62016861e-002 1.21045122e-002
      -2.31054192e-003 -6.91201258e-003 -1.48888743e-002
      -1.86660010e-002 -3.40711921e-002 1.97016932e-002 1.07129924e-002
      4.50697867e-003 -1.00483303e-003 -1.52647197e-002 7.35710561e-003
      -8.76867585e-003 -4.04535122e-002 -1.13229211e-002 9.35831014e-003
      2.25119311e-002 2.51451060e-002 2.48677116e-002 1.35969603e-002
      1.68264098e-002 1.13669010e-002 -1.04046939e-002 -1.14727868e-002
      2.43317359e-003 2.61582341e-002 1.14028696e-002 1.68996975e-002
      1.97903253e-002 2.47739274e-002 1.55377407e-002 -1.04046939e-002
      3.89691791e-003 9.12478380e-003 -1.05507430e-002 -1.36040179e-002
      3.80390836e-003 -1.05918767e-002 2.45640054e-002 -2.69600801e-004
      5.82148647e-003 7.74884643e-003 4.34367731e-003 -8.68151896e-003
      -2.23611239e-002 -2.38846671e-002 -2.44572647e-002 4.38748114e-003
      -2.45892014e-002 2.94077466e-003 7.69576654e-005 2.31721508e-003
      9.78730712e-003 -8.76912288e-003 6.35044603e-003 1.14657804e-002
      2.54354831e-002 1.01143681e-002 -3.53027310e-004 1.96560883e-004
      5.25423046e-003 1.01720700e-002 -4.75524133e-003 5.04866010e-003
      1.13772629e-002 2.66089477e-002 2.09117323e-004 1.66504920e-004
      -2.74810707e-003 6.97848503e-004 1.14353979e-002 1.83771539e-003
      -2.26773992e-002 -4.94387047e-003 -4.50084591e-003
      -2.23221071e-002 -1.16344644e-002 -1.90912597e-002
      -9.12998989e-003 -2.98105972e-003 5.34931151e-003 -3.49602774e-002
      -1.46202231e-002 4.03056759e-003 1.62741207e-002 -5.31040505e-003
      -1.89807091e-004 1.18829049e-002 2.14414150e-002 1.19030895e-002
      1.40305283e-002 1.51953306e-002 1.91843286e-002 1.47918062e-002
      8.91560037e-003 7.75422528e-003 2.73124613e-002 1.59783326e-002
      6.09356817e-003 -2.14452446e-002 7.83180411e-004 1.64389331e-002
      2.43001636e-002 1.07368538e-002 -6.76205102e-003 -2.61996570e-003
      -8.48437194e-003 -9.50111263e-003 -6.81082606e-002
      -1.47890970e-002 2.48993170e-002 1.72515996e-002 1.64261535e-002
      3.40969861e-003 7.67779071e-003 -4.29191999e-003 -1.95585825e-002
      -4.67242897e-002 2.88307643e-003 1.31809926e-002 -6.43199449e-003
      -7.80532416e-003 2.36311425e-002 2.33885888e-002 1.72776952e-002
      3.19108972e-003 -4.88773584e-002 2.16160156e-003 1.86731331e-002
      2.84571964e-002 2.50079837e-002 1.31922429e-002 3.90383452e-002
      3.55426557e-002 1.08099934e-002 -3.85157950e-002 1.08195767e-002
      2.50762422e-002 3.49862874e-002 1.04907872e-002 -9.49029997e-003
      1.32320011e-002 6.98316144e-003 -1.24706095e-002 -1.06725916e-002
      5.57148270e-003 -1.77527592e-002 -1.58794262e-002 -1.99930500e-002
      -6.02076668e-003 -5.23070456e-004 2.35202033e-002 8.35304894e-003
      -6.60980865e-003 -9.83690727e-004 -1.91694070e-002
      -3.80800255e-002 -9.75182094e-003 -6.90593664e-003 2.88615767e-002
      2.06486415e-002 1.23163601e-002 -6.61998475e-003 5.35269547e-003
      1.40189072e-002 3.01711969e-002 -1.09850690e-002 -5.41686686e-003
      3.04928143e-002 1.96093544e-002 1.87670290e-002 2.80004889e-002
      1.15898810e-002 1.09496331e-002 2.36023925e-002 -7.99803436e-003
      -5.74337551e-003 -1.02937194e-002 1.25793451e-002 -1.59208989e-003
      -1.72861218e-002 -5.51424734e-003 -9.55008157e-003
      -5.93088195e-003 -4.28564288e-003 -6.25561271e-003
      -5.21458860e-004 8.14014301e-003 -1.81460381e-002 -2.88147759e-002
      -1.13269417e-002 -1.27617819e-002 -1.54767539e-002
      -8.69337562e-003 5.63588738e-003 2.83281840e-002 1.98057164e-002
      4.86522075e-003 4.05577803e-003 5.95403137e-003 7.73338461e-003
      1.90255884e-002 -2.40452573e-004 -1.03923120e-003 3.57884802e-002
      3.14769857e-002 6.74440246e-003 -2.41973139e-002 2.11649481e-003
      -5.37388667e-004 1.76816583e-002 1.31925149e-003 -1.72874779e-002
      4.35099518e-003 9.69005842e-003 2.01921002e-003 -1.89123675e-002
      -2.65786075e-003 -1.61254797e-002 -1.53781092e-002
      -2.68963668e-002 -1.31936325e-002 6.09388109e-003 1.20018423e-002
      2.59039551e-003 -1.79590322e-002 1.49944928e-004 5.52306836e-003
      1.55517682e-002 -1.43104689e-002 -8.16556159e-003 4.00677733e-002
      2.97135524e-002 9.70039703e-003 -1.68148037e-002 1.28224473e-002
      1.04137147e-002 2.07662452e-002 -7.46659236e-003 -6.31597685e-003
      3.80829237e-002 2.62093842e-002 6.87749311e-003 -3.38565209e-003
      2.31764726e-002 2.64688339e-002 3.18536423e-002 -9.75476298e-003
      -1.15203373e-002 -1.70586130e-003 -1.47661683e-003
      -5.31367073e-003 -2.13945489e-002 -1.49117308e-002 1.93059258e-002
      3.44778178e-003 -1.23885805e-002 -2.66111270e-002 -1.99765526e-002
      -2.17614211e-002 9.12650302e-003 -1.57870799e-002 -1.25778643e-002
      -6.23308355e-003 -1.34532237e-002 -2.69127190e-002
      -1.04753142e-002 1.39198173e-002 1.62246246e-002 1.22954203e-002
      2.29862775e-003 1.78464800e-002 2.65148729e-002 3.16082016e-002
      -4.68251808e-003 -1.60220712e-002 1.24530084e-002 2.19898373e-002
      3.78067270e-002 3.14479396e-002 3.12607624e-002 2.45324560e-002
      3.49764973e-002 -1.06331557e-002 -4.25645858e-002 -2.46605184e-002
      -1.63258296e-002 7.45202182e-003 -1.18388496e-002 1.61843188e-003
      -6.16706582e-003 -6.46672584e-003 -4.03723493e-002
      -3.71910855e-002 1.20350439e-003 3.13062477e-003 1.76658388e-002
      1.30367065e-002 1.39708864e-003 5.62558323e-003 4.30622371e-003
      -2.16903351e-002 -2.49679163e-002 2.42799241e-002 2.99518630e-002
      4.41548154e-002 2.36216262e-002 2.21402999e-002 8.16559326e-003
      2.28223577e-002 -1.88548900e-002 -2.24427376e-002 3.05681899e-002
      4.00842428e-002 4.32024226e-002 1.94294639e-002 6.41323254e-003
      -2.68072472e-003 9.16926935e-003 -2.02952623e-002</_>
    <_>
      4.40444015e-002 1.22817010e-002 -1.11581963e-002 -2.71080788e-002
      1.34726018e-002 8.86965357e-003 1.66255853e-003 1.59438010e-002
      4.54343930e-002 4.02753092e-002 1.32369976e-002 -4.90013370e-003
      -3.66419107e-002 -3.54718603e-002 -2.03931257e-002
      -1.03148483e-002 6.83614006e-003 3.71406190e-002 -2.56352555e-002
      4.20879573e-004 -1.18008815e-002 -5.00813127e-002 1.87468864e-002
      -4.54056170e-003 -1.86498966e-002 -1.34412572e-002
      -2.26286501e-002 -7.49947364e-003 1.41383959e-002 -6.53079260e-005
      -3.74943390e-002 -2.00788174e-002 -7.57176848e-003
      -8.98273289e-003 -1.74607560e-002 -1.83136556e-002 2.51443535e-002
      -2.62820162e-003 -2.51685409e-003 -1.81226581e-002
      -3.34330536e-002 -2.74257082e-002 -1.72576439e-002
      -1.15936864e-002 2.35544555e-002 1.79456230e-002 -4.90123034e-003
      -5.27905254e-003 -8.54498427e-003 -2.40870062e-002
      -3.52125317e-002 -2.33263113e-002 -2.84059867e-002 1.36275562e-002
      -2.80605862e-003 5.25895506e-003 9.05040558e-003 -2.82822945e-003
      -3.11415978e-002 -5.62502164e-003 -5.04389126e-003
      -1.21945860e-002 -2.28352714e-002 -3.43201542e-003 1.94163946e-003
      -5.44175832e-003 -6.61691371e-003 -2.39287708e-002
      -3.24534513e-002 -1.97643810e-003 -6.99317735e-003
      -8.75314139e-003 2.32194345e-002 2.60538596e-004 -7.23035308e-004
      1.24983734e-003 -5.53473365e-003 -1.18337516e-002 -1.80530865e-002
      -1.86455948e-003 7.23046530e-003 1.65782794e-002 -1.77616104e-002
      -1.61773171e-002 -5.73563529e-003 2.52228486e-003 6.09176140e-003
      -1.41012957e-002 7.90585671e-003 1.69237368e-002 -1.19707556e-002
      -3.77266575e-003 -2.96957255e-003 9.03018564e-003 1.43442117e-003
      -4.38163150e-003 1.01816785e-002 -5.07433293e-003 -1.65442023e-002
      -2.57111713e-002 -3.58114988e-002 -1.24832671e-002 4.40124003e-003
      1.47525566e-002 2.09848937e-002 -1.54704638e-002 -2.61581149e-002
      -2.91845314e-002 1.66082531e-002 -1.34531427e-002 -1.14267217e-002
      -1.13915903e-002 8.77934915e-004 4.75030672e-003 -1.83352269e-002
      -5.04245749e-004 1.56067628e-002 1.95731539e-002 5.61213540e-003
      7.41086621e-003 4.59203497e-003 1.91711616e-002 3.78277525e-003
      -3.45556140e-002 -2.92260805e-003 5.84408827e-003 -4.04246189e-002
      -2.92787608e-002 -7.85259344e-003 6.56686118e-003 -1.13469725e-002
      -3.49312043e-003 -3.37818041e-002 -2.56382450e-002
      -4.57115471e-002 -6.36291038e-003 1.21908158e-003 7.72981951e-003
      3.98658514e-002 1.52678201e-002 2.93995393e-003 -4.27284278e-002
      -4.17268509e-003 -1.30619779e-002 1.48183396e-002 1.08232936e-002
      -1.91568863e-003 1.50603207e-003 1.64415613e-002 -1.60987675e-002
      -3.76838408e-002 -2.67392229e-002 1.36098079e-003 1.18241115e-002
      5.83627215e-003 1.98758487e-003 -6.29751431e-003 -1.48159349e-002
      -1.65097173e-002 -2.61369776e-002 -2.67795920e-002 7.60001224e-003
      6.65581960e-004 7.76035152e-003 -2.29497114e-003 2.04838961e-002
      2.13486925e-002 3.58605594e-003 -3.08970734e-002 -1.05855027e-002
      -1.94856692e-002 -2.03639502e-003 1.24768689e-002 3.48108867e-003
      -4.73436853e-003 2.71367561e-003 4.69550677e-003 -7.65713677e-003
      -7.04322662e-003 -1.55035220e-002 1.22498218e-002 -1.39990030e-003
      -1.48889457e-003 -8.76451842e-003 -5.76883974e-003 1.77425810e-003
      -1.58950854e-002 -1.85896847e-002 9.36381333e-003 1.34496642e-002
      -2.65079662e-002 -2.08304822e-002 -5.29507827e-003
      -2.18130788e-003 4.68527758e-003 -8.01401213e-003 -2.21359599e-002
      1.20833293e-002 -8.44904315e-003 3.24779167e-003 9.20541864e-003
      -9.28269979e-003 -8.13086401e-004 4.33584722e-003 -5.04123105e-004
      5.50406054e-003 -2.14734580e-002 -9.68984910e-004 2.60476908e-003
      1.81895625e-002 -3.65751912e-003 1.32032146e-003 1.04128355e-002
      1.91655438e-002 1.10771544e-002 -4.72590048e-003 1.36938049e-002
      -3.49952541e-002 -2.67659575e-002 -6.43637357e-003
      -2.90270126e-003 -9.77601390e-004 -5.25944540e-003
      -1.24772433e-002 1.55396005e-002 1.37977172e-002 -2.55972259e-002
      -2.50073522e-002 -3.17448954e-004 3.71660036e-003 -1.20758275e-004
      -8.63501988e-003 -4.97359829e-003 1.51553815e-002 -1.15896091e-002
      -1.28596174e-002 -5.11429645e-003 -8.33581574e-003
      -5.19632502e-003 7.93643761e-003 2.23568622e-002 2.25759633e-002
      -4.96285036e-003 1.14433487e-005 3.20512595e-006 -7.13594258e-003
      -2.86720926e-003 3.19071836e-003 -6.28154585e-003 6.91612670e-003
      1.51948258e-002 -3.61528923e-003 2.90149935e-002 -2.91872770e-002
      -2.17509232e-002 -1.27855781e-003 -6.31824927e-003
      -1.12147015e-002 -1.18128210e-002 -5.39386086e-003 2.81326268e-002
      2.80854255e-002 -2.61707027e-002 -1.46322502e-002 -1.33558828e-002
      -2.27997825e-002 -2.63683740e-002 -1.89110972e-002 1.26497019e-002
      2.79094800e-002 -6.96291463e-005 9.57109686e-003 1.74925255e-003
      -3.47800599e-003 -5.44780167e-003 -2.67658904e-002
      -1.10004051e-002 -3.09224101e-003 -1.33830011e-002 2.41622794e-002
      2.30896492e-002 1.13744540e-002 -8.45660269e-003 -3.36072892e-002
      -3.66822407e-002 -1.68639310e-002 1.26751168e-002 2.13557761e-002
      4.50643012e-003 -1.25028854e-002 -9.27858427e-003 -9.79794748e-003
      -1.09956730e-002 -1.61165502e-002 -2.03160346e-002 1.08209718e-002
      8.72630568e-004 2.73564341e-003 -2.24750619e-002 -1.31158149e-002
      -8.57046526e-003 -9.67615470e-003 1.28888513e-003 -3.97182349e-003
      9.93774179e-003 2.55104707e-004 3.73245543e-003 1.25035131e-002
      7.28535885e-003 -7.24991225e-003 -1.66282468e-002 -1.04563180e-002
      -2.98879342e-003 2.16047764e-002 1.07021937e-002 -1.36147230e-003
      -1.11323856e-002 -8.42603948e-003 -1.14124399e-002
      -2.20714181e-004 2.15217005e-002 1.76361781e-002 2.80237272e-002
      2.07420364e-002 4.04957961e-003 -2.30099242e-002 -1.23290755e-002
      -5.94406901e-003 -5.67824952e-003 8.03187583e-003 1.31722670e-002
      7.41340127e-003 1.15194626e-003 -1.30825944e-003 -2.63801012e-002
      -2.33663134e-002 -1.12239672e-002 8.42952344e-004 1.32868867e-002
      1.59357805e-002 -7.64878094e-003 6.07182796e-004 7.11973710e-003
      -1.48227829e-002 -1.19403396e-002 -3.96768143e-003 6.37115096e-004
      1.43657578e-002 1.33714071e-002 2.18845382e-002 3.36031355e-002
      -8.13349243e-003 -1.59579385e-002 -9.03775077e-003 6.85109245e-003
      5.08094160e-003 1.05001302e-002 1.86565109e-002 1.09825460e-002
      1.27607854e-002 7.96474982e-003 -3.24322958e-003 -7.58777233e-003
      -8.47913511e-003 -7.11319130e-003 8.16110056e-003 4.87173581e-003
      -4.33855969e-003 1.28026400e-002 -3.30361561e-003 -6.18992373e-003
      -1.13141164e-002 -1.42167713e-002 -1.95837729e-002
      -7.99586531e-003 -2.09341273e-002 -1.32494466e-002 5.61687211e-003
      5.89501578e-003 -4.06699721e-003 1.34367021e-002 1.47327250e-002
      5.25182672e-003 1.02347033e-002 1.61962304e-002 5.00288652e-003
      -1.10926421e-003 -5.35895210e-003 -2.96448730e-002
      -3.70458770e-003 -2.66227964e-003 -1.61930290e-003 1.74176432e-002
      2.04122486e-003 2.44758511e-003 -1.03140557e-002 9.68203042e-003
      4.81037889e-003 -1.64413806e-002 -6.90417888e-004 1.16008874e-002
      7.41065713e-003 -9.13181435e-003 -2.03436073e-002 1.72250289e-002
      9.61641595e-003 -1.38704048e-003 -1.98983029e-002 -1.52320797e-002
      -6.14153803e-004 -4.06654319e-003 -1.68037545e-002
      -3.58776711e-002 1.80742219e-002 -1.86053794e-002 -2.02919003e-002
      -8.85711890e-003 8.72472394e-003 2.26000473e-002 3.33213024e-002
      5.01929363e-003 2.04277132e-003 -1.17045222e-002 -9.55275260e-003
      -7.19156442e-003 -1.86041184e-002 -1.03907520e-002 2.55208951e-003
      3.24059580e-003 -1.06362002e-002 -2.54707895e-002 -3.28012696e-003
      1.80569906e-002 -2.74302810e-003 -1.17507344e-002 -8.39838199e-003
      -8.42030719e-003 -6.03254931e-003 -1.05341934e-002
      -1.94584653e-002 2.32997462e-002 1.91332083e-002 -9.34803113e-003
      -1.02021759e-002 -2.34084157e-003 -7.37532089e-003
      -5.75417932e-003 -9.35330335e-003 -1.19135305e-002 2.20847540e-002
      6.18282193e-003 -5.10999886e-003 -8.20387714e-003 -1.03890942e-002
      -1.15616582e-002 -9.32049286e-003 -1.50509551e-002
      -1.87578741e-002 -2.03293562e-003 -4.34597675e-003
      -1.52080171e-002 -4.46669478e-003 -1.47210080e-002
      -2.26253793e-002 -1.82392914e-002 -8.32612067e-003
      -5.15789166e-003 -8.26947857e-003 2.34626289e-002 -8.44724011e-003
      -8.40538740e-003 -7.19320169e-003 -1.74380727e-002
      -6.44055940e-003 -7.79882027e-003 6.93858275e-003 1.99693497e-002
      2.56103035e-002 1.59713496e-002 1.29465782e-003 -1.41158924e-002
      -2.55960748e-002 -2.54761637e-003 -1.83586329e-002 3.77193396e-003
      2.13699155e-002 1.50792522e-003 -1.01623144e-002 -8.54968838e-003
      -1.29357446e-002 -3.56151685e-002 -1.39304027e-002
      -3.87235224e-004 1.86657831e-002 5.37715573e-003 -1.60422840e-003
      9.35695786e-003 -1.12154149e-002 -5.05905822e-002 -3.59171890e-002
      -1.85467806e-002 -2.97802035e-002 1.11539029e-002 1.05068693e-002
      1.74061302e-002 2.52074413e-002 1.34531083e-002 5.76435030e-003
      -1.21245729e-002 1.47319548e-002 -4.22177231e-003 9.32657067e-003
      1.34858089e-002 4.75056395e-002 1.55486688e-002 5.14272088e-003
      -5.75215323e-004 -1.99870467e-002 1.46012176e-002 1.14935953e-002
      6.21967670e-003 3.78341377e-002 2.23841824e-004 2.25581732e-002
      8.77921190e-003 -2.96578798e-002 -2.96350941e-002 -9.28594172e-003
      -3.03459316e-002 5.77776646e-003 1.81681830e-002 4.17763460e-003
      2.05757432e-002 -4.04442288e-003 -3.36000952e-003 -1.76835041e-002
      6.32285047e-003 -8.05401243e-003 1.03544220e-002 6.92077493e-003
      -8.20935890e-003 7.81713054e-003 1.06672533e-002 -2.73495782e-002
      -4.13497444e-003 -1.37936082e-002 -1.86792556e-002
      -6.50333054e-003 -4.22319351e-003 1.74672474e-004 -5.55250840e-003
      1.57729220e-002 -1.95881799e-002 -2.48208828e-002 -1.61232281e-004
      -3.64785152e-003 -1.65078584e-002 -1.41198533e-002 1.51289776e-002
      2.32302845e-002 2.92424727e-002 4.88020387e-003 -2.54970742e-003
      -1.11253494e-002 -1.16889523e-002 -6.86685508e-003 1.22147352e-002
      1.15875993e-002 6.54306542e-003 4.14451957e-002 2.39760429e-002
      1.06548583e-002 2.53206538e-003 1.26125314e-003 -7.68666039e-004
      -1.07681518e-002 -1.94194820e-002 -1.15268128e-002 1.04152830e-002
      1.22189382e-002 -2.11282424e-003 1.11293541e-002 -2.35823146e-003
      -2.82952171e-002 -3.91900875e-002 -2.48339754e-002
      -2.88921990e-003 1.13594150e-002 1.37391873e-002 2.54426636e-002
      9.53839999e-003 -5.30773867e-003 -2.63989735e-002 -2.95683444e-002
      -8.29539262e-003 -1.53523963e-002 1.85278244e-002 2.58433111e-002
      1.98308565e-002 8.30181502e-003 -6.80233072e-003 -2.26425417e-002
      -2.56144088e-002 -1.89243164e-002 -1.31024616e-002 1.15597285e-002
      1.93280000e-002 3.14770080e-002 2.16976721e-002 -1.12215625e-002
      -3.70240249e-002 -3.09225414e-002 -2.64137462e-002
      -8.05990864e-003 3.04305064e-003 3.11980187e-003 3.45552415e-002
      1.71555020e-003 1.53557840e-003 -1.53200030e-002 -3.14524919e-002
      -8.86455644e-003 -1.01320799e-002 1.06599219e-002 1.38011659e-002
      3.02356556e-002 1.04985572e-002 -1.39958598e-002 -2.52296366e-002
      -2.16922816e-002 -2.29237843e-002 -9.93727334e-003 5.51036326e-003
      5.06985886e-003 4.41239513e-002 9.82324965e-003 -2.15800479e-003
      -1.85953807e-002 -2.98616942e-002 -1.09435041e-002 1.85070152e-003
      1.69770997e-002 2.55759023e-002 4.09757942e-002 1.88497733e-002
      7.37166731e-003 -4.71907854e-003 -2.01690029e-002 -2.37364117e-002
      -1.04040476e-002 6.93277048e-004 1.53447706e-002 -5.43785561e-003
      -6.10924372e-003 -2.12325938e-002 -2.83853561e-002
      -4.60059457e-002 -3.86101520e-003 -2.28687492e-003 2.15526277e-004
      1.88741200e-002 1.16435252e-002 2.74782977e-003 1.32421602e-003
      -4.27748356e-003 -1.53948357e-002 -4.89877397e-003 1.31787378e-002
      1.63067617e-002 2.13718340e-002 1.55698564e-002 7.61085376e-003
      3.74926254e-003 -4.50011063e-003 -2.07834467e-002 1.96134355e-002
      1.39063718e-002 2.89103948e-003 -8.43219832e-003 9.12120659e-003
      1.61984134e-002 2.10286584e-002 1.82379577e-002 2.23106630e-002
      -1.16618806e-002 -7.35953543e-003 -9.44668520e-003 2.07399335e-002
      2.40362249e-002 2.50943154e-002 1.55992638e-002 1.51806962e-004
      -1.64157916e-002 -2.34416444e-002 -3.60193267e-003 4.54036565e-003
      4.78511257e-003 1.09600415e-002 2.48200856e-002 1.07783359e-002
      -1.01650096e-002 -2.11858936e-002 7.67142652e-003 -1.59982627e-003
      1.81183009e-003 1.93235429e-003 2.29451177e-003 1.67634450e-002
      1.74966995e-002 9.30004101e-003 2.63333623e-003 -3.95552209e-003
      2.57219002e-003 -1.94088730e-003 3.37512000e-004 -1.01354355e-002
      -1.30534964e-002 -7.56360358e-003 -6.79954467e-003
      -2.16781069e-003 -1.59053523e-002 2.78599747e-003 1.34717710e-002
      1.23684166e-003 3.97065096e-003 1.00539317e-002 3.60995834e-003
      3.47943627e-003 -1.44350873e-002 -1.33529818e-002 1.15341619e-002
      3.12386509e-002 1.54215349e-002 1.69220138e-002 1.39982561e-002
      1.38230212e-002 8.28796066e-003 -1.66857485e-002 3.70150828e-003
      1.03612407e-003 -1.72036292e-004 -3.12074809e-003 -1.54738082e-002
      -1.31325945e-002 -1.06448010e-002 9.80638526e-003 1.33600682e-002
      -1.19315051e-002 -5.78742882e-004 1.49795646e-002 1.22895362e-002
      -1.64274275e-002 -1.36973662e-003 7.31684314e-003 9.33369342e-003
      5.58697339e-003 -9.25533194e-003 1.89143550e-002 1.63320042e-002
      1.24434847e-002 1.39069930e-002 2.08242740e-002 2.02536285e-002
      1.73703283e-002 -1.59170032e-002 -2.46471638e-004 1.67964958e-002
      1.07751386e-002 -7.29744881e-003 -7.73889432e-003 2.98835058e-003
      7.74464337e-003 1.13005387e-002 -1.73965637e-002 -1.16537875e-002
      1.98531095e-002 1.04539236e-002 8.04991741e-003 -9.37048998e-003
      -4.19536576e-004 1.43106487e-002 -6.71391701e-003 2.02850220e-004
      -1.48427964e-003 1.61113478e-002 -2.84619979e-003 -1.38947600e-002
      -1.67409200e-002 -9.98687185e-003 -9.13141202e-003
      -9.05855373e-003 -1.10293012e-002 1.09489122e-002 1.93838999e-002
      1.28623312e-002 -5.80748683e-003 -3.88336182e-003 -2.25039665e-002
      -7.03231897e-004 5.74374897e-003 -3.85428523e-003 1.99203622e-002
      3.46471779e-002 2.78349202e-002 8.79947189e-003 -1.60926692e-002
      -3.61203253e-002 -5.99911716e-003 1.80985890e-002 1.22580491e-002
      2.86844559e-003 1.06814066e-002 8.85961519e-004 -2.16547363e-002
      -2.49573328e-002 -2.25232691e-002 -1.62838325e-002 1.09675005e-002
      2.09248438e-003 2.16981824e-002 1.61617640e-002 1.82187054e-002
      -1.81624871e-002 -3.13743353e-002 -2.95393914e-002
      -3.13409325e-003 3.97488847e-002 2.73886975e-002 1.56699121e-002
      1.35116233e-002 4.81710350e-003 -8.11216887e-003 -1.80341899e-002
      -1.78362150e-002 4.63652046e-004 2.73191761e-002 1.82187539e-002
      9.56075033e-004 -7.19125196e-003 -6.38771523e-003 -1.19573185e-002
      1.32207712e-002 2.32630204e-002 2.32610609e-002 2.72273943e-002
      2.00353079e-002 2.85422150e-002 4.15302254e-003 -7.36824237e-003
      -2.60569863e-002 -4.53697555e-002 -4.10585031e-002
      -1.62600018e-002 2.48207394e-002 2.74812374e-002 9.97187383e-003
      -5.30810142e-003 -2.32207496e-002 -2.04698779e-002 8.35599098e-003
      1.44475996e-002 -2.94526806e-003 8.43881106e-004 -6.64988067e-003
      -7.84904696e-003 -5.47126774e-003 -5.73610654e-003 3.97850201e-003
      1.18766930e-002 1.80437230e-002 1.04651609e-002 1.58495884e-002
      1.35952812e-002 2.26998207e-004 -1.24842220e-003 8.97713398e-005
      1.71652827e-002 7.91730545e-003 6.62673358e-003 1.05184363e-003
      6.64713851e-004 4.51248139e-003 -4.63256892e-003 -9.53713059e-003
      -1.62326433e-002 -1.72140100e-003 7.05758343e-003 1.83299314e-002
      -4.35701199e-003 -1.07604563e-002 -1.41968122e-002 3.23362183e-003
      -5.07208426e-003 -7.38390954e-003 -7.95818027e-003
      -4.47337050e-003 1.20748440e-002 -1.11472318e-002 -2.28887051e-002
      -4.33786307e-003 1.04860915e-002 1.97561691e-003 1.44667830e-002
      1.60143245e-002 7.87764508e-003 4.65101143e-003 4.32661502e-003
      -2.17888621e-003 -3.00881709e-003 -3.33789946e-003
      -2.46569645e-002 -1.48757026e-002 -2.38395273e-003 2.32399767e-003
      1.00382185e-002 3.96933686e-003 6.53179269e-003 -5.32690960e-004
      1.42605584e-002 -9.74165974e-004 -4.96011134e-003 -7.86411390e-003
      -7.13089015e-004 4.85475175e-003 -2.23638094e-003 -2.14418629e-003
      2.99445610e-003 3.84473847e-003 -2.18049390e-003 -1.91488136e-002
      -1.40242744e-002 -4.91307257e-003 -2.05611717e-002
      -9.28886794e-003 2.75514351e-004 7.57586397e-003 -8.51458497e-003
      -6.33504894e-003 -9.77843162e-003 4.03392967e-003 5.79816336e-003
      1.27016008e-002 7.15531595e-003 1.01743024e-002 5.78699727e-003
      -1.19822007e-002 -1.08870696e-002 -2.61801556e-002
      -1.28632113e-002 -4.81758779e-003 -2.86824955e-003 8.96655768e-003
      -2.13661743e-003 -4.25740145e-003 4.67587356e-003 8.84487573e-003
      -8.60778987e-003 3.65231861e-003 6.94444031e-003 -1.48184784e-002
      1.63687172e-003 1.65350898e-003 1.02631254e-002 4.56955470e-003
      1.13780273e-003 -8.05236399e-003 1.83485146e-003 -1.48526579e-003
      -6.31174538e-003 1.86422211e-003 1.03640556e-003 1.50189886e-003
      5.55646047e-003 3.91525775e-003 -7.67739210e-003 -1.60666257e-002
      -9.07806773e-003 -8.34056584e-004 3.25728464e-003 -2.81354110e-003
      -2.48003355e-003 -7.92390294e-003 -2.71316967e-003
      -4.24418785e-003 -1.51693057e-002 -1.56678520e-002
      -5.54031180e-003 4.81106015e-003 1.05152884e-002 -3.84597643e-003
      9.54295695e-003 5.69630414e-003 -4.19748528e-003 -1.09234387e-002
      -1.11818975e-002 4.56986437e-003 1.25239408e-002 1.47429937e-002
      1.24342898e-002 3.17269028e-003 -6.48601213e-003 -1.25026675e-002
      -1.35803465e-002 -1.32912900e-002 1.19507434e-002 2.42951922e-002
      1.58660784e-002 4.44813538e-003 -7.37813069e-003 -1.56357978e-002
      -1.03353569e-002 -7.09901750e-003 -2.09701154e-002
      -4.89794882e-003 8.14568438e-003 8.18697177e-003 6.82274578e-003
      -6.79632556e-003 4.68040258e-003 -3.63894925e-003 -3.01139336e-002
      -3.12498007e-002 3.87499668e-003 1.17333215e-002 2.37274375e-002
      1.73099190e-002 -2.34864390e-004 -1.40864067e-002 -1.54310577e-002
      -1.29637355e-002 -4.32192348e-003 6.18862361e-003 1.77582186e-002
      1.78100523e-002 1.02359122e-002 1.17572285e-002 1.44852616e-003
      -3.65317985e-003 -1.84043664e-002 -2.26822812e-002 2.93575879e-003
      1.43495379e-002 2.63805501e-002 2.71904878e-002 -6.37324713e-003
      1.14285555e-002 9.19264555e-003 -1.13796024e-002 -2.23984979e-002
      2.14930456e-002 2.26308405e-002 3.21184732e-002 1.04941847e-002
      -1.80280190e-002 1.60176971e-003 -1.79539099e-002 -1.89582705e-002
      -1.62270907e-002 2.74545848e-002 9.73199960e-003 1.31982435e-002
      -1.28646009e-002 1.57573577e-002 1.95066519e-002 1.69995595e-002
      3.81888967e-004 -2.17259824e-002 3.52912303e-003 1.56630222e-002
      2.72861198e-002 3.74624170e-002 -1.06925126e-002 -1.12558044e-002
      -1.94545705e-002 -2.91469023e-002 -1.36519242e-002 1.34147089e-002
      9.80720390e-003 1.51732853e-002 6.20685332e-003 -1.53047207e-003
      2.18538325e-002 3.86485010e-002 4.79274720e-004 -1.93433464e-002
      -3.22954394e-002 -2.96881236e-002 -4.83280122e-002
      -1.33752981e-002 -1.21618051e-003 8.05385411e-003 4.07620445e-002
      3.00025046e-002 9.00383666e-003 -5.27169928e-003 -1.31908329e-002
      -2.28472967e-002 -2.74554193e-002 3.11732013e-003 2.91191675e-002
      4.88834530e-002 1.64504796e-002 -1.93433464e-002 -3.54390852e-002
      -1.27029698e-002 -2.38312762e-002 -6.72621373e-003 2.44765496e-003
      3.61514427e-002 4.07912657e-002 2.89405826e-002 -5.65521372e-003
      9.17785428e-003 -5.01975510e-003 -1.44750420e-002 -1.12058781e-002
      -3.64959030e-003 -9.65516083e-003 9.02969483e-003 1.74148288e-002
      1.16707720e-002 -3.67318303e-003 -1.66807733e-002 -2.36696340e-002
      -1.90713722e-002 -1.62775125e-002 -1.24990884e-002 8.08274001e-003
      1.93956289e-002 3.69682238e-002 9.85543244e-003 -2.56560389e-002
      -3.90640832e-002 -2.46324670e-002 -5.70579432e-003 2.00221725e-002
      1.75822079e-002 1.78491008e-002 7.95697514e-003 1.04343556e-002
      -1.23373074e-002 -1.77004691e-002 -1.57923289e-002
      -1.03497049e-002 -4.61764820e-003 4.73117316e-003 9.48561635e-003
      2.08738409e-002 1.46060623e-003 -2.25104671e-002 -2.81682909e-002
      -2.15795189e-002 -1.81338824e-002 -1.08249933e-002 2.37331609e-003
      3.61379981e-003 4.70885709e-002 -9.17301513e-004 -1.22344224e-002
      -2.02272441e-002 -1.09542413e-002 -1.78652406e-002
      -1.27299624e-002 1.04645146e-002 4.27267561e-003 2.86141820e-002
      1.51948361e-002 1.18902689e-002 -3.63049388e-004 -1.27247199e-002
      -1.58269331e-002 -2.90057063e-002 -1.17264874e-002
      -1.67663638e-002 6.69718068e-003 3.15862778e-003 -1.98534434e-003
      -1.22437645e-002 -1.37173720e-002 -1.81571469e-002
      -2.39655115e-002 1.30484381e-003 -9.65878647e-003 -5.15185238e-004
      5.57532767e-003 2.33303178e-002 -1.06223319e-002 -1.81077477e-002
      -4.48360713e-003 3.14128632e-003 1.09641133e-002 5.82840713e-003
      2.61244308e-002 1.55006191e-002 2.24651340e-002 5.32495603e-003
      -1.05770316e-003 2.01884303e-002 1.38498778e-002 -3.93343763e-003
      -1.17833577e-002 -3.50929075e-003 -1.29789207e-002
      -1.01930359e-002 -3.71432584e-003 2.58667190e-002 -1.15058515e-002
      -1.19507853e-002 1.31251467e-002 3.87832290e-003 6.33545779e-003
      1.96300098e-003 6.07185485e-003 -1.71610676e-002 -1.63322780e-002
      1.78051982e-002 9.01111122e-003 1.53687447e-002 9.68211051e-003
      -1.28138124e-003 -2.59673335e-002 -3.38920914e-002
      -2.94735469e-002 -1.37502770e-003 1.23679703e-002 -7.21976918e-004
      6.49172114e-003 -2.56568287e-003 -6.33468479e-003 -2.16694083e-003
      -3.59792728e-004 7.68016500e-004 8.66044685e-003 1.39781125e-002
      -1.02986256e-003 -1.30554261e-002 -5.60699496e-003
      -1.30505580e-002 -2.29098313e-002 -1.42572867e-002
      -5.17056230e-003 2.78480933e-003 1.87334754e-002 4.47509717e-003
      6.38657436e-003 1.47904782e-002 3.32976622e-003 -1.63728874e-002
      -1.92514919e-002 -9.59191844e-003 1.78112052e-002 2.09795721e-002
      6.81106420e-003 -7.78396521e-003 -1.24280415e-002 -1.37135889e-002
      -2.12393645e-002 -2.34453585e-002 -8.91930424e-003 1.24879507e-002
      3.04310229e-002 2.01244876e-002 8.13228916e-003 -3.75607610e-003
      -1.32552860e-002 -1.86264608e-002 -8.65674112e-003
      -4.65786364e-003 2.28476133e-002 9.49793123e-003 8.89858883e-003
      1.10167684e-002 -2.40798690e-003 -2.75806095e-002 -1.83016304e-002
      8.31773598e-003 6.12171181e-003 1.96188446e-002 3.26642282e-002
      2.37488579e-002 6.65312773e-003 -2.20898143e-003 -1.46599682e-002
      -1.98236536e-002 -1.77271366e-002 -4.05368628e-004 1.49432598e-002
      1.54616935e-002 1.18690562e-002 5.72541496e-003 -1.60944294e-002
      -3.45608108e-002 -3.49525064e-002 -5.99502912e-003
      -1.72318295e-002 4.61880304e-003 1.14942594e-002 1.44112622e-002
      2.81598093e-003 -6.23996835e-003 -1.11887623e-002 -6.24678144e-003
      1.72673278e-002 1.51051283e-002 2.25640237e-002 6.06851745e-003
      9.01123788e-003 -6.61904598e-003 -2.12138742e-002 -1.64766964e-002
      -2.00174227e-002 4.32405900e-003 1.13155395e-002 3.56687262e-004
      8.47956818e-003 9.10477247e-003 9.67930537e-003 1.70682208e-003
      -9.23532527e-003 -1.33617977e-002 1.67665035e-002 2.60129618e-003
      5.72444638e-003 2.10617762e-003 2.73410743e-003 -7.58683600e-004
      -1.09063238e-002 -1.05143583e-003 -8.54973216e-003 1.60117783e-002
      1.51576987e-002 -1.37631083e-003 -1.59766786e-002 1.16231171e-002
      5.62694622e-003 -1.12880338e-002 -6.68683369e-003 -4.24919371e-003
      1.00702222e-003 1.56230489e-002 -1.80073343e-002 4.82881354e-004
      2.44563762e-002 1.19937537e-002 -1.75289754e-002 -2.04628017e-002
      -2.18114676e-003 2.14502048e-002 3.14681716e-002 1.68616581e-003
      -2.59321779e-002 1.12672225e-002 4.43302467e-003 -2.86143157e-004
      -1.27086660e-003 1.58283226e-002 1.57966930e-002 1.92879699e-002
      -2.23451685e-002 -7.87603855e-003 3.12958360e-002 1.47300204e-002
      9.29493736e-003 3.85571434e-003 3.16714160e-002 3.70459855e-002
      2.18356494e-002 -1.90063601e-003 1.47720538e-002 5.85081568e-003
      -1.08395135e-002 -2.93847080e-002 -3.54658030e-002
      -2.37155277e-002 6.83479011e-003 2.88112946e-002 1.81609150e-002
      1.13647357e-002 5.91306062e-003 -4.33146721e-003 6.16102945e-003
      -1.36245162e-005 9.11584403e-003 7.50943960e-004 5.73017215e-003
      -1.86244622e-002 -2.57757190e-003 1.17877340e-002 -2.59889686e-003
      -2.05957852e-002 -8.71182978e-003 1.10824294e-002 3.28186601e-002
      2.15369705e-002 -1.94409862e-003 2.78550107e-003 5.06673893e-003
      9.32782143e-003 -6.24443172e-003 -1.18743805e-002 3.04401782e-003
      2.81684548e-002 2.61213891e-002 -2.41354899e-003 2.36813401e-004
      7.40059000e-003 2.18275608e-003 7.29169603e-003 -6.98939490e-004
      1.46759059e-002 -5.98812243e-004 -6.80979947e-003 -2.79794969e-002
      7.16921547e-003 -8.48735869e-003 -1.01054588e-003 -3.81027232e-003
      5.84309502e-003 1.82577651e-002 -3.15816374e-003 -1.94173548e-002
      -1.40682608e-002 6.31436473e-003 2.91273836e-003 -1.36995513e-003
      -8.74927081e-003 -1.51790828e-002 -5.79257682e-003 1.07533336e-002
      1.02586169e-002 -3.23252357e-003 4.76031797e-003 -5.59000298e-003
      8.82744644e-005 -7.64449174e-003 -6.25689980e-003 6.62147393e-003
      1.61687378e-002 3.12393205e-003 6.97527733e-003 8.02440860e-004
      -1.12926010e-002 -2.04810197e-003 3.23489471e-003 8.20463710e-003
      1.05819786e-002 4.06213291e-003 -5.07886056e-003 -3.60331987e-003
      -1.16875246e-002 4.57663182e-003 8.01785383e-003 2.22270023e-002
      1.82261448e-002 -6.96313055e-003 -7.31307454e-003 -1.53516792e-002
      -7.09199067e-003 -9.33455303e-003 -1.74430013e-002
      -2.05334090e-003 1.80162454e-003 4.43595462e-003 7.19484454e-003
      4.49560117e-003 -1.17110247e-002 -6.03966275e-003 -1.61810312e-002
      3.94088356e-003 1.95744187e-002 3.92616242e-002 3.63868885e-002
      2.28492152e-002 -4.57680691e-003 -8.46629310e-003 -2.57444661e-002
      -2.23744451e-003 2.40281764e-002 1.13549549e-002 2.29650829e-002
      2.26934459e-002 -6.08437834e-003 -5.67779969e-003 -2.00961102e-002
      -7.86353927e-003 1.28427669e-002 1.70114897e-002 1.05536077e-002
      1.67574678e-002 2.81905290e-003 -1.38567062e-002 -2.98072714e-002
      -2.37340983e-002 -2.10225508e-002 2.69813836e-003 2.49028988e-002
      2.74875965e-002 4.30095457e-002 3.93568128e-002 1.42925177e-002
      -5.60851395e-003 -8.20735842e-003 -2.54367776e-002 7.14973453e-003
      2.16142219e-002 2.30027381e-002 2.99375486e-002 1.05226096e-002
      -9.31731705e-003 -2.51141414e-002 -2.36765221e-002
      -4.05503437e-002 8.21862463e-003 1.95246842e-003 1.16917701e-003
      9.12525877e-003 -4.71399259e-003 1.14695809e-003 -9.20287706e-003
      -3.86222615e-003 4.82714968e-003 -2.77622649e-003 1.18140958e-003
      -3.11747950e-004 -6.20152010e-003 -8.10529850e-003 4.94150631e-003
      1.48380417e-002 1.12462919e-002 1.23689519e-002 1.66330382e-003
      1.03054345e-002 3.19075445e-003 1.69900954e-002 -5.56943053e-003
      1.07506022e-003 -1.50504382e-002 -1.78918317e-002 -3.17062438e-002
      -1.39991390e-002 1.21785803e-002 7.01567251e-003 6.24922244e-003
      -3.55174206e-003 1.09799905e-002 1.52143305e-002 7.68101076e-003
      -6.31400710e-003 2.46393355e-003 2.16582557e-003 -1.22965372e-003
      -1.54586677e-002 -5.72804222e-003 4.59678192e-003 7.54800253e-003
      4.94240457e-003 8.95548798e-003 -4.72141523e-003 -3.54243466e-003
      -1.56010222e-003 -2.11983919e-002 -7.00391829e-003
      -3.57425539e-003 -3.11557786e-003 6.28607208e-003 1.99432597e-002
      -1.48755619e-002 -4.30281769e-004 -2.84291618e-003
      -4.98333247e-003 7.24643189e-003 1.49618741e-002 2.91055208e-003
      6.61164755e-003 6.65280083e-003 -2.72816187e-003 -5.36643341e-003
      -3.53974267e-003 1.26594510e-002 7.60478247e-003 1.11447889e-002
      -1.13536604e-002 -5.16476249e-003 7.15309242e-003 1.35302180e-002
      1.24761369e-002 1.97190419e-002 1.62575976e-003 -1.63250472e-002
      -4.51893825e-003 -1.12917414e-002 1.29464967e-002 2.89829317e-002
      8.00435990e-003 1.83338963e-003 -1.38525609e-002 -2.82647125e-002
      -6.53478969e-003 1.05718235e-002 5.55014936e-003 2.00508200e-002
      1.90499555e-002 1.84427612e-002 7.38945277e-003 -1.67690441e-002
      -7.93210603e-003 -2.33610701e-002 1.01501271e-002 -7.91861396e-003
      4.60638013e-003 9.33747366e-003 1.56919304e-002 1.55262919e-002
      -2.21526492e-002 -3.78047936e-002 -6.73753349e-003 3.04930117e-002
      2.05216818e-002 2.19850466e-002 1.52730262e-002 4.56075929e-003
      1.79428626e-002 2.90139206e-002 6.68115169e-003 -1.80711057e-002
      5.76784136e-003 2.49810657e-003 3.07595520e-003 4.49632714e-003
      1.32098887e-003 1.32816378e-002 2.55365651e-002 2.13871263e-002
      3.79666267e-003 3.22493874e-002 1.36886835e-002 3.59105226e-003
      2.89764861e-003 -2.10919846e-002 -3.57458033e-002 -2.79923677e-002
